-2.817927,4.043703,-2.399365,4.479812,3.733024,-4.294717,-2.567675,-0.074923,-1.822260,-0.829493,-2.228462,0.023347,1.889401,-2.855922,3.035829,-3.315226,-1.760613,-3.038423,-4.013031,-1.509751,-3.633381,4.628590,-0.711692,-1.176641,-1.048006,-4.218268,4.998474,-1.962188,-1.486404,-0.118717,0.463118,0.281075,4.593951,1.364483,3.455916,3.632466,1.026795,2.342296,4.745781,-0.541398,-1.926176,3.044832,1.806696,1.125523,-4.014405,4.949950,1.727805,-3.286538,0.317698,-2.524033,-4.747917,-4.525590,1.515244,-0.351878,-3.415937,-4.386273,2.910245,0.889462,-2.376324,-2.519608,2.027955,-2.843715,-3.779260,-2.376476,-1.839045,0.175481,-3.314920,0.523392,-4.606922,-1.729942,-1.874905,-1.584368,-1.359447,-1.488998,-2.836390,3.806574,1.988281,-4.450819,4.973144,0.252541,0.970336,3.133793,0.989257,-0.616626,3.715629,-4.705344,1.681570,3.665426,3.539995,3.736076,-0.722373,-0.305033,4.263131,0.578021,-0.071261,2.272561,3.430738,-0.369427,1.009705,-1.451765,-1.162145,-2.662893,0.800958,-4.815210,4.624012,1.679739,4.975890,-4.990081,-3.125858,-2.188635,-0.242164,1.450087,3.845332,1.009857,3.020722,2.331767,-3.173620,-4.143956,3.604541,1.875668,3.689535,4.525437,0.944701,-3.492536,1.756504,0.401940,3.060255,3.455622,0.745586,-4.338646,-3.073512,0.216071,-4.882656,2.846004,-0.869622,-4.345222,3.721580,-1.634571,0.383007,-4.100009,-2.241279,-1.493728,-2.506027,1.615192,1.569414,4.795373,-3.625141,4.719993,-0.328684,-2.622913,4.780581,4.378207,-1.610593,2.525275,-1.451439,-2.755800,0.572701,-1.895636,-3.966775,-1.911819,-2.660755,1.975922,-3.539380,-3.115327,2.457503,2.484512,-3.926817,1.785485,3.154241,1.871242,-3.716391,-3.059938,1.649220,3.196051,-4.235359,-2.984405,4.269845,-0.632334,3.085748,-0.329731,-3.120496,-1.597012,3.305023,4.034416,-3.055492,4.503027,-3.150862,1.268523,4.275958,2.139046,-1.511425,1.127813,0.553148,-0.673544,3.940550,3.948180,3.076113,-4.283273,-4.317911,1.247749,-4.924162,-0.407117,2.134007,1.293985,-1.163821,0.625498,-0.400534,-0.293567,-4.573483,-2.163894,-4.185897,-4.210465,-1.988412,0.021689,4.774032,1.205503,-1.275653,-4.726395,4.451127,-4.704886,-3.930784,0.712149,-1.915036,2.089602,-3.299661,-0.324259,3.310343,4.013489,-3.428144,3.447523,-3.888668,4.343394,-3.532821,2.759963,0.293915,0.725904,3.099939,4.612436,-3.472680,0.779617,2.607218,-0.532069,-2.208603,-3.910465,-4.871950,-4.351924,2.283090,-3.753166,-2.023530,-4.963073,1.260414,1.238441,3.101596,-4.695425,-3.898282,-3.283792,2.277291,3.320872,3.181707,2.110202,2.702881,2.682293,-1.984750,-0.183090,0.982565,-1.947060,-0.354604,-0.779421,-2.271624,-3.486718,3.422368,-4.178569,-0.997930,-4.379998,-4.937283,4.478591,-2.210303,3.542589,1.427808,2.038179,-3.550981,-4.480270,1.987060,-1.543016,-2.852870,-3.668477,-3.681906,-0.696582,-1.362938,4.555672,-2.588251,4.537211,2.589822,-2.192581,0.452153,-0.378866,-1.775393,-3.486412,-1.974217,-3.378679,0.993552,-3.078533,-2.719961,-2.726829,4.872890,-4.849849,2.654805,-3.464003,-1.943113,-4.048891,0.304117,3.922391,1.609546,-0.045778,-2.539293,-3.792676,1.749037,-4.711578,4.986445,2.814289,1.933827,1.421116,-3.062816,0.093103,-2.278490,4.683852,-3.636408,4.041895,-2.912970,-0.395041,2.311018,-2.947172,-4.080325,1.717887,-1.336558,1.160466,1.858730,-0.584277,-3.144627,0.915098,-4.510025,-4.826044,-4.507736,-4.766979,-4.451713,-0.927280,-1.324936,-3.660977,0.854692,2.404727,4.032737,-0.623168,-2.866581,3.810261,-3.638850,0.076775,-3.458184,0.360598,3.383141,-2.783288,3.897519,-3.191168,-1.022980,1.408734,3.846095,-0.234840,-1.742912,1.716208,2.082583,-2.725913,-1.689962,-4.381218,2.850148,-2.328842,-2.133983,-2.432914,-2.829045,-3.892309,4.252772,-4.321873,3.734265,3.828115,4.541634,-2.609769,-0.538173,4.115290,-0.849159,3.287302,-0.318613,-1.928312,-4.038057,-0.714286,1.730705,4.892117,-0.268258,3.187353,0.105289,-1.959746,3.909425,4.130247,3.171356,-4.917422,-1.073924,-3.910773,2.403049,-0.512537,-3.779098,2.282029,4.993768,-3.208235,-4.730500,-1.448998,1.451939,3.561837,-2.733369,4.760281,3.825800,2.228767,-3.727683,1.023133,4.549089,-4.591968,-2.446974,4.446699,0.914640,1.015046,4.705662,0.206788,-0.172557,2.722428,-0.306841,-0.638729,0.251801,3.301210,-1.579780,2.052694,1.108151,-0.832218,-2.538203,-2.175338,1.697461,-0.642851,-3.666472,3.216659,2.572405,3.685873,-2.329173,-0.560930,-4.106113,0.543382,-3.806879,2.083346,0.338755,1.056398,-2.955548,3.091398,3.451516,-4.578209,-1.492482,1.890952,-3.862550,0.852865,0.906118,-0.978093,-0.951238,1.519996,-0.990762,-3.855840,-4.405173,2.243132,-4.007669,-2.474287,-1.192511,0.463729,4.469131,0.298166,-3.160192,3.780328,4.549547,-0.998108,-0.256203,3.951842,-0.120219,-2.766783,4.377752,-1.527122,-2.409413,-3.259811,3.842914,1.098691,-0.287612,0.163451,-3.489312,-2.181289,3.177761,2.384890,0.396457,-0.716096,4.590002,1.869107,-0.233161,-1.199988,-1.282540,1.040071,4.230781,4.438459,-3.046358,0.867641,-1.779534,-0.925321,-3.115159,4.558418,3.653239,-4.846623,-4.201004,1.872027,0.854848,-3.709042,-0.154398,4.063561,4.090875,3.594491,3.249174,4.448399,3.867479,0.037864,-2.092346,-4.595172,-1.214331,4.532609,-0.160527,-1.141240,4.031953,1.658071,-4.958953,3.234352,4.063997,1.834468,2.806490,-0.598904,-4.495050,4.700940,4.246672,2.227874,3.173798,3.120238,0.082423,-0.698090,1.459874,2.807266,3.036155,2.113581,3.697339,-2.582611,0.034945,1.669362,2.311319,0.252541,-0.120853,-4.845424,3.531907,4.111759,2.986084,4.221168,-3.740806,-0.072481,-3.132419,1.918110,-1.444115,-4.419364,-4.657714,-2.665614,4.871237,2.187134,-1.664763,-2.492731,-0.194992,-1.165175,4.297638,-3.044047,-0.382226,-1.526534,-0.400250,1.521348,4.664449,-1.081118,2.803583,1.250343,3.635670,1.155431,-2.233955,2.871639,-4.976196,-3.095950,-0.849177,-1.157402,4.799057,-0.398093,1.398687,-2.452747,-4.623529,-1.460746,-2.008249,2.741804,3.972158,2.964284,1.590341,1.339619,3.593861,3.874477,-0.879543,0.208136,4.311502,0.072329,4.092685,3.898282,-1.493728,-4.607532,1.213111,-0.115055,-0.154424,3.576617,0.902127,0.910521,0.673713,2.628124,-4.033606,4.499369,-0.146160,-4.090374,2.853502,-2.699646,-4.353749,4.726420,-0.766159,-4.001282,-0.362560,-4.112064,-2.743919,2.254707,4.747307,3.640248,1.361888,0.989715,-2.436750,-1.149632,-3.458968,3.355663,1.187628,1.179083,2.421796,-2.687460,-1.682636,0.846147,1.096402,3.698411,-3.252183,-1.350423,0.322144,4.295341,0.221880,-0.103913,-3.092593,-3.020264,3.886837,3.483688,-4.340037,-2.117527,0.107120,0.210730,1.346324,-1.224250,-2.532273,-0.355083,4.777673,1.687368,1.447645,4.963530,-0.344554,-1.504563,-3.248085,1.313822,1.087680,0.891293,0.534532,-3.794214,0.287027,-3.471480,2.837916,0.406049,-4.998321,-3.094272,-2.965636,-4.894406,0.211493,-1.275674,3.974731,4.500259,-3.637806,0.264748,1.769921,-3.340556,1.118198,1.734825,3.325602,1.411786,-2.659993,-1.099887,0.533616,-4.219031,-4.095737,-2.456740,4.676656,-3.029115,4.369182,-4.150517,1.524400,-0.750603,3.445235,-4.965972,2.058016,-3.437147,-0.845058,0.945006,3.816492,2.416150,4.806207,-2.827387,2.869503,-2.043519,2.067476,4.116794,-1.415601,-3.081301,3.280282,4.772485,1.004364,1.702780,4.042024,-0.526292,1.384320,4.121220,-1.557665,-2.823420,4.975585,1.842402,1.924345,-4.388714,1.966918,-2.545701,3.041475,0.418256,1.039613,1.586352,3.145695,0.396588,0.714133,4.124882,-4.972076,0.536668,1.322977,-2.881252,-0.537584,1.847133,-2.608570,1.513108,1.553087,-3.823664,-1.945555,-3.620869,-0.457015,3.765374,-3.189032,2.375103,-2.076479,1.715598,-1.146580,0.771355,-0.911435,1.029695,-1.676382,2.509537,-4.046297,-4.564959,
2.409589,-3.496200,4.683523,-1.497696,-4.098178,3.975341,1.304819,-4.764855,2.587207,-1.280862,2.456282,-4.129917,-1.413160,3.216346,2.157659,-4.874874,-0.025941,-2.058321,0.938292,-2.115696,2.637104,-4.185919,2.497482,0.744957,2.691885,-0.333720,-0.988647,-0.997650,-2.967467,1.471908,3.930631,-4.642170,1.294900,-0.309458,0.741600,-1.797082,1.907865,-3.422803,1.900540,-3.373211,2.414167,4.010285,-3.731651,-4.138920,1.393933,0.270699,-3.814508,1.411939,1.622822,-4.408094,-2.019105,-4.376354,3.918271,2.258522,-2.166662,-4.022797,1.613361,-3.547014,-4.314402,3.716086,-0.654164,-2.763451,-2.665029,0.385907,-0.322275,0.668508,-4.103214,-1.343577,4.582659,-1.422163,-2.354656,1.723228,4.055605,0.336619,-2.771996,2.547838,3.615528,-2.256539,-2.744224,-4.421827,-0.612659,0.562151,2.732322,1.845912,3.721732,-1.798303,2.929624,3.160192,-2.412946,-0.928526,0.546281,-1.108890,-2.051454,2.213660,2.720267,4.033174,4.619129,0.716117,-0.051424,-2.686239,-0.061953,4.428541,-0.762963,2.676016,3.263649,-2.027802,-0.485397,-2.530595,-1.642048,-1.253853,-2.667623,-2.390362,-3.372906,2.913755,-4.611499,3.323618,1.236915,0.510117,-4.132206,2.268746,-2.092502,0.496078,1.843165,2.600177,-1.973479,-3.153020,-4.067049,0.319681,-1.811884,4.094821,1.369671,-0.873592,-3.785516,-1.397137,2.721030,-1.593066,-3.290201,-3.351238,0.280160,-4.761193,1.538133,1.842708,4.805597,1.304056,3.780175,-1.355022,-1.689505,0.107883,-3.153478,-3.599353,-2.619709,-2.959685,-0.153966,2.767418,-2.862941,-0.113224,-2.734764,1.411176,4.176153,-1.482284,2.027955,-1.946928,-3.341014,-3.454695,-3.692587,-3.782922,-1.324656,1.335643,-4.887387,-1.074557,-3.064516,2.413099,1.868343,-1.103092,2.878506,-4.649495,-3.211615,3.278756,0.499893,-0.997955,-3.660695,3.770562,-2.738273,-4.344310,-3.599506,-0.759606,-0.763878,3.072451,-4.149907,-0.318613,-3.018128,-2.256844,2.893918,-2.915281,-3.748741,-0.478225,-0.222327,0.540941,-2.169561,2.265084,1.306650,4.465468,-2.246620,1.160314,-3.696860,-3.615223,-3.107242,-3.412427,-0.543992,-3.577532,0.075533,-2.292245,4.448225,-1.229133,-1.333354,-3.033845,1.930906,4.990844,-0.204169,3.401288,-3.533128,0.705435,-3.063753,4.880062,4.537034,-3.142491,2.875759,-4.493088,-1.314737,3.126469,3.351390,-2.242653,-3.300577,0.291147,-3.734550,4.176763,-0.588244,1.458937,4.212470,1.079592,2.154454,-4.643696,1.949980,-2.789850,-4.705344,-3.680227,-2.750938,-3.139897,-2.150182,3.478347,3.341929,-0.523698,0.698874,-0.901364,4.283883,-4.087954,4.584033,-1.270943,3.505661,0.547960,-2.408979,0.494247,-0.465865,-1.629841,-4.120762,2.819758,-0.936766,2.135990,-3.607135,-4.214759,-2.414930,3.637501,1.919767,-1.369976,-0.156102,-3.789483,-1.121403,1.328623,3.836329,-1.273537,-3.759423,-1.739555,4.835658,1.363414,2.961821,-1.736808,4.148839,-2.117069,-3.162023,-3.443403,0.921354,1.191900,-1.444594,-4.099704,-1.608631,-3.287912,4.519333,-3.818323,4.761345,3.212226,1.317789,3.962371,1.435133,-4.571978,-1.216926,1.149174,-1.227454,-4.089938,2.886288,1.879788,3.935514,-1.546220,-3.760186,-2.792444,1.843013,-0.344401,-0.136265,1.541643,2.629627,3.703574,-2.897732,3.302255,2.906430,1.473739,-3.860897,-2.897732,2.375561,2.578051,-2.747887,-2.554704,3.616291,3.079012,4.784845,-0.281838,-2.494125,4.869686,3.923154,-3.873562,-4.196905,4.990234,1.689047,0.538499,4.894253,-0.569170,1.654714,-2.154302,-4.022797,4.390545,4.536729,-1.146123,-2.197027,1.083865,3.918424,-1.990265,4.743797,-3.942076,2.597430,3.343455,0.862300,2.361675,4.558855,0.796533,-3.410138,4.910276,-2.572253,-0.253609,4.312571,3.016755,1.414991,-1.935789,0.597705,-0.288705,1.719260,-0.009919,-1.057772,-2.453841,-4.445021,2.842952,-3.532823,2.925504,0.977660,-3.880123,-2.821436,3.994415,-3.850826,-3.149968,4.216590,-3.645894,3.093661,-4.391919,-2.664418,3.000275,-3.203986,-2.811213,2.550890,4.379864,0.745109,-3.457595,-3.110752,-4.999695,-2.569659,-0.228431,-4.463332,1.284982,-4.666433,-0.499130,-4.272439,3.811609,1.632740,0.375530,0.031281,2.873012,-1.773431,0.573748,1.973785,-4.671468,-2.821894,2.923826,1.608020,3.133946,3.289132,-2.498093,0.877712,2.354961,-4.435102,0.366375,1.946928,-4.661397,-2.867519,-1.973479,-2.609790,4.304788,3.764153,-1.144139,-2.326731,-1.777245,-4.719840,-4.711295,3.883328,3.753624,-0.220191,-2.770165,-0.676595,-3.657186,1.738487,4.557329,-4.624775,-2.851039,3.458815,4.954527,4.701529,2.455214,-3.623005,1.617328,1.097903,0.787072,-1.504257,-2.729728,-0.006104,1.428877,-0.003967,-0.381939,4.030274,1.918088,3.875088,-4.575640,-3.221076,-3.064516,-3.569140,2.851344,-1.736656,3.891415,-4.709311,0.543992,0.126957,-2.201605,3.187506,1.660665,-3.244881,0.769829,0.888241,-0.384533,-3.780175,4.158300,-2.034974,3.204596,-1.420637,1.158177,0.163427,1.668600,-2.637104,-2.856227,-0.719016,-0.762658,-1.092868,-1.326334,-4.279763,2.914975,-3.679769,-3.945738,-0.403607,2.624439,-2.177801,-3.335978,2.101657,1.714835,-0.540483,2.930235,-0.934629,0.213782,2.804956,-3.164159,2.737358,2.856685,1.627094,-3.292184,3.964507,1.214789,2.441786,3.829310,3.664663,-1.450697,-3.247780,4.617298,-1.076998,-2.696005,-0.018159,-3.515885,-3.855098,-1.055177,2.735832,-0.719474,-1.912900,-4.235817,2.052675,-3.698996,-1.899472,-1.800287,1.575365,2.766961,-2.294687,1.047090,-0.775781,-2.270272,-4.132969,3.513291,-3.525651,2.405622,-2.350993,-2.103336,2.256844,1.661885,-2.759636,3.843806,2.746361,4.885708,-4.642476,-3.261818,4.527268,1.972564,-3.977783,1.388897,1.922666,-2.184820,2.286447,-0.390027,0.706809,4.091617,-1.104617,3.817866,-0.389721,1.135441,2.081668,2.490463,2.128056,2.824335,-2.702109,-0.996887,2.258980,-1.547594,2.633747,-4.824976,-1.461531,-0.017243,-0.700552,3.115177,4.541307,4.335307,-2.479781,2.040162,0.840327,-2.683187,-3.525040,-3.808405,-0.273141,-4.640645,-3.213599,-1.292764,4.986114,-1.125065,4.219337,-3.285012,1.642048,-4.959716,-2.610401,0.374004,-4.332408,2.062899,3.571734,1.450392,3.110294,3.266854,-2.752464,0.834834,-3.151646,-1.756951,-3.239387,-1.032441,-4.540544,1.139866,-3.153478,1.111332,2.678457,-4.133885,-3.873714,-0.706351,4.320963,-1.885434,3.883786,4.648885,-4.235969,-3.911100,3.245186,3.219398,2.490310,-3.663289,-3.695181,3.027741,-2.359539,4.722282,-4.368725,-3.516190,3.862728,2.611927,3.146458,-4.088260,2.922758,2.242042,3.627888,1.863460,1.152226,0.973388,-2.727897,-0.055086,-1.262246,2.310862,-3.900723,1.975463,3.098849,-0.218207,-0.986358,0.663167,-0.302286,4.060640,2.684256,4.138768,-2.592700,-4.170354,2.650380,-1.281777,-3.680074,-3.038728,-0.219886,3.336741,4.799493,-2.132176,-1.755272,-1.040071,-3.870815,-4.333934,2.618030,-2.375408,0.284738,-2.009796,-4.767754,0.951872,-0.312357,-0.700705,-4.983215,-0.008087,-3.140355,3.437910,-3.711051,2.041231,2.530900,0.684988,-4.538713,4.060488,4.107639,-0.904416,-4.290750,-3.466292,3.264870,-1.748405,3.752709,4.554735,3.703726,1.875973,4.018220,0.645314,-1.591235,-3.393811,-3.462020,1.836146,-0.346385,-4.922788,0.336924,3.381756,1.049532,-0.289468,-0.997650,-4.697256,3.478347,2.843257,-3.747215,-3.987854,-2.767266,0.395672,-3.310190,3.502152,1.692862,-0.789514,0.930357,-0.411237,-3.584704,3.088015,0.093539,3.312784,-0.858791,-4.392529,2.874844,4.359416,4.179968,2.283090,1.911527,-2.013306,-2.245094,-2.885983,-3.000580,-4.424421,2.194433,4.563890,3.321635,3.435011,0.646229,-2.232887,0.284127,-4.208045,-0.357067,2.304147,1.000702,0.481277,-2.507096,-3.249458,-2.383953,0.446638,-4.609973,-1.793573,1.869716,-3.253426,-4.047975,-4.730369,-3.764611,1.137120,-2.232582,1.363262,1.218604,2.174139,-4.389325,1.573534,3.822748,-3.660237,4.967956,4.510025,
0.831629,1.114078,-3.677328,2.905972,-0.011444,2.906888,2.146367,3.021485,-2.112339,-0.515763,-1.208228,-0.207984,0.965758,4.402905,-3.811609,-0.101627,-4.208045,-0.519120,-3.554186,-0.438246,4.627064,-2.433546,-3.844874,3.495590,-2.135228,-4.086581,2.687155,4.159062,-1.367992,-3.169195,-3.090457,-3.614002,4.905087,0.127110,-4.104740,3.661306,-2.118748,2.789544,2.480544,1.658986,3.647114,1.622822,4.954833,-1.089053,-1.490524,-0.609607,-1.160161,2.748344,-4.735557,3.752709,2.160863,1.565294,0.901212,-2.203894,4.612415,-4.041261,2.913450,-2.017884,0.546587,-1.316416,-1.700797,2.531358,2.782830,2.862484,4.418470,-0.366680,0.961333,-0.797296,-3.295236,4.061251,3.205359,4.828181,-0.106510,-4.320353,-3.404645,2.816401,1.272469,4.897305,4.126560,1.970122,3.579058,4.096652,0.151067,-0.660268,-0.527055,1.903134,2.630848,-0.861538,-4.305094,2.735832,-3.876308,1.219672,-3.385571,3.826868,-2.765740,0.741600,0.748772,-4.225593,-0.780816,-3.113346,-2.730338,-4.426862,-3.666494,1.640065,3.493149,1.625721,-3.716086,4.813837,0.126041,-0.595721,2.681204,2.503281,-3.365581,0.193335,-0.308084,-2.771996,-3.943907,-0.486312,-3.496200,-4.318216,4.562059,-0.507828,1.084017,4.542375,-2.486648,1.635792,4.260079,-3.237861,2.773217,1.595965,-2.596210,-1.907865,2.113559,-4.091617,-0.709708,-3.706474,-3.308664,4.056520,0.547197,-4.005249,-0.365764,3.535264,-4.295175,-1.584216,-4.222083,-3.185675,2.915128,0.449080,-4.091159,-4.408704,0.303659,-2.272103,-4.436476,-2.101810,3.078249,-4.458449,-2.568590,3.038270,0.986206,3.837550,1.868496,-4.870754,2.940610,0.979796,0.634327,-0.760216,3.680837,-0.138249,1.554765,4.630421,-1.056398,4.814295,-1.806085,-2.045656,3.938871,-3.949095,3.775597,-1.715903,0.755181,-3.740654,-1.407971,2.625202,3.649556,-0.084689,2.179937,1.785028,-3.267159,-1.641591,4.696035,2.614215,-4.165167,3.526719,1.911832,3.942381,-0.847346,1.628162,-4.982452,-4.638356,-4.425336,-2.547227,2.733848,3.864864,-4.902036,4.165166,-1.761528,1.957152,4.083071,1.834315,2.152776,-1.926939,-4.111911,-0.195318,-3.834346,1.590930,-1.629231,-0.617542,-3.544878,1.325113,2.558824,-4.265877,-2.433088,-2.443922,2.517319,-0.791955,-4.280068,-1.203345,2.849666,-2.651601,4.346904,-3.430586,-2.288888,0.044099,3.847621,4.777673,4.241920,-1.481216,0.046388,-1.599933,-4.698630,-4.976348,1.981109,-2.461165,-0.767998,4.862208,-1.809291,0.260933,4.838404,-4.231697,-1.782891,-4.989929,-4.361553,3.004852,1.844386,2.107303,2.263710,-1.619770,-2.849971,1.546373,-2.980590,0.348827,0.417188,-2.342143,4.117557,4.240852,4.398022,-2.885983,3.734397,3.686636,3.975494,-1.803949,3.255867,-0.611287,-3.387098,-4.461196,-1.006958,0.289621,-3.272652,0.090335,-1.372723,-3.788568,2.646260,4.546495,4.583422,1.032594,-1.494339,-3.684500,-2.124699,4.496139,-3.998840,-2.363964,-2.773370,3.518936,-2.383190,-4.078341,4.256722,-4.248329,1.387066,1.207770,0.537583,0.205084,3.362682,0.899228,-4.725944,3.475600,-3.997925,1.569414,-2.612079,1.526841,-3.663442,-0.034333,1.828059,4.649495,4.386578,4.262825,1.632740,-4.022950,-2.447584,1.755424,-3.321330,-0.407423,-1.603137,3.548692,-1.261330,-3.460494,-1.933958,-3.843959,4.552140,1.677907,-4.316843,-0.260475,4.310129,2.960601,-0.522782,-4.716025,1.579333,0.805536,3.940245,-4.928892,0.866115,1.122623,0.921354,1.547899,-4.300058,4.675893,2.755974,-0.906248,1.417584,0.149388,3.268380,-3.400372,-4.574267,-2.840205,-2.040315,2.493209,4.977721,-3.972594,-3.259072,4.344157,-4.349498,0.641194,-0.188910,3.061769,2.209693,-1.376843,-0.270241,-1.584216,3.786737,2.337565,-0.841243,-3.181707,-3.552812,4.125797,0.485854,-3.586078,4.384441,-4.228950,-1.006348,3.744774,2.346416,0.086214,-0.021059,3.199407,-2.103794,2.780541,-4.187292,4.090091,2.955412,-1.353801,3.047884,0.783868,-0.494552,-2.749413,-3.505661,0.129093,3.894772,2.377544,4.919584,2.334056,3.818934,-0.307932,-4.828182,-2.470627,-0.955077,3.084964,0.296487,2.603839,-0.176550,1.169774,-4.889982,4.545579,0.327311,-2.006897,-1.270486,-3.232521,-4.631184,-3.715018,-4.420606,0.731681,-1.727805,4.403211,0.489822,0.868557,2.333140,-2.113712,1.268807,4.480270,1.523484,-0.386670,4.285103,0.295419,1.646473,-4.452956,3.527329,1.438184,-0.856045,3.049104,-0.792414,2.556536,-2.272866,0.860317,-2.658162,-2.576220,-3.768426,-1.585437,3.080691,-3.079775,-3.376720,-1.629536,-1.617481,2.311014,-0.328227,4.419538,-2.274697,4.803003,-1.710716,-0.345470,2.980284,1.632434,4.754020,-2.328105,0.681172,1.298562,4.740287,2.008880,2.066103,-1.227149,3.539232,1.567125,-4.913480,4.899136,3.768426,-1.161382,-0.063326,-4.604480,3.577990,-1.995758,4.016388,4.821467,-2.061373,0.010834,2.154912,-1.220283,-0.289774,0.201422,2.591631,0.292214,-2.973266,-1.556292,-0.642110,4.603564,-0.744500,2.625659,-3.922544,-3.673666,3.070772,-2.712180,3.071383,0.479904,-1.787469,-3.687857,3.098697,-3.586535,-0.258950,-2.434614,-0.357524,-4.897763,-3.164159,-3.911405,0.141911,3.037202,-1.905576,4.845424,4.909818,-2.352214,0.645619,3.048036,3.130283,2.541733,2.966093,-2.357097,3.756523,3.911100,-4.153417,-3.202918,-1.323283,-3.250526,4.109012,-3.799249,-1.670125,0.339061,0.884121,-1.959899,-3.287912,0.074007,4.840693,-2.541124,4.292428,-0.223701,3.435163,0.506302,-0.021668,4.807581,1.630299,-4.618977,1.258888,-3.099308,2.929014,1.757866,-3.079775,4.256111,1.035188,-1.859645,4.324931,2.572558,-2.138737,3.483993,-2.698294,3.359325,2.825404,0.005951,-0.489059,-4.447462,-3.612629,-1.432386,0.920133,3.316599,-3.108768,1.842250,-0.119938,-4.850154,2.799310,-2.454452,-4.720451,-4.712516,2.456130,0.318155,0.079501,3.354289,1.173132,-2.630085,4.129917,0.640584,4.026307,-1.674856,-1.849574,1.105533,4.358654,-0.392468,-0.361644,4.830164,-1.690725,3.569292,4.655599,-3.947111,-0.255593,4.653920,-3.935362,4.769433,3.159123,3.199407,-3.592335,-0.544145,2.164678,-2.929472,2.802210,-4.831843,3.103732,0.429395,2.748497,0.509354,1.911222,4.463179,-0.469832,-4.400464,-1.284982,-0.914182,-3.332469,2.527696,2.971435,-3.352458,-4.128086,0.993072,-0.675832,4.225135,-1.796167,-2.481002,-3.596912,1.673329,2.772606,3.387402,-0.587481,1.973937,2.961211,-1.573687,-4.939573,-2.605213,-0.331584,4.745933,-4.794000,-0.938902,3.142644,-4.457686,4.176458,-3.556169,3.789331,-0.740379,-4.656972,1.189154,-3.275399,-2.356639,-2.635426,-4.287698,-1.311686,-2.678304,2.251197,-4.210029,-2.038179,1.191595,-3.919492,-0.039521,-0.371563,0.625782,3.489639,1.027100,3.978698,-4.706412,2.031922,4.655751,-0.873135,-1.534623,-1.247291,0.333110,2.639088,2.591479,-4.501938,3.707999,3.277688,2.365947,3.487960,1.610920,-3.680532,3.609729,-0.508438,2.621845,-1.727348,3.215735,-1.387677,-3.259987,3.008209,3.721732,-4.006317,-4.801630,2.171545,-0.439467,2.461013,0.720237,-4.896847,4.209571,1.850337,-4.754631,0.491348,-4.778283,3.684652,4.598224,0.114597,4.803308,1.920988,1.217078,0.624104,-4.481948,-4.623707,3.791009,-4.049654,-1.804712,-1.249123,0.278787,-2.689138,-3.435469,-0.556047,3.611713,4.833522,1.213416,4.140904,-3.507797,1.112094,4.283883,-0.597400,3.914914,1.467330,1.850795,0.302744,1.075625,2.750633,1.556749,-0.826441,-2.220527,-1.946318,-3.485824,2.966857,4.882809,0.018464,-4.793390,-2.409894,-1.840266,-1.384625,-4.959410,2.015442,-1.682485,4.011811,1.667684,4.726859,-0.001221,0.140690,2.309793,2.106235,1.207312,-2.632679,-1.113773,3.494675,0.971862,1.942351,1.897946,0.797449,-4.293039,3.715323,-1.450087,-3.893857,-4.186682,-2.011017,-3.531602,-1.672567,-1.003449,3.150273,3.505356,3.692129,-2.370525,-0.187536,3.590808,2.465590,-3.756829,3.009735,3.742485,1.370739,-4.665365,
-4.057131,3.153172,3.185675,-0.448927,4.672842,2.384259,-4.248482,4.753105,-2.073733,1.118198,-4.242683,-2.580187,-1.949980,1.538591,1.607105,3.982513,-1.685690,-2.333140,-4.571520,3.378246,4.208502,-3.323160,2.816248,4.492935,-2.460555,0.716880,4.757836,-0.925321,4.497208,-2.989746,0.458541,2.339702,-4.209571,2.386242,-0.162358,1.281625,2.671590,2.050539,3.454390,-0.619373,-0.113529,3.779565,-4.046449,-1.611072,-3.518937,-1.402326,0.187078,-2.594684,4.847560,-4.783319,0.696738,3.305918,4.882962,-4.451582,1.627857,-4.818720,2.705161,1.855220,-3.550371,0.112003,0.788751,0.239570,-4.461043,0.261086,0.724815,1.151311,-3.319498,-1.253853,-4.568926,1.567583,-4.208350,-1.432539,-1.813715,1.649373,1.117130,-4.559618,1.986755,-3.121128,-3.354595,-3.509476,2.873165,3.274178,-1.581622,4.585253,4.362926,4.595935,-4.472945,-2.459334,-2.923673,-0.023347,-1.001312,0.740684,1.698965,3.822443,-3.348643,3.165838,-1.230049,3.091372,0.440229,-0.414747,-0.803858,4.890591,2.105625,2.553636,0.426038,3.995178,-3.863033,-2.099368,-3.417920,-1.275216,2.330241,2.713095,-4.639729,-2.698752,-1.259194,3.514969,-4.337901,3.961303,-3.196661,4.026154,2.618030,-0.738701,1.769005,4.735405,-4.542375,-4.567858,-4.592425,-3.290048,-0.852077,-4.348735,-1.808069,1.313211,4.316385,3.474380,-0.242321,-1.843781,1.702628,2.584613,-3.192236,2.404553,-1.376843,-2.944731,0.834681,-3.692129,-1.524094,-0.449538,1.262703,-3.894009,-3.997467,-0.252388,2.145146,3.630329,-3.789941,2.019105,-3.011567,1.519517,4.132969,-0.806299,-3.162786,-0.370190,2.218085,-3.566089,-0.205701,-3.997775,-0.545213,-1.274300,-4.214148,-4.664907,3.895535,-1.685232,2.512741,1.148717,1.927854,-2.709586,0.088656,-2.432478,-2.403180,-1.418958,-0.625477,-2.021088,0.030671,3.674886,-3.164006,2.883236,-0.941496,-4.382000,4.387341,3.017212,2.785575,3.367713,-1.530509,1.642657,0.454726,1.885739,0.916776,-1.017335,-2.430494,4.745476,2.116459,3.877682,2.756432,-3.064669,2.733085,1.505783,3.635670,2.649922,3.812983,2.420881,3.654134,2.999817,0.880612,1.695303,-1.627552,1.933348,-0.598926,0.896328,1.074704,-0.844758,-3.054296,3.652150,-0.314493,-0.582141,4.666585,-1.843623,3.189184,-2.950682,1.724296,2.420728,-0.411237,-2.842647,-4.545427,4.843898,1.537370,-0.990326,2.261269,-4.149754,2.564623,-2.345958,3.228248,4.643696,4.153874,-0.084384,-1.061281,-4.215373,-0.477315,-0.233014,1.295510,4.280831,-3.691519,1.925413,3.670766,0.348216,-4.034394,-3.279672,-0.041047,-3.209479,-0.548112,-2.903226,2.911466,0.757012,-2.427290,2.021088,4.596240,0.424512,0.990478,2.230140,-2.005524,-2.253945,2.278970,-3.877682,-2.054965,-2.586755,0.278934,0.065462,2.700735,-3.380078,0.769219,1.279183,4.599750,2.148045,-0.793786,0.641194,-3.395032,2.529221,3.759575,-4.790643,-2.625355,0.476547,-0.158849,0.386059,-2.261425,-1.074713,-3.917661,1.236000,-2.864925,-0.981170,4.367504,1.051360,-0.374162,1.492655,-3.843502,-1.825007,-1.514176,2.236854,-0.906858,-2.835780,-4.832301,0.487991,4.193091,-0.276650,2.357097,1.109500,1.883602,2.509842,1.884976,-2.119205,-1.804407,-0.944549,-4.889987,0.881216,2.148198,-1.541643,-0.057527,0.922880,2.822046,1.942347,2.447273,-4.375136,2.420423,-4.221778,3.275399,-0.039521,0.822321,3.268380,-0.326548,2.080142,-2.414319,-0.787530,3.988922,4.338511,4.938047,4.930723,-3.913236,0.276193,3.962827,-0.548728,1.299167,-3.541676,-2.983489,-0.071871,1.805170,4.159825,-4.143044,0.012659,4.083067,0.350200,4.579913,3.095187,-3.938719,-0.967589,-3.401288,-1.008789,-4.117252,-3.568682,-4.280221,-2.787561,4.712668,-3.102969,3.678243,-3.813593,4.203925,1.229896,-4.693599,-0.446034,-1.113930,-1.259804,1.533250,-0.275735,-1.295663,3.720509,4.611188,3.002863,-0.842160,-2.548448,-1.270180,-1.941740,-4.620960,-1.905576,2.130650,1.149632,0.435041,-3.620106,-3.062075,-3.180029,-3.807947,0.253456,2.781304,2.462691,3.393200,3.791615,1.075466,-4.306320,-2.010409,-4.961394,-2.649312,4.528336,3.304849,-3.171489,1.597028,4.708392,4.032868,-2.079684,-1.501968,3.067263,1.971496,-0.783715,1.156957,0.971404,4.454634,0.637684,-0.913572,-0.060579,2.532121,-2.693716,4.654530,0.003052,0.755789,0.767992,-2.390368,1.873832,-2.588887,0.132448,3.483380,-2.158272,-1.441852,-1.831574,0.494395,-2.381970,-2.331919,-2.622608,-3.656270,-4.363994,-4.168523,-0.542924,-0.970183,1.095309,2.663808,1.101871,3.930174,-3.244118,3.867153,4.095737,-3.868526,1.283456,-3.325454,-1.049995,-3.930790,3.245790,0.868856,3.286075,1.671645,-3.101144,1.020533,-0.611902,-2.278515,4.762413,-4.031343,0.639210,-2.418744,-1.712546,-2.540513,3.724326,4.712668,-2.260201,-3.861202,3.534349,-2.830744,-0.416883,-2.889798,-3.239235,2.216559,2.402570,0.641648,-2.328109,1.434518,-3.773161,3.410898,-4.050114,-4.142738,2.175201,2.555614,-3.481403,-1.689657,-0.724662,-4.908750,-1.216163,-1.337931,2.010865,3.811914,-2.683493,-0.111545,2.725150,0.776543,3.088168,4.268319,3.914914,-2.769097,-2.977233,4.397565,-1.862392,-0.120243,-4.432051,-1.143223,4.589373,-0.061495,-2.883847,1.551404,3.984796,-0.883975,-4.555499,1.042360,-3.559374,-1.724143,-4.528031,1.008942,-1.824549,-2.974181,0.431684,-2.038789,1.296426,2.316813,-1.763054,2.762230,-3.124485,1.385693,-4.825434,4.324931,2.345195,3.050172,-3.295846,-0.485092,3.761711,-4.325999,4.416790,-3.337358,-3.447072,4.909968,-0.811640,4.658345,0.873135,1.340526,2.927335,-2.881558,-1.665548,-1.782434,2.099521,0.693686,0.980712,-1.437574,-4.244819,3.257851,-2.511826,3.579516,4.176611,-2.060305,3.115940,1.213569,0.547197,-4.384747,3.069094,-4.362926,1.413765,3.408301,-1.944950,2.977385,0.429548,-3.925596,-0.117954,0.469985,-3.660695,-3.694876,-0.893735,2.876217,2.027192,0.412305,3.261513,3.639027,-4.369945,4.308756,0.273446,4.019745,-1.141545,1.371960,-3.049409,4.132969,-3.723106,2.195196,-0.404370,-4.606009,4.365362,1.449471,-4.104131,-3.865322,1.755119,2.981201,4.742119,1.045412,2.206946,-0.534837,-3.245186,4.525132,-1.479385,4.100467,3.001495,1.086612,-2.216102,-1.886807,2.614673,-0.701773,-2.013001,2.918180,-4.282662,-1.941282,2.108524,-0.258187,2.801750,3.010340,1.701248,-4.856414,0.195013,-3.408612,-2.890713,-0.021210,-0.967437,1.215552,-1.243324,-1.518448,-2.983337,1.000549,-1.985076,-3.292337,3.970916,2.358165,-1.816767,-3.814661,3.651540,-4.067812,1.355632,-3.056581,1.492813,-3.879208,3.202460,0.086673,0.088351,-3.923006,-0.631891,-1.293528,-4.161504,1.744896,-1.910001,-4.233375,-0.193030,1.967071,-0.234687,2.102115,1.677145,-3.572039,4.302652,3.834346,4.998779,2.813807,-4.500565,4.824976,0.937834,1.752678,-4.721671,3.276772,-1.798761,-2.415082,4.807276,-2.173833,-4.163488,1.579333,3.612323,-1.878719,2.271035,-1.185339,-2.698294,-3.355052,-2.021088,4.370098,-0.648213,-2.015290,0.603351,-2.127140,-3.008820,2.193823,-1.750542,-0.592822,2.856532,-2.243416,-1.618397,3.955809,1.989349,-0.259255,0.288400,-2.991729,-2.742851,0.426038,-3.898282,4.224372,-0.431684,4.990539,2.394024,-4.710532,1.416364,1.858577,-2.910245,-2.449263,1.793725,2.819452,3.773461,2.418744,-1.714682,-2.392041,4.131138,-3.234504,-0.324259,-2.298349,-4.205451,4.436323,-1.328928,1.560106,1.172216,-4.396954,-4.188055,2.222968,0.665456,3.858455,0.929136,-0.702536,-3.905454,0.091250,3.590960,4.758446,-0.452284,1.680654,2.288278,-1.090732,1.586352,-3.935514,3.904691,3.563799,4.310892,-4.924314,-1.408124,-2.052980,-0.981170,2.134922,-3.792383,1.917631,4.559008,4.760430,1.643880,-4.098941,4.490646,1.608173,-3.332774,-0.842311,3.211615,-4.636067,1.829432,2.045198,3.274941,3.111667,-2.145909,-2.229530,0.105594,-3.398236,-4.402142,3.139744,-0.379345,4.364605,2.517472,
1.965087,1.025880,-3.419752,-3.527482,-0.187231,3.859066,3.174078,-2.524491,3.053682,0.829035,3.723411,-3.225043,4.674368,-4.903409,-0.560167,4.160131,-3.744621,1.568957,3.107700,0.492416,4.893796,0.962096,-3.881039,1.458022,-0.655995,0.621815,-3.271432,3.431501,4.070101,3.869442,4.957274,3.618427,-1.900082,3.811457,1.938536,4.371624,-3.484756,-2.969298,3.197577,-3.132115,-0.208441,3.533280,0.983612,2.996155,-0.600604,3.240761,3.723716,3.906217,-1.056703,1.880551,4.556871,-4.467299,-2.187262,-3.422040,-0.495010,4.388714,-0.789666,-3.768426,-2.208167,2.550279,2.446059,4.136631,4.434187,0.693686,-4.746086,0.059664,-2.013611,-2.739036,-1.134526,1.017335,-1.551103,-4.726249,-0.383923,-0.688955,3.699301,0.381024,-1.692404,2.832575,-1.069216,2.307352,-0.405591,2.788629,-1.766411,-3.802454,-4.365825,4.609668,-3.549760,1.299173,0.882443,3.812983,-3.617206,2.432325,4.332255,0.760674,-4.016236,4.729911,4.379864,4.663533,-2.678610,4.929044,4.826350,3.208411,-0.080569,3.918424,-3.082217,-2.814112,1.528367,2.303842,0.263985,-4.509262,0.067751,-1.599933,-1.918394,-0.436110,0.019684,1.046785,4.368267,0.979949,1.140324,0.050813,1.686300,-2.522965,-3.406171,-1.251564,3.292947,-0.822169,-2.423933,4.213080,-2.178106,0.015107,0.466170,-4.740287,3.749504,2.247078,3.131657,-4.819941,0.304727,2.925962,1.629383,-3.188116,1.130100,-1.600543,-0.689871,-1.520432,3.221686,-3.465377,2.100131,1.249428,-2.634358,-1.488388,3.863033,1.004975,-1.453291,4.166082,4.983520,4.681845,-0.392773,3.901181,0.878018,0.129704,2.018189,1.007416,-4.410077,-3.471328,-4.593341,-3.338878,-2.549821,4.042024,1.554003,-1.542100,3.660237,-4.957732,1.604968,-4.936827,-0.406201,4.305094,-4.442732,3.019044,-3.290506,1.958831,-2.103336,-2.589801,-4.813379,2.022919,0.935240,-0.509659,-4.257485,-0.896634,-4.196295,2.077242,-3.099307,-0.966216,-0.276803,-0.032960,1.042817,-4.921415,1.547441,-4.188665,2.680898,-0.696127,-3.831751,-1.680197,-4.779351,2.036348,-1.503037,-2.847987,4.187750,-4.690085,3.208258,-2.739494,-1.374248,-3.224128,-3.215125,-3.239235,-4.586779,3.466140,3.384198,0.821558,4.636219,0.570238,-0.767541,4.931028,0.308390,-2.708823,0.831019,1.984313,-4.398480,0.388958,1.301462,0.001373,0.370647,-1.393628,1.639760,3.857997,-4.644765,1.348155,-3.138829,-1.164129,4.504685,-4.911802,-4.645528,-3.769799,-1.634724,2.593921,-3.908658,4.891812,-1.279183,3.195746,-4.551988,-1.869411,-2.027955,1.876125,3.671529,4.542222,-1.225929,-3.843959,-0.057680,-4.254128,1.009400,-3.673208,-3.044527,3.482620,4.964904,0.245674,-1.980346,-1.092715,-0.414747,2.316813,-1.326792,-3.215430,1.328013,4.706717,-1.380963,4.752037,1.854762,-0.117191,-4.623707,1.502579,0.486312,-1.573077,2.690664,-2.920621,-4.840846,0.488296,3.972137,-0.490890,2.072817,-0.357677,1.834010,1.734519,-4.909513,-1.072726,-3.466292,4.837031,3.308969,-3.863796,4.355144,3.902249,-1.747490,-1.866054,3.381298,-4.831843,-2.128666,1.310923,-3.542131,-1.828974,2.317881,3.342692,3.299356,-4.526811,0.303812,-1.459700,-3.552202,0.742668,-3.983123,4.580828,-0.234077,-4.857479,-1.569720,-0.736564,2.536699,1.818598,2.631306,-1.386456,-1.756035,-1.769616,4.748833,-1.359142,-0.766320,-0.303812,0.801263,-4.419843,4.116947,-4.343547,-1.876888,4.461043,-3.755608,3.643300,-0.807062,2.319254,0.375530,2.919248,1.327555,3.216651,0.388348,-4.603412,-2.862941,4.826960,3.522141,2.221747,0.937071,-0.966826,-1.042665,-4.398785,3.208716,-0.913114,4.603412,-4.485763,-1.130100,4.343242,0.715659,-0.815455,-2.234413,-1.901914,-0.848109,2.580493,3.043764,-1.393017,-2.148503,-1.337321,2.605670,-4.595782,3.791467,3.135319,-1.652882,-4.705496,-3.951537,-1.270180,-2.388531,-4.400922,2.400128,-4.663991,3.895993,-4.534898,3.729209,1.867428,-3.174383,3.451643,1.197699,-0.690329,1.798608,1.927091,-1.205176,-3.454390,-3.204749,-3.736229,-3.389233,2.872860,-0.599689,-1.843623,1.347545,-3.553880,0.496841,0.220954,-3.986633,-4.129765,-1.875820,-1.287423,2.493057,0.010681,-0.968200,3.976409,-2.932981,-1.763970,-1.666768,-2.426984,-4.472945,4.117557,-1.561632,0.300607,-3.228401,0.588397,-3.599963,0.722221,-1.736961,-3.738365,-3.370769,-1.846370,-4.054842,1.050600,-2.015595,3.048952,-1.479995,-1.435438,-4.763787,1.743675,-3.900266,-2.357860,0.092013,0.823695,-1.765343,2.592547,-4.510178,-1.727195,-3.684957,0.602130,2.970519,3.129521,4.650868,-3.541215,-4.904019,-0.259255,4.885098,1.885281,0.879696,4.840236,-4.312876,-4.685049,4.890591,-0.656301,2.659230,-0.444044,2.262032,-4.745323,0.172582,3.624683,-3.189642,-4.212928,3.972289,-1.774651,1.897031,-3.675954,-0.020142,-3.283334,-1.422315,3.327280,-0.720389,0.758385,4.027528,2.628712,-3.139897,-0.031281,2.234260,4.626301,2.857143,-4.786065,0.483871,0.891751,-3.434706,1.811579,2.422254,-2.090060,1.516923,-1.883145,-3.809931,-4.168981,-2.552416,1.263924,-1.057772,-0.177313,2.141636,3.835414,0.386670,2.705161,3.009735,3.850368,-2.613147,1.950438,2.603992,4.312876,-3.558763,4.411145,1.317026,-0.980560,0.085910,2.200232,-1.333811,-1.995300,1.758019,2.988830,-1.104617,-3.136082,3.124180,-0.571001,0.442518,3.697928,1.629688,1.056398,-1.246376,-2.996002,-1.151158,4.685812,3.848231,2.494736,-1.156652,-3.272805,3.985565,3.561510,1.490829,-3.270516,0.400098,-0.845363,-2.784814,4.462874,-3.059481,1.281167,2.491989,-4.280374,2.004913,-3.718680,1.547746,2.742546,1.824549,4.175848,-1.654561,3.023469,1.750389,-1.718345,-3.192236,2.643971,-1.381420,-4.963530,-3.753319,-0.287027,-2.031007,-4.208197,-2.302622,-3.240150,3.699911,-4.184393,-3.963439,0.461135,-2.673269,-2.436293,-0.426344,1.270180,-4.743950,3.326060,0.985748,-4.665212,-4.059725,2.660909,4.199042,4.264046,2.596362,-2.948546,-0.171514,3.871120,0.254830,-4.274880,-3.468276,3.667867,-0.584429,-0.808741,-1.647084,-2.029939,2.130039,2.930692,-4.420454,-2.968688,-0.404523,4.986267,3.439283,4.196600,0.487686,-3.665731,2.704398,0.819575,0.247200,-2.007508,4.600513,-4.653615,4.187597,4.027223,-1.557054,-4.164861,2.921995,-4.971618,3.333384,-0.037385,3.270516,2.197180,-4.928282,-1.364330,-3.982513,1.674551,-0.115818,2.463607,-2.084262,0.117038,0.605487,-0.319529,-4.851833,2.734916,0.826594,-2.650227,2.408063,-1.613514,3.339335,1.597339,-0.946684,4.718314,4.869381,3.044374,1.578112,0.522629,2.968078,1.556139,-4.803613,-3.262734,-3.298135,0.946684,0.611744,3.815577,2.543107,-0.469985,4.202551,1.203345,-1.942961,-1.636402,2.333445,-4.722892,1.453749,-0.654164,-0.292978,-1.697897,-4.533525,-1.495865,-4.498886,-0.859859,-3.551897,4.589984,0.718863,-1.350902,0.825220,1.136509,2.920774,2.352367,-0.277413,-3.049409,-2.742698,-3.339488,4.724265,3.522599,4.593188,-4.960021,-3.783685,3.221076,-1.371349,0.537889,2.411267,-2.097537,0.816675,-3.202765,-0.060732,-1.833857,-2.480697,-3.642842,-0.468154,-3.907895,-0.324259,3.485061,-2.062746,-3.283486,-0.941038,-4.297922,4.001892,-2.728660,2.404859,2.221290,2.831202,2.755974,3.741722,-3.219398,-4.769738,-2.188940,-0.028840,3.960692,-3.620258,-4.353771,3.116092,3.320719,-4.304331,3.895688,-2.974029,-4.512009,-2.022309,-4.220099,-4.666738,2.837153,-2.038942,0.559404,-0.948973,-4.068728,-0.092776,-3.664357,0.490127,-3.451949,-3.432112,4.119846,1.719871,0.334483,2.474593,2.287057,-2.302469,3.420209,3.092746,3.869442,-4.233680,1.647542,-4.523911,-1.104312,-4.563585,0.694143,2.905210,4.579608,1.744285,0.105441,-0.434126,-0.673849,2.602618,-1.048616,0.153813,4.624928,4.937590,4.691305,1.362651,-4.219031,-0.742821,1.205634,-0.649281,4.108860,-0.055239,4.397412,3.553728,-0.753960,-0.426649,-1.959288,-1.851711,2.988067,2.021851,1.350749,-1.465041,3.209479,
-3.340861,-1.301004,-0.996887,4.198126,2.567370,3.938719,0.891903,1.556749,-4.540849,-2.544786,3.221381,-1.777703,3.353984,-4.932859,-2.092959,-0.933561,0.576342,-2.451399,4.686575,-3.994263,4.100772,4.614551,-2.914060,4.768212,2.616657,4.354381,0.704520,-1.468551,-0.707724,3.900418,1.914579,2.905210,-4.574877,1.283914,-3.863033,0.300150,-3.382519,-2.466353,1.491440,4.730216,-1.232948,-4.093142,-2.149419,0.191809,-4.763176,1.873074,1.004364,-2.294534,1.367534,-4.582049,-2.077090,2.575152,3.045442,-3.691366,4.901578,3.440962,0.874050,-3.622852,1.809748,-3.735008,-0.106052,2.626576,0.843074,4.927976,-0.892361,4.285409,4.286477,2.934660,-4.629200,4.643696,2.828150,-0.554979,0.931120,-4.961394,0.346232,0.541246,0.229347,-0.092471,-4.317911,-4.288156,-1.993316,-2.489853,-1.854152,-1.150243,3.578906,-1.832942,1.361431,-3.383587,-4.701071,0.282449,-4.825434,1.710715,2.531358,-3.359325,-0.721458,-1.513871,-2.420576,-1.447798,-2.550432,4.650258,4.246803,-1.925565,-2.997986,1.893063,4.387341,-1.916715,3.720206,-0.999481,-3.317057,1.671041,-0.753807,-0.400555,3.830683,-3.567614,0.551012,3.518479,-4.890744,-1.744133,1.639912,-3.707389,1.099429,-2.350841,1.909696,-4.820097,-2.797649,-4.428711,1.520262,-2.399688,1.786371,-1.413951,-1.438196,0.495620,-2.674947,-3.267453,2.596871,4.105990,-4.853511,4.227271,-0.679342,-2.240669,-0.090640,1.188696,1.533097,-1.618549,0.756554,-2.707907,-2.200690,0.978576,3.670156,-3.630330,2.582462,-1.023624,4.571334,0.345284,-2.720911,-4.986605,-3.219736,-1.664666,0.710132,4.821446,-4.116797,0.326545,1.233677,3.020427,-2.853023,-0.124058,4.719535,-0.053560,3.081454,3.660390,-2.131870,-2.438429,-4.114811,-0.725730,-0.376293,1.428114,-4.148076,2.303218,3.336555,2.329444,-4.106757,-0.196267,3.534926,-4.443834,2.118409,-2.283733,4.416910,1.633928,3.612016,3.398107,-3.261547,-3.515248,2.038484,-1.827754,4.718314,-2.272103,-0.220344,-1.450697,4.962767,0.098727,2.323222,4.483474,-1.486251,-2.266762,-1.453600,-4.862090,-3.504474,0.815574,-2.881896,2.246129,-2.991763,3.869866,-2.889831,-1.647270,-1.342695,-0.579086,3.243343,-3.683011,-1.656034,-1.686432,1.288644,0.457320,1.646321,-0.717948,-0.678579,-2.060457,2.176733,-0.800501,-2.716605,-3.702353,1.421552,-2.102268,-3.330793,3.464275,4.650377,4.899408,-0.671746,-0.677697,4.637712,3.267583,3.335182,4.929316,2.699481,4.398992,4.209503,-0.687908,0.351767,-3.541063,4.946745,-2.562181,1.597186,4.567705,-1.064333,-1.174047,-0.833918,1.165654,2.664266,4.667196,-1.391949,-3.654286,-0.781135,0.834037,-4.692254,1.425334,-4.356245,4.870416,0.032316,-1.010043,-2.833830,2.753041,4.997363,4.770741,-4.384384,-0.245024,-1.492814,-0.214393,4.753716,-2.524644,-2.407910,-4.940947,-1.731468,-4.437544,-3.897824,-2.201300,0.253609,-1.377758,3.295694,2.094633,-3.122072,-0.790463,-2.646739,3.382546,2.353401,-4.301160,-2.870147,0.929408,-1.151192,0.469427,-3.540408,3.773223,-1.503917,3.167788,3.303626,3.809626,-2.407605,-0.586413,0.905179,0.116428,3.713340,4.861141,1.856441,-3.889737,-0.599536,-2.327036,-0.716117,4.011334,3.670886,-4.398662,4.002435,3.241716,4.679370,4.072967,3.725056,0.032927,2.872842,-3.057908,-1.550255,0.976234,1.967800,4.528608,3.583783,-3.861049,-2.746818,-1.502274,0.777306,1.372265,1.280862,0.845668,4.969787,-0.403302,-2.777337,2.902768,0.543382,1.999096,-1.052804,1.748616,1.711105,-1.921341,-3.630515,1.066588,0.423411,-1.841671,-2.462353,-0.656521,-4.908987,-1.155605,0.278753,-3.560933,-3.830397,4.426252,2.558061,3.816034,1.069369,4.449141,-0.126804,4.836573,1.139409,0.944548,-2.381207,-3.415479,-0.219582,4.874082,-1.134839,-4.354448,2.814619,-3.380396,0.093048,-0.718592,-4.039305,0.356116,4.947580,-4.711668,2.531317,-2.632560,-4.099432,-4.185647,-3.983000,1.798760,-0.010987,4.763787,-0.304117,1.641285,1.173894,-2.598956,-4.405805,-1.210517,4.708396,2.750481,0.610375,3.513395,-4.585321,-3.187876,-0.687748,-4.827146,0.476513,4.422404,0.515039,4.645252,2.223055,4.756318,-2.360488,1.237950,-4.934876,1.164706,2.795615,2.849965,-4.716025,-0.800958,1.229286,-4.511551,-0.008698,-3.122196,-4.068117,0.482650,3.567309,-2.645039,4.501475,2.319797,-0.055306,-2.323919,2.911311,-2.563320,4.271757,2.557228,-2.907648,4.062108,-4.990292,0.810565,2.991086,-4.903748,-4.442918,1.877770,3.832328,-3.991834,3.408307,-3.754997,1.187475,-2.230293,-1.939756,4.145940,4.431593,4.342479,0.711386,2.591174,-0.717417,1.312381,2.990594,-3.221449,-4.763549,-3.448659,2.234498,3.138761,4.262608,-4.082223,0.315395,1.413737,0.913080,-3.876189,-1.366805,-3.724360,-2.088415,-0.768305,1.255989,-2.601550,3.113041,-0.541093,-2.681967,-3.312479,0.177618,-3.009888,-0.897702,-0.362713,3.873092,-3.839997,0.058895,-4.625544,-3.348867,1.990191,0.194541,-1.096463,1.102719,-2.773475,-4.807150,-2.272136,-3.384078,-1.556935,-4.094091,2.151369,1.236429,3.069703,3.794671,0.868557,2.152470,1.350139,4.664296,-4.945067,-2.360759,-0.309763,2.570421,3.167668,4.736750,4.925196,4.216556,-3.094305,2.336311,3.054412,3.490005,-3.180707,2.557994,-2.878300,3.431773,0.538008,1.924159,-0.967318,-3.839567,4.306128,-1.497701,-0.972320,4.484695,-4.662465,2.911008,2.941221,-3.963744,2.448805,-0.028993,-3.260445,-4.169286,-4.425642,1.233852,0.221531,-0.387771,-4.150703,-2.335310,0.212373,-2.022834,-3.482535,-0.105104,-4.533100,-3.944093,-4.712549,1.438609,-1.838468,3.454662,-3.312660,3.138064,-1.203497,-2.895596,1.320383,-2.323832,-0.815302,2.864315,-1.339457,-2.470168,2.289193,1.063265,-1.169774,0.063782,-0.610556,-1.773006,4.060912,1.890447,4.700922,-0.948430,-4.590721,-2.944234,3.607712,1.945064,-0.171547,4.963039,-3.325330,1.861143,-3.174691,0.588397,4.231391,-3.514817,-3.688314,3.151952,-4.156011,-3.040254,2.894986,2.083193,-2.072207,-3.109836,2.075106,-3.947112,2.412773,-1.782925,-2.236735,4.103013,0.012292,-1.976904,4.368870,3.988736,0.670000,1.568008,0.319495,4.034056,-2.347651,-4.108861,4.302499,2.192450,1.979888,-0.180517,-0.022584,3.102664,-2.918638,-4.364299,-3.432569,2.874081,2.998749,-2.837458,1.109806,4.496445,-3.229318,1.598227,-4.261771,3.875615,-2.110270,-0.311761,3.354734,1.491101,0.575393,-1.784756,-3.366373,4.687020,2.554246,-2.059542,4.665975,-0.575579,-1.168554,-1.141087,4.518265,4.577013,-0.545824,4.341868,4.211859,4.576861,-3.261513,4.254738,1.812952,-0.712607,-3.405560,3.351997,0.545027,-0.783648,-0.272482,2.206545,2.792410,1.286932,-2.681835,-3.340268,-4.728847,4.074984,3.912931,0.696432,1.571398,3.643147,2.277139,4.738151,3.460341,-0.039674,2.306742,-3.169347,-1.961577,-2.399823,-1.571703,2.284158,-2.197027,3.106632,3.121433,-3.938414,0.597095,2.576067,3.550218,-3.148137,3.280892,4.667043,1.689657,-1.311380,-0.059206,2.716453,2.924894,-0.056612,-4.063997,1.199683,4.135411,-0.714896,2.001556,-3.015687,4.262215,-4.418012,0.032502,2.396771,-0.498367,-2.820215,0.274972,3.444166,0.106510,-4.447157,2.933439,4.288003,-2.859584,-1.667074,4.052705,-1.872311,-4.106571,3.290353,3.897366,2.365947,3.465529,-2.790002,0.954924,-2.196417,-4.138768,-2.150945,1.565294,-4.711447,2.854396,-1.342051,-0.174413,-2.462691,0.433210,-3.413800,0.213019,0.117649,-2.979980,0.220801,0.601062,-2.993103,3.699149,3.770104,-2.876064,1.216315,0.337077,3.192999,-3.947264,4.509873,-3.248543,-2.343059,4.474471,-2.601550,4.087039,3.019196,-2.872097,-1.260109,-0.122074,3.812525,-4.938200,3.955504,4.181188,-4.579608,-4.107639,-4.142582,0.214393,-1.539659,2.331767,3.173162,4.487899,2.997986,-1.582537,3.830073,-2.398297,-0.692618,-0.980102,-4.487594,-0.915860,-1.767785,-4.548326,3.896451,1.649831,-1.370891,-4.592273,-1.594440,4.540391,
-0.876034,0.703299,-3.941008,2.174139,-1.730857,-4.387188,-0.777612,4.727165,4.929655,-4.318522,-2.713248,-0.529344,1.110416,2.218848,-4.033784,2.258217,-1.278726,4.361705,1.237983,3.752709,-3.154241,-3.700674,-2.197180,-2.456740,3.143406,2.623371,0.940580,-2.484359,3.938261,-1.330912,3.065432,3.311869,-2.737510,1.841029,-1.771905,4.093448,-0.095370,2.617878,4.523759,3.603320,-4.394055,3.824732,-0.332804,-0.802026,1.940367,3.204138,-2.670217,1.027406,2.690054,-2.581256,3.000122,2.811365,-1.594134,-4.992676,-4.941252,-0.321207,-0.572069,2.440107,4.050569,-1.425977,-1.109348,4.270455,-3.235267,1.387829,2.480392,1.178014,-3.786279,2.178716,-0.595569,4.835047,2.039399,-2.421339,2.474746,3.144017,-1.660054,-2.956023,-1.343883,-1.117893,-1.553392,-3.031861,2.358776,2.383801,4.400006,2.123173,3.951994,-1.311075,-0.814844,-2.370678,-4.805597,0.766167,4.134342,1.648305,-1.449019,-0.490890,-0.824458,2.254707,-1.481826,1.106906,1.517075,-0.228889,2.421033,-3.743706,2.670370,0.292367,-1.173894,-0.293588,-3.852657,-1.415296,-4.135716,-4.290292,-0.653859,-3.007904,-2.912076,-2.412030,3.220313,1.736656,-0.667135,1.611377,-0.414289,-3.966338,-4.095889,-1.869106,4.600096,3.818099,0.986696,-4.607347,-2.088501,1.864256,-3.679074,1.462914,-4.021436,-4.543249,-2.260964,4.549242,3.262276,-3.827937,-4.993439,0.791498,-1.568957,-3.103732,-2.629933,-3.551286,-2.442396,3.191778,-4.476760,3.808252,-4.744713,4.201025,-4.679250,-2.348928,-1.864289,-3.036549,4.127823,-2.583502,1.289450,1.064070,3.323966,3.528287,-0.711191,-3.847255,0.263157,-4.810175,-2.761620,3.919645,4.304941,4.956511,3.160802,2.139195,0.934935,2.655263,1.967223,2.445143,1.641133,2.230750,1.889706,-3.319803,-4.680237,-0.243950,-1.823133,-4.631904,1.360252,2.410089,-0.740031,-4.808759,3.287496,-2.042867,2.744267,-4.306272,4.595805,2.139348,-2.816095,-3.964049,0.306253,-0.869625,1.841487,-4.657735,0.242164,-0.170598,-4.211859,1.837519,-3.500778,-1.402020,4.705649,-1.363109,3.477236,1.091995,-1.533360,-0.695322,3.580779,-2.842604,-4.604895,-0.443849,-3.918382,-3.520115,-0.090597,-2.211024,-2.383151,2.007394,4.872890,-1.323283,-3.280129,2.284616,2.290109,-0.857723,-0.110935,-2.091281,2.770775,-0.556047,-4.262520,2.896664,0.760826,-2.034211,-4.699283,-0.116843,1.875100,-4.348998,2.905405,-3.733439,-1.210169,4.786718,3.941355,0.064589,0.805884,-1.753093,-2.457460,-4.269725,0.482498,0.537736,-4.363994,1.900540,-0.949278,3.057497,-0.428327,-3.611255,0.287179,-0.473952,3.559069,3.367718,-4.582812,2.913450,-3.082945,-3.406891,-4.720866,4.273549,3.945628,-4.183130,-3.402619,3.057845,2.354393,0.515348,-3.458010,3.165270,-0.955187,3.369253,1.041631,-1.041292,4.984130,-1.265297,0.145573,2.784661,-0.217444,-3.401440,1.948759,-2.615436,4.631794,-3.199408,0.528123,-1.308002,1.969340,2.024030,3.743443,-0.595831,-0.876754,4.137895,0.168810,2.801031,3.395684,1.551146,-1.110526,2.249104,1.578155,-0.304532,3.175274,0.500351,1.913968,1.301920,-2.836695,-3.491470,2.071749,-3.512223,4.608753,-4.245582,3.139592,0.784326,-1.279641,-0.708725,-2.021656,-0.695932,-4.300473,-4.386383,4.325431,-3.221644,4.420191,4.633820,4.148423,-0.764294,4.286520,-4.294980,2.477840,3.006879,4.713059,-3.779717,2.958312,3.461715,-2.981506,-3.894314,2.212897,-4.901273,1.531724,-1.585131,1.592914,-2.426374,1.967071,2.744292,3.815009,-0.884384,-4.917405,0.331016,-1.028431,-3.047231,-0.190698,-3.084010,1.967994,3.883370,-3.213251,-4.295590,2.394983,0.454768,1.314458,-2.531510,-3.260903,-1.500900,1.536302,1.938993,1.175115,-3.585009,2.765893,-3.150426,-4.412061,-2.866756,4.910381,-0.430695,3.920145,1.895547,2.749760,3.688357,-0.764141,2.700625,1.013090,2.457418,2.664189,-4.900162,4.352745,-3.457552,3.755192,4.304068,3.761175,-0.412851,-2.238838,-3.883938,3.077029,-4.390088,-0.112766,2.416608,1.137730,3.718070,3.610034,1.437422,-0.008601,0.437831,-3.705210,-1.407929,-3.330900,-2.466006,-2.260921,3.509366,0.227721,-0.041010,4.272864,-3.470217,0.775365,-0.004993,0.717838,3.200671,-0.909562,3.902264,-1.140629,-1.809442,-3.043611,-2.045808,2.735221,-3.488266,3.874325,-3.914914,0.102542,3.838618,-0.722857,-3.607703,-0.144615,-0.416383,-4.733378,-0.761394,-2.585180,-4.033589,-4.390070,2.667999,1.585174,1.155473,4.805945,1.891122,2.985058,1.923929,2.513700,-3.873275,1.230506,-2.864315,0.612201,0.578173,-2.864010,-1.157872,4.848476,-0.433058,0.640584,4.539558,-0.635583,2.650422,-2.799268,-1.351622,4.774358,3.263539,-2.959490,-1.217646,-4.284784,-1.021870,1.111832,-1.952990,-3.573828,3.806158,0.234882,-1.423493,4.703708,-2.413217,-2.596057,-0.299234,-2.191382,-1.998199,-2.617878,0.702689,2.450026,1.869259,-0.369274,-4.810956,0.701053,-4.438417,-0.211603,-4.811506,2.501645,-4.976306,-0.063589,-2.839094,-0.827162,-2.578924,-1.935594,2.104141,-3.714060,0.955730,2.180743,-3.809125,3.408317,0.915426,3.582720,-2.932829,-0.542467,1.744285,1.220283,-2.595294,-3.082675,0.189978,-1.011536,-1.364166,2.520633,3.706363,-2.600592,-2.722666,4.769323,0.091903,2.869545,4.239369,-1.724253,-2.168298,-1.485751,-3.885574,3.033735,2.940959,-4.387909,-4.308561,0.396997,3.134709,-0.851466,-0.676901,4.526200,-1.398663,-4.433576,2.406690,-0.283975,2.821894,-4.676809,0.646535,1.139092,-1.663674,4.908945,1.858467,-4.779156,4.709964,-0.800458,2.022809,-3.653023,-1.662606,-3.273220,-0.998218,2.133744,-3.471896,3.912363,2.385213,4.019129,-4.243141,-0.063326,-0.691244,4.473556,2.026582,4.616993,-1.333659,-4.472640,-0.365154,-3.294015,-3.733634,4.587770,0.937266,1.150133,-3.788067,-4.906723,1.824134,-0.642525,-2.037373,0.010571,0.799170,-3.913193,-3.071798,-1.117088,4.912302,2.586330,4.817040,1.045106,0.431379,-2.187719,4.158910,-3.181707,3.140965,-1.410871,2.350841,3.318125,-4.934996,3.671072,1.854610,3.587644,0.326028,-3.170678,-3.435274,-1.626441,-4.220210,-1.661080,3.518521,-0.088614,-4.315275,-1.441804,3.510129,2.327079,0.497814,-3.251296,-2.792444,3.762017,-4.109317,0.435194,-3.689230,2.536088,-2.292398,3.045595,1.987976,2.738273,-4.125340,-3.177892,2.550127,1.911374,-1.600345,-0.695307,0.815344,-4.722086,-1.516880,4.234791,0.198565,-1.851515,2.562071,3.991558,-4.565823,0.092207,4.340424,3.437910,1.326334,2.882015,4.747765,-2.817469,-1.345714,0.755028,0.284280,3.273873,2.732627,3.519242,0.598926,1.055025,1.446425,-2.349773,-4.119999,-2.686006,2.051843,2.656720,4.179136,-0.720764,-4.626716,2.890145,1.123388,4.793839,0.873825,3.362072,4.294107,-4.363384,3.257088,1.034120,-0.343333,0.329600,-2.298044,0.261849,-2.012391,3.930174,1.057314,3.562426,-2.303232,0.347606,4.659108,3.340403,-4.462722,3.218024,0.551775,4.174474,2.548753,4.727622,4.388409,-0.726493,-2.622150,-1.335490,1.528672,-1.277810,-4.562365,-0.121769,4.169897,-1.887875,4.509262,-0.759911,-4.098788,1.180914,2.929624,3.114566,-1.072115,0.754723,-3.308206,0.463271,-1.819666,-1.217078,1.464736,3.346202,-4.673605,-3.845027,-0.494552,4.036378,-4.821924,-2.870418,1.335643,1.639149,-0.187384,3.389843,-3.959624,2.814112,2.932371,4.900052,4.188513,3.122501,-1.586505,-0.457778,1.135746,4.000671,3.801386,-1.465651,0.272988,0.356609,-4.728843,-3.081149,-2.121494,3.794214,1.025269,-0.252388,1.567736,-1.458937,-0.481277,4.379101,2.806177,0.512101,2.273782,0.595874,4.904324,-3.228095,2.846614,-0.684378,2.995239,2.716300,-2.413251,-1.606952,-0.093081,-4.269692,-2.086550,4.667501,-4.535203,2.336955,1.632282,-0.296487,3.047884,-3.120823,2.847987,-3.461715,-4.438459,2.799310,-3.567003,-4.701834,-3.911252,1.375164,-2.287362,-1.788079,-3.008667,-2.147282,-3.425550,-2.009339,-0.178686,1.808527,3.195898,0.081027,1.965239,
-1.168706,1.113620,-1.681722,4.824976,1.502579,2.124851,2.612384,-2.568743,1.521195,-4.359264,3.581957,4.427778,4.971313,2.509842,-0.617084,-3.745537,3.856014,-1.837062,-1.098056,-2.293619,-2.284616,2.796716,0.417951,-0.213477,-0.943632,1.294595,-4.268777,-1.582537,2.195044,4.565569,-1.550493,0.605945,0.798822,-2.676473,-2.907804,3.432875,-0.260781,-0.656453,-4.888607,0.597552,-4.805292,1.249580,-4.729911,0.086520,-1.972411,-3.294626,0.768303,-1.029084,0.841090,0.728172,-3.474685,-3.014161,0.876644,2.214423,2.114170,1.031831,-1.403241,1.398358,2.032228,-1.039613,-1.702017,-2.785424,2.563555,-1.153752,1.733146,3.244118,-0.568102,-3.465682,3.483840,-4.136631,4.591510,-1.483352,-2.941069,4.071322,-4.648732,-3.198187,2.688833,2.282174,2.635884,-4.775384,0.131382,-2.632984,3.364666,4.871670,-1.340526,3.245643,1.222571,4.575335,0.528123,1.754662,-2.458113,2.974029,0.144047,1.185644,-3.090762,-3.345134,-1.598712,-1.459243,-2.446211,4.972381,-1.611072,1.520280,2.316813,-0.587176,-4.180578,-2.091586,1.746269,4.436323,3.185064,4.052705,-2.440413,-0.970641,0.604114,-2.443922,-4.801477,4.164556,0.365917,-1.095462,4.588916,2.455061,2.820063,2.880947,-0.204626,-4.309358,4.835544,-0.596293,-0.602702,4.416219,-0.522562,3.464524,3.825063,0.501267,-2.582018,4.262673,-1.160314,0.770592,-4.275491,-2.078158,1.931211,-1.974700,2.025361,-0.686209,3.902707,3.101444,-3.636128,2.553789,-4.318064,-4.692068,-2.142247,-3.469038,1.558765,3.782386,-0.281001,2.794959,2.430111,-4.469514,-0.590611,4.347894,0.070572,-4.103169,-1.131774,-2.902005,2.487716,-0.101779,1.835994,1.318552,1.717887,-2.394635,-1.478164,3.298746,3.611560,1.487320,-0.274209,-1.762749,-3.243507,2.153844,-3.104190,2.855038,0.947674,2.752844,-3.358793,0.571381,-3.977708,-0.168388,2.413478,-2.013689,3.792457,-0.378050,-4.724541,3.269753,3.964507,-4.642628,3.553270,-0.914945,3.717612,-1.322520,-2.312540,-4.143498,2.084872,3.320872,1.540269,-2.520524,-2.695395,1.148106,1.496330,-4.362547,4.183399,1.614504,-0.385374,0.740148,1.223561,2.145678,3.205433,0.107347,-1.191673,0.725042,1.218514,3.555567,-1.449934,-1.459395,2.050844,-0.692312,2.255470,0.770745,0.413526,1.145512,-0.297708,4.212470,-4.451277,-1.691946,-2.857295,-3.910642,-2.714004,-4.011431,-2.591100,-1.630682,1.755804,3.065811,-2.942978,2.469327,-4.356748,-1.101796,-4.178978,-4.169517,3.370996,2.282370,-0.046388,2.063204,-1.198614,-2.937559,0.060732,4.636982,-4.884640,2.445753,-2.414319,4.724113,-1.840114,4.736625,-2.511673,-1.319926,1.191321,0.419551,-2.130728,-2.024829,-0.750986,4.539092,-4.206902,1.109117,4.617372,4.952160,3.243582,3.204976,-1.395079,-1.332680,1.347091,-2.623218,3.045289,-4.801325,4.887692,3.294168,-4.355754,3.177435,1.783349,4.334696,-3.039949,1.860103,-4.411451,1.238604,0.459673,0.330285,3.142413,-2.694252,2.972425,-4.281062,0.500883,-3.025378,3.903697,-3.370695,-0.950730,0.257040,1.145129,4.601960,-1.304966,4.807733,-0.377514,1.325266,1.761071,-3.805506,-3.917966,-2.869198,2.560808,-1.029389,0.191504,4.792932,1.275674,2.476161,3.831673,-4.765391,0.717717,-2.550815,1.399348,-4.069721,-2.472840,-0.884047,2.733770,-4.731821,-1.063343,4.773474,2.923442,-2.274165,-3.731180,-2.248146,4.904019,4.095126,-0.848567,0.763573,-2.681051,-3.472091,-1.954100,1.515091,-0.177923,-4.191412,-2.411573,4.380364,-0.708260,0.801338,0.696202,3.485593,-2.073506,-4.491640,-1.303676,-3.397250,-2.285613,-4.597081,-3.286769,-0.938370,0.915019,0.726567,-4.414156,-2.629933,-1.062502,0.516984,0.956145,-2.756584,-1.958068,3.011872,3.094882,2.059389,-2.182379,-2.665792,0.959505,2.051062,3.515349,3.972821,1.286124,-4.957963,-0.407806,1.720403,4.702811,4.286492,0.080780,1.869028,-3.640326,1.014052,-3.246027,-3.055134,0.867097,-0.405894,0.455489,3.720664,3.648640,-4.456618,4.073000,4.866787,-3.533891,-4.956206,0.871761,-3.432417,-1.764566,-2.181083,0.258566,1.298790,-0.310299,-4.212090,-3.118917,4.918437,3.529647,1.874005,-1.292083,0.567566,-0.453583,-4.302730,-2.667396,-0.227441,2.698216,-0.137320,-1.907254,-3.086489,2.996918,4.335307,1.794794,2.668996,-4.362774,-0.614643,0.206458,4.590899,4.872778,4.520476,-2.709969,4.936596,-3.078175,-2.115164,0.786536,4.263968,4.040065,4.297213,-0.678505,-2.233118,-0.987962,1.739629,-2.863020,2.860727,-2.607427,0.458417,2.148045,-0.397198,-0.947905,-3.003784,3.396405,-0.833460,4.959563,0.275582,2.872250,-4.026917,-4.652038,-3.965501,-0.215081,1.457181,-0.880690,4.623476,1.036788,4.604554,0.756774,-0.347989,0.143206,-3.953599,-3.681373,1.104844,0.383845,-3.622473,-3.007067,-3.666032,-2.122715,1.617023,-3.321940,2.177190,-3.337199,-0.708487,3.360393,4.349651,0.339976,4.938965,-4.538028,3.275626,4.127550,-1.749094,0.112230,4.870523,-2.351072,4.733190,-4.966203,-0.938675,1.916789,2.016280,1.020766,-2.865766,-2.205651,0.260397,3.268138,-0.934169,3.923765,-4.291513,-1.432386,4.264657,3.572802,2.354350,-2.255470,-1.382794,3.549150,-1.991026,-2.406018,1.411098,-2.865461,-1.545230,-2.015826,0.884043,-3.499636,2.290946,3.839150,1.190601,-2.366026,1.186176,-3.037280,1.640597,3.914378,-4.252070,2.590879,-3.155004,-3.350932,0.576952,-4.333018,2.584002,0.487991,1.944945,0.609607,2.646870,4.215522,3.090152,-1.566184,-2.499086,2.598420,-2.575077,-3.055897,3.924602,3.599733,-4.295253,0.176166,-3.149741,-1.428344,-4.607458,-1.428039,-3.287532,3.512144,0.084141,-3.502301,2.402417,3.093814,0.891903,-1.687979,-2.201910,2.455672,4.795984,-0.909299,-2.352977,-1.766259,1.788232,2.384720,-0.423675,3.552887,-4.342099,-0.912276,2.450253,-2.799236,3.290733,-2.780314,-4.126181,2.669376,4.331414,-4.301967,2.621767,-0.853083,-0.153500,0.975372,4.022645,1.540880,3.194372,-2.269204,-1.398358,3.019807,-4.015931,-2.032685,-3.492691,0.897092,0.309610,4.530473,4.040084,-1.947464,1.526152,-1.103017,-1.706978,-3.586308,4.127703,-2.452088,-0.659431,-3.966569,2.468106,1.550415,-1.752645,-2.701648,0.295877,2.176733,4.348582,2.213507,2.884610,3.076418,3.756981,4.704886,-4.784692,2.746513,-4.302194,-4.756920,-3.203986,4.845729,-3.013851,2.552018,2.011092,4.229635,3.944134,-2.721566,1.363947,3.610719,-3.107931,-3.818402,-2.964352,-0.843809,-4.051179,-3.414411,0.936918,1.836604,4.040193,-3.823511,-3.332011,4.083529,0.879238,3.448744,4.255501,-0.826746,-0.352031,3.755608,-1.622364,-0.842158,-4.287545,1.869267,0.536285,3.847696,4.251761,-3.797343,-2.292171,1.539733,0.863568,-3.277802,4.006631,4.252907,-3.737602,1.250801,3.870205,3.245643,2.048708,0.957518,-2.027650,-3.609577,-0.724815,-3.661763,2.081820,2.805414,-2.262642,-4.998321,3.221229,4.822535,4.169134,1.945097,-2.975402,-4.964599,2.028413,-0.421461,0.592975,0.259255,3.192389,-3.510392,1.046175,-0.494095,1.097751,-0.305490,4.659261,-4.875790,0.207373,-0.385449,2.362133,4.315622,-1.576281,3.910184,-1.570330,-4.340190,-4.043245,2.343364,2.688070,-3.625752,-1.047395,4.801630,1.236915,3.158971,-3.069552,0.025483,-0.610981,-1.021607,0.698416,3.978240,0.454115,-2.801447,3.322550,-3.067568,-0.665456,-2.626118,3.445540,2.994476,1.026948,-4.824824,-1.628773,-3.224586,1.458174,1.211890,2.057558,2.086703,2.894986,-3.998993,3.731651,2.495499,-3.793298,4.327677,-2.282479,-3.298288,-2.257912,-1.431928,2.414777,1.248512,-3.796808,2.421949,-0.971709,3.603473,-4.699850,2.694632,0.628071,1.346171,1.042360,-1.968902,-4.205298,-3.033692,3.314920,-0.945616,-4.613025,4.269845,1.675771,-3.593097,-0.416272,-2.801904,-1.831721,0.056612,2.026276,-4.244972,1.540117,0.194403,3.516800,3.427686,2.739036,-2.737205,0.065767,1.366314,-4.300668,-0.073244,1.022065,-2.862026,-0.410016,-3.659627,3.595843,
4.723197,4.569842,-0.055391,2.176122,4.613025,-4.228034,2.584155,-3.271432,0.523087,-1.032594,-3.617054,1.076388,-0.869930,1.710410,2.484054,3.663594,0.218513,-4.571215,4.009369,4.799036,-0.629139,-1.635334,2.670370,1.384320,-3.630787,-1.389660,2.384411,-1.523026,2.818232,2.164983,1.917173,3.211921,-2.075259,-1.140019,-0.919370,3.656880,-4.421827,-3.971374,1.586047,4.215369,1.486557,-0.045930,0.941954,-0.961791,3.605609,-3.361461,-3.751946,-0.879696,0.543382,4.028901,1.055330,-3.677938,2.842341,0.401929,-4.327372,-4.231544,-3.793909,-1.831874,0.262917,-0.648671,2.036653,-2.044588,1.187933,2.962432,-4.779656,3.145848,-1.093478,2.446211,1.649220,-0.249947,-2.296976,-1.555986,4.162267,1.733757,2.726371,4.496139,0.822779,0.114597,3.830836,-3.411359,-2.846614,3.555864,4.116031,0.202338,-0.506607,2.994171,-3.303629,3.968627,0.107273,4.894711,-2.117374,-4.072848,-1.581622,-4.629048,-2.692648,3.834040,-1.713157,0.479751,-4.611347,-4.843287,-2.985168,-3.269295,1.562548,1.904813,-3.051698,-1.613361,3.628040,3.603473,4.836573,-2.800378,0.191351,3.494522,-2.254860,4.294870,-3.474075,-1.921445,-1.561480,0.866726,2.695090,3.456984,-3.323466,2.345500,-3.856013,4.969183,-0.017519,1.998229,0.151859,-4.312846,4.252959,-0.534178,-3.005595,4.646596,2.618793,-0.732630,3.770694,-4.315657,0.157170,-2.702414,-0.805383,-2.707297,-0.460829,4.748375,-2.804651,-0.865505,-1.395154,-4.888302,1.913053,3.883786,1.446272,-2.974944,-3.097146,3.058165,-1.693872,3.452159,-3.886780,-4.011448,-3.409013,-3.732509,4.786733,-0.385109,1.275525,-3.184459,0.378170,-3.117735,2.239601,-2.849513,-0.640736,-0.572375,4.980926,0.518509,3.916746,-3.731803,-0.010376,1.788842,4.140904,-2.760857,0.394452,-1.478597,-4.716273,-3.638054,-3.100471,0.773854,2.605880,0.633164,0.971004,-4.982089,3.118286,-4.373855,0.339619,1.968673,-0.248985,-0.516402,4.158452,-0.875881,3.057649,-4.167455,-1.037172,-2.320475,-1.644795,4.613788,4.524216,3.079318,-0.120090,-1.100345,-3.299808,-2.251903,-4.171060,3.916956,1.879998,2.708728,4.666643,1.233310,-1.963656,3.218387,-1.816557,-1.539126,-4.350330,-1.134779,5.000552,-1.727529,1.816156,-1.116214,-2.964568,-0.756096,-1.778161,3.447981,-0.281533,3.982665,-0.700705,-4.352397,-3.586383,-3.108463,-3.289432,0.902185,4.073821,1.737324,-2.643151,1.967891,0.365974,1.569777,0.978328,4.721118,2.047392,-4.171979,1.043379,1.817590,3.830169,-3.650472,2.751854,3.882260,-0.314951,-4.253670,-1.460768,-3.426008,-1.449477,-4.527421,-0.511795,3.311106,3.514969,1.399579,-0.419911,1.650041,0.811087,-0.167947,3.278508,-2.004703,2.935938,0.066283,-2.855102,4.266392,2.712954,0.524222,0.381419,1.166117,-4.641863,-2.641987,0.574511,0.364849,-4.227729,2.315439,-4.259926,2.287667,2.596973,-2.618793,0.318613,-3.420820,-1.992401,-2.837603,4.236476,-0.357619,1.828725,2.760288,1.884423,4.418680,0.164857,2.403695,-3.993137,-1.876603,-1.301454,3.076971,-1.241937,-4.977664,3.632164,-2.811518,0.021516,-3.162481,2.733085,4.053011,3.701132,0.477157,1.119114,-0.399640,-4.681997,3.186590,2.712180,4.999269,1.954310,3.199655,-3.246150,-4.110151,4.328803,1.980556,-1.643364,-1.733852,4.285055,-0.317533,-0.925065,3.960657,2.435740,3.619858,1.518458,-4.995422,-2.642598,-2.431867,3.144932,-3.373211,-2.720573,-4.376812,4.104587,-3.500320,0.794397,-1.055330,0.095676,-3.264533,-2.256272,-0.781794,-4.000873,-2.034015,-2.432115,-2.286847,-1.635582,-4.519890,4.709733,-3.003986,2.152760,-4.747435,-4.305799,4.689074,0.141943,1.348766,3.107852,-2.667165,-3.055361,-2.943205,-4.347056,-2.459181,3.705100,4.377117,3.540147,-0.943632,-4.039122,-3.532467,4.851167,3.622956,-4.207306,3.773948,2.776784,-2.035832,-2.575410,2.033515,-0.250895,-2.749919,-0.660141,2.364784,-1.624748,1.025022,-4.708497,0.560627,1.141850,0.100711,1.956694,3.780786,-3.011567,-2.064577,3.133488,1.278420,1.177709,-3.389386,0.284563,-0.507064,-0.039418,-1.437203,-0.299705,4.198794,1.139008,-1.930391,4.193023,-2.222949,4.521418,-0.980070,-1.639702,-0.469622,-1.672204,-4.354934,-1.659844,3.693818,-4.082461,-0.731681,3.487808,-0.468307,1.480758,-1.803797,-3.283334,-2.834254,1.648762,2.329783,-1.391420,1.992810,0.517392,-1.004953,0.372128,-4.125078,2.581364,-2.173572,-3.175359,3.115722,2.820365,2.640532,-2.992588,1.656144,-3.051641,4.570662,2.170229,-0.649259,0.063478,-3.977477,3.304239,1.993469,-3.415784,4.584948,-4.976043,-3.270669,-4.512162,2.503281,-3.419864,2.688632,1.089614,1.548155,0.114395,4.374169,-1.908066,-3.711253,3.945226,4.973552,3.531852,1.685137,0.554731,-0.127968,0.123810,4.630631,1.266270,-2.256688,-1.824244,1.951353,2.574847,3.213294,1.554613,1.265603,1.830805,3.249916,3.501541,-2.477033,3.244636,0.323862,-1.867520,2.461378,-4.322838,4.782244,-0.593335,0.099127,-3.629463,-0.300290,3.073618,-2.399155,-3.333785,0.041410,3.065642,-1.087775,2.574590,2.988832,-1.142460,4.365215,-2.103336,-1.944639,-1.522721,-4.931333,-3.762169,-1.335337,-4.710379,3.299815,0.960465,0.949641,0.716937,-1.800840,-4.711237,0.254429,-2.861931,-4.143089,0.358696,3.346835,-2.481403,-1.006748,-4.522938,-4.468768,3.553633,-0.242412,-3.691663,4.301431,3.893399,-4.056063,-2.073580,1.678823,-1.264534,0.796228,1.099734,-1.081118,0.399030,-2.777795,4.140161,-0.689508,0.595016,-4.659661,-1.913911,1.096735,-3.870864,-2.380798,-3.499091,4.533887,4.154237,-3.130073,3.121185,-4.989108,-1.072516,-4.918315,2.180550,-3.597827,-0.733055,3.139286,2.420881,-4.921567,1.103702,1.732078,4.335154,3.746910,-3.429518,0.378887,-1.351051,2.527600,4.205355,-2.258617,4.618543,4.508106,2.841071,2.486800,-3.403332,2.124146,4.544416,-1.813658,1.180208,-1.902772,4.849134,1.865450,-2.191992,3.819697,3.406934,4.785455,-3.828700,-2.157201,4.425642,4.419538,-4.492630,-1.638234,-2.323374,2.758721,2.142400,4.241954,3.076934,-2.068335,-3.418640,-1.576941,-1.125114,2.662616,-3.600974,3.289342,-2.308668,1.177614,1.675066,0.071439,-1.410105,-4.788049,1.710105,-3.660695,1.683554,-0.622578,4.348888,-1.439558,3.986633,-1.125523,-4.125645,-2.070681,1.945708,4.913327,-2.377392,1.687830,2.679572,-3.258169,-0.712092,0.780462,3.184399,2.322030,0.501171,-1.295148,2.115143,-0.693331,-2.000314,0.382397,-2.766808,-2.995849,-0.423902,-3.407392,0.913266,3.764153,1.648152,-3.606220,3.847163,-2.106540,3.937498,1.960356,-4.813532,-1.956542,0.229347,2.762078,-3.107846,-2.950777,1.093768,-4.742795,-4.788253,1.934168,-3.026616,-3.207459,-4.076328,-0.087429,-3.091372,-1.839351,0.222480,0.682546,-3.223212,-1.403088,-0.211493,-2.460250,-0.879543,-3.118076,-1.930754,3.634754,-0.027314,-3.038118,3.029115,1.522263,-2.803278,1.993164,0.389416,2.795648,1.798303,-1.155278,-0.226295,-4.362163,2.968688,-3.230842,3.808863,4.868007,-4.170354,-4.275948,3.807337,1.827296,4.319437,-1.138646,-1.267586,-4.376202,3.177740,-4.524979,-3.207495,-1.650899,1.762444,-2.690054,0.839412,1.792352,-3.381146,-0.755181,-3.419141,-1.575060,-0.292215,-0.649281,-2.716758,1.660665,-0.990631,-1.674093,3.115940,2.477187,3.116703,1.696982,2.335734,-0.722526,-1.992248,-3.966643,-2.778558,1.494186,-4.780877,4.554582,3.502457,-1.041902,0.272225,0.421613,2.819147,0.147862,4.293344,-3.109378,-1.516465,-3.129673,-0.742210,3.056581,1.706442,2.469863,-3.250069,4.540239,1.297037,4.069185,2.464370,1.242256,-4.090854,-3.126164,-3.960540,2.441328,0.506912,-0.640736,-1.776025,4.828333,3.929411,0.543077,2.571337,4.948271,-2.678762,2.447432,0.414899,-2.267220,-2.610858,0.031281,-2.192755,-2.862636,-0.338603,-0.039216,-3.644368,-3.740806,-2.080599,-1.911679,1.022370,2.777032,-3.132420,-3.038575,3.377941,4.283731,-2.965484,4.639271,-0.470748,0.200049,
0.949278,-3.265023,-1.304666,1.909543,-2.699210,2.929167,-3.286843,-2.681204,2.048555,-2.860347,2.013916,-0.735343,-3.647114,0.881375,1.681722,-2.936186,1.182897,2.413709,-1.120334,4.106723,1.230964,0.105594,0.454726,-1.971343,2.724693,-4.086734,3.389386,-2.722251,2.054353,2.846309,-0.118412,-2.209693,3.789941,4.737846,-0.861385,-2.759789,2.027497,0.107273,0.022736,0.614643,-2.363964,4.048128,0.977355,4.000214,-4.492477,4.778130,1.480605,-1.816004,-0.426344,-2.645650,-4.703818,-2.953124,3.347118,-4.757073,-0.893124,-1.234321,-2.075869,0.230873,4.657125,0.981628,-1.172063,1.077456,-2.874081,-3.206580,-1.655324,3.701743,-3.229469,-2.427290,-2.353893,-1.032899,3.375042,4.110080,1.876583,-0.278176,-0.713675,2.735221,1.210974,1.301309,2.810602,-0.488754,1.945860,-0.627308,-3.427381,-1.579028,0.118412,1.070437,4.183172,-2.177496,-0.688040,-1.988891,1.838893,0.985748,2.632984,-0.162816,-1.208228,0.426801,4.672994,1.299478,3.692129,-3.461257,-1.617634,2.160863,-1.439100,-1.028626,-1.338694,3.318430,2.130802,0.114292,-2.367626,-2.531510,4.391919,2.440718,-2.118290,3.751793,-3.824732,-3.783074,-0.734428,1.751457,4.670553,3.911863,-0.563066,-2.378155,-2.093417,-2.158422,-1.251411,3.432722,0.091861,-3.606983,-0.469375,-1.173589,-0.032350,0.910215,0.258187,-2.452602,4.610431,1.456831,-4.002197,-2.436140,-3.637196,-1.811579,4.026612,3.048494,2.445296,3.658101,4.820704,1.911222,4.928892,-0.864132,1.884518,-2.005066,-4.200720,3.048952,-1.203040,1.916410,-0.078738,1.423536,4.342021,1.716819,-1.995453,-4.983215,4.171880,4.382335,2.209012,2.145567,-1.215247,3.344218,-1.586047,-4.080630,0.618915,4.399243,1.140934,-1.000397,-4.752495,-4.932249,-0.691702,2.627338,-1.429792,2.498398,3.273110,-1.621296,2.758263,4.536119,-2.119663,-3.700064,-4.609668,-3.621174,-2.952971,-3.204901,-1.811130,3.074484,-2.214493,4.191002,3.407239,4.821314,-3.979156,2.748955,-4.927976,3.809626,2.360302,3.436689,4.440901,3.474990,3.050172,3.355052,-0.609302,2.763146,-0.351726,0.334483,0.822932,0.405896,-2.890408,2.352977,0.044862,-4.549852,-0.272988,-2.496874,0.017770,2.685254,-0.576247,4.414749,0.697043,4.148534,2.245857,3.769494,3.302408,3.379772,-4.651936,-4.736473,4.335917,-0.297708,-0.229347,2.661367,1.219977,-1.431013,0.273141,-2.049165,-0.162053,-3.621021,-0.146184,0.266274,4.376965,-3.026215,0.314188,-2.079381,2.609415,4.494379,2.983678,-3.489639,0.230873,-3.100223,-4.501175,-4.511399,1.090579,2.456282,3.033845,3.152104,1.484268,3.785058,-2.335124,-3.334300,4.878536,1.763665,0.788751,2.115848,-4.208350,2.535173,1.218146,2.756432,-4.475234,2.086093,1.214991,3.083158,-1.277802,0.213588,4.577776,-1.435896,-3.115024,-0.345317,2.166051,3.350780,3.949553,-4.409925,-4.991455,0.384228,-0.214087,-4.098788,-1.724754,-4.676199,3.079928,-2.179479,-2.491015,0.885570,4.495376,4.662618,-2.134465,-4.661397,-4.157842,3.420444,1.491639,3.336520,-2.150986,-0.238350,2.520676,3.248695,1.975005,4.475997,-2.214118,-4.884793,-4.777367,4.037599,-2.096774,-1.171148,-3.442793,-4.956206,-4.003418,-1.468551,2.881863,-2.494115,2.964651,-3.377169,-0.716269,-2.205878,-2.365947,-3.056581,3.616652,-3.166584,-5.186691,-0.820544,-4.320353,-3.757286,-0.406812,0.406201,4.139378,-2.658010,-0.042116,0.771813,-1.272927,0.590228,2.256386,3.503677,4.610584,-1.032594,4.645070,3.562273,-3.278839,-0.566110,-1.520044,-4.852001,-1.408429,-3.207953,0.197913,0.594043,4.312073,-0.318225,2.551306,1.772381,0.208899,-3.078860,2.067019,2.971435,-0.447554,-4.910581,2.967009,-1.196326,-4.119541,1.425062,2.580950,-4.464858,0.239570,-0.987884,1.237983,-1.091342,-2.076182,-4.360402,3.937458,-4.646959,0.260628,-3.329722,3.725700,4.311525,0.295102,4.510413,-2.503441,-1.960509,-2.118900,-4.224219,1.337474,-2.306742,4.684896,-4.006775,-4.345531,1.958525,-0.792108,1.282083,2.881863,1.694998,3.117618,1.119419,-1.363701,-0.562957,-3.076641,0.235323,3.094949,3.946806,-3.047121,3.251900,-2.505058,-1.280241,-4.413962,4.496368,1.252174,2.729270,2.795953,3.117008,-2.431104,-4.413739,3.639027,-1.001312,3.321482,2.189245,4.992828,2.187567,4.792932,0.482040,1.105380,-4.639576,0.966302,-0.248491,-5.022806,3.594028,-0.195844,-1.956137,0.035806,-1.853747,-4.917779,0.543923,2.285412,-1.401640,-3.949553,1.772820,-1.700186,-2.361217,0.933256,3.898129,2.785577,-1.384014,-0.196844,2.690054,1.707663,3.980834,-1.515244,-1.475112,1.571856,1.576739,-4.231165,-4.228104,-4.964363,-4.574794,-1.233323,1.688977,-5.250322,-4.435935,-0.331196,-5.250169,-1.603708,4.305704,4.650410,-3.155766,1.940519,3.643910,-0.423597,-3.559832,2.595599,1.855220,-2.427290,-4.897610,-2.891934,-0.466170,3.189795,4.025849,1.451765,-4.304788,-1.386016,2.439890,-2.635491,-3.902772,-0.073602,-0.233310,-2.329438,1.567514,3.012565,0.463746,-2.368256,-4.068575,4.820856,-3.160802,-2.831660,0.761589,-4.721061,-4.607227,0.469527,-2.729881,1.243324,-0.473952,3.777276,-1.191595,-2.892239,-0.151524,-2.929319,-3.693808,1.380505,3.157292,0.498215,0.616016,0.164800,0.952635,-3.027306,1.975393,-3.930396,4.336332,1.878414,-1.802118,-1.753136,1.752525,-3.079012,3.273721,-0.755638,-2.497635,3.295694,0.963775,-3.896908,-1.521500,-4.806207,-3.849452,3.254646,4.127018,-4.747154,-0.887631,1.986297,-1.583758,0.212104,1.896573,2.239601,-2.405134,3.649486,-4.381917,-3.809790,-3.741874,-0.832545,4.044313,2.686087,-4.667653,4.586932,-0.778527,-2.064882,-3.401593,-0.633869,-3.806726,-1.531877,-1.422010,-4.190039,2.304758,3.711356,2.697684,-4.139683,-4.707327,-0.802942,3.629872,2.507248,-3.961303,1.861495,3.339651,4.230559,-3.696201,0.697039,-1.252785,-4.506363,3.270974,-4.551836,1.129643,1.891842,-2.817164,2.913907,-1.293374,-3.524125,3.078707,2.680593,1.302225,1.093326,-0.247505,-3.370159,-0.920591,4.391766,4.676809,-3.197272,4.434645,-0.159612,0.508744,0.570528,0.269409,1.234862,-1.030715,2.194891,3.178655,3.272500,4.048433,4.346446,2.189550,2.221747,-4.399548,3.042390,0.665151,3.919950,-0.073550,-2.384869,2.123783,4.441969,0.469985,4.508652,-3.628498,3.022095,4.676504,-4.991150,4.479659,-0.277566,-0.569714,3.572523,-0.855504,-2.238341,3.947511,2.393872,-4.130833,3.905911,-4.810938,-0.125736,-4.689016,-1.178625,-2.157659,-3.035218,-4.867397,-4.747459,1.085696,1.941893,-2.397076,-2.356029,-4.768822,-1.694845,-2.519761,0.592212,-2.220222,0.956908,1.053652,2.484359,-1.673482,-2.844367,2.781084,0.673539,-4.584948,-4.817194,2.285531,-1.516770,-0.262764,-2.627949,-0.851466,4.048280,1.122166,0.318613,-0.072634,-0.588092,-3.562426,4.275491,-1.522416,2.210150,4.472182,1.533555,-3.874172,0.139775,3.357646,-3.939482,0.342875,-2.727134,0.096896,-2.934050,1.752068,-3.044832,3.318735,4.964293,0.224006,-2.110050,-4.406110,-2.517319,3.497269,2.732933,-2.125614,-0.781884,4.867550,3.988769,-2.881252,-4.931944,-3.754082,-1.315500,1.593066,-3.037660,1.891385,2.237159,-3.201392,4.600818,-0.145268,-2.710501,4.795526,4.714347,-0.954466,-4.098636,3.367718,-3.847774,1.397290,-0.767693,-4.192175,3.257698,1.882076,3.310495,4.828944,-1.022065,-0.464949,-2.393262,-4.752342,-3.701590,2.790002,-3.229011,0.605487,3.623463,2.656636,0.674917,-2.079379,1.792505,3.210395,4.955290,-3.415784,-1.426283,-3.759270,3.007752,-0.537126,2.115085,-2.215949,-0.458388,3.800012,4.606616,3.163244,4.217505,-1.373943,1.216620,1.545915,0.702841,3.245796,1.864528,-1.987365,4.687338,0.847804,0.732444,3.730583,-3.771325,-2.312693,3.551439,1.204260,-3.481399,-3.351543,-0.510727,0.215613,-2.991272,-3.758202,4.793847,-4.765007,-1.470840,4.537950,1.737571,-4.488510,0.058596,0.661489,-3.618580,2.723624,-4.458907,-4.444258,-0.061953,0.201880,
-3.164312,-4.549394,4.077883,-4.363536,-1.304361,0.617389,3.720664,-4.300363,-0.117496,-3.520463,-4.374523,1.320994,-2.048708,1.239662,1.663259,-0.143590,1.472213,0.370952,4.986419,-0.711081,1.039460,3.252815,-1.677602,0.633106,3.651234,0.719626,-1.791894,-3.252510,-0.055849,-0.482803,-3.514206,1.336100,2.071596,1.132084,-4.195227,1.392102,-1.434065,1.766259,-2.011475,3.610645,4.269539,-2.246162,3.250374,2.430494,-1.191595,4.073916,-0.220496,-2.730796,3.025300,1.897031,4.786981,-1.646779,-2.152776,-0.636616,-2.530747,1.011841,4.488205,-3.242286,2.535020,-0.423444,2.073428,-4.070101,2.794275,0.935087,1.301920,2.886746,-1.249886,4.371929,-1.765954,-4.499191,2.450789,-3.272805,0.729240,4.007538,-4.837642,1.456496,-3.224738,2.684256,-3.653371,0.213019,2.777032,4.478591,-4.479049,-0.120396,-2.750481,-3.144932,2.392804,-3.485519,3.321329,-4.996948,1.755882,-2.410504,4.075747,-2.285836,-1.622517,-2.485122,-2.232124,-2.205878,-1.775109,2.101810,1.489303,-1.521348,4.384289,2.398297,-1.498764,-1.821955,1.294137,2.822962,2.962279,0.400555,1.932432,-2.327342,3.354900,1.758324,1.845607,1.181219,3.271889,-4.732505,1.859188,-3.415632,3.402661,-0.250710,2.862790,4.887565,2.127260,-4.710412,1.219945,-1.972291,-3.738918,-3.981857,4.804153,0.880613,-2.293619,3.038112,-4.657917,2.597944,1.079897,-1.207312,-2.278359,3.453780,2.718894,3.053377,2.528306,-1.309397,4.885403,4.878994,-2.170019,2.377850,-1.656545,1.854459,4.026102,-3.663209,0.484409,-0.771581,-1.763585,1.028249,-4.792089,-3.423639,-0.306784,-2.883400,2.199942,-0.607700,1.869422,4.507118,-3.368480,1.754051,-2.616657,-2.984100,1.474807,-0.180822,4.948424,2.772607,2.308725,3.972442,0.411847,1.895962,-4.995573,2.483086,3.235805,3.759503,-3.343528,3.466067,-4.488430,4.590522,2.818007,-0.827277,-1.867195,-1.505703,-3.135615,3.005828,0.104384,-1.204504,-1.491287,-1.975616,2.005676,-4.280526,-1.403088,2.874691,-0.106815,0.167241,-2.185278,-4.260537,-3.962523,-2.703330,4.046625,3.988239,-3.053755,1.323210,3.812757,0.712992,0.325255,-2.873695,1.273312,-1.021527,-1.342582,4.057650,1.155384,-2.185700,4.081362,4.495519,0.721458,0.537278,-4.333781,-0.421766,-2.990509,-0.478225,1.744896,3.999145,-0.587024,-4.104892,-1.474044,3.258919,-0.213149,-1.463435,-1.478542,-2.669527,2.746898,1.430025,-0.424585,4.327605,-3.962901,3.211543,1.222346,-4.771079,0.883907,3.477334,-0.184505,-2.426374,-3.749199,-4.113132,-1.814478,0.669881,-3.614460,-0.597400,4.214454,-1.521958,0.574358,-1.008179,0.120548,-4.962004,2.609886,-0.649354,3.564337,-3.870277,-0.060347,2.308042,2.155755,4.596168,0.723674,-2.128128,4.995887,-3.144843,0.574311,-1.120782,1.209917,1.999268,0.115970,2.287820,4.109165,2.558367,-1.350902,-3.378246,-0.974609,-3.203528,-0.378887,0.266732,3.467818,-2.990935,-0.619478,-0.957743,-3.665965,0.967788,1.660897,-0.214007,-0.722141,-1.112930,-3.729434,-4.810674,-3.150924,-2.905414,2.791878,-4.413354,-1.736792,-2.511979,1.273080,-3.084201,3.071383,4.607685,4.408399,-1.407971,3.712577,4.814753,2.212439,4.248329,4.969939,-2.769729,2.079459,4.125645,-3.314524,-0.815340,-2.003460,-0.219958,1.414613,3.315763,-4.429232,-3.003749,4.794854,-1.598473,0.721995,4.490116,-4.123164,-4.522080,1.265450,-4.115574,-3.119144,4.665059,1.186407,0.243690,-2.089908,0.144658,1.700644,-2.292856,-2.090518,-2.056664,-2.085768,3.490812,4.708639,-2.542718,2.280270,-4.252979,2.475436,3.481618,1.103124,1.187566,4.899009,0.804237,0.105369,-1.722842,-0.126827,4.437696,-3.039491,4.362926,2.230445,3.869747,-0.959349,4.564196,4.113285,-4.340648,2.941221,-1.241951,-1.048607,-3.659116,2.432311,-3.898038,-4.838523,4.646055,-4.223071,0.373779,3.599239,3.196261,2.045554,-0.230324,2.170635,1.975543,1.795179,-3.752476,-3.152509,4.732208,0.377514,-1.577349,-3.564867,1.241951,-0.184484,-4.947203,2.130955,-2.872402,-4.187902,1.589709,-2.189971,-3.774675,1.664418,-2.221963,-0.230575,-2.700350,4.543218,2.678079,-0.052276,-0.443333,4.376433,1.663925,-2.548979,2.904221,-4.940562,-4.136704,-1.121017,4.783665,-0.456099,0.307779,-2.708975,3.898740,-4.436171,-0.271767,-4.453871,-1.122776,-4.158757,-4.260537,-0.982960,0.953489,0.765343,-3.522267,2.320156,2.703883,-4.982966,1.825713,2.419498,-2.317091,3.471644,2.588188,3.328123,4.810560,-0.797063,-1.629303,-4.967418,-2.339763,-2.029481,0.552843,-0.548112,2.892544,0.963775,-0.745872,2.601093,4.602344,-3.970153,-3.011259,-4.639775,-0.691458,4.464186,-2.820430,3.444563,-0.037599,-3.006593,1.191839,-1.974020,-3.364117,3.023993,-1.195788,2.898423,0.057760,-2.157884,-0.082930,2.760784,0.608397,4.237800,2.038026,-1.762139,4.677725,1.876431,1.558580,-4.171880,4.788507,4.694815,-2.459328,-4.362097,0.641942,-3.169057,2.500977,-3.468180,-4.059322,-3.102750,3.644316,1.674031,4.547904,-0.725196,-2.928324,-1.122391,0.492344,-3.413873,3.975726,-4.449706,0.971106,-1.041749,4.118778,3.946348,3.198798,-2.950072,2.157048,-1.341136,-0.591296,-0.545976,1.733760,3.213334,1.457797,-0.525601,0.340819,-2.024976,3.316832,3.722371,3.946134,2.784905,2.837952,4.576788,2.250362,-0.329367,-1.407891,1.236995,4.562750,-2.236516,-1.324046,-1.280557,-1.306803,2.357860,-2.606433,-3.062227,-1.149480,-4.980773,-0.442824,-2.685781,3.754082,-4.612791,-3.254414,1.602912,3.159051,1.392792,1.386612,4.834376,-1.782495,2.123752,1.424989,4.819716,0.051656,-1.935556,-1.137650,-0.887093,-1.654976,1.569577,0.042573,-4.355144,-4.423658,0.286569,-0.596332,4.250160,1.832331,4.405194,0.012207,3.658559,-0.130772,-1.459383,-2.701876,-1.696902,-1.096297,4.985730,-3.341339,1.110965,0.413647,-4.930833,0.561468,1.497165,-1.677217,-3.690523,-1.265370,3.150163,1.022394,2.766350,0.571154,-1.537217,2.377087,0.051881,2.374950,-2.394482,3.342235,2.743614,-0.545061,2.449873,-1.694845,-0.875117,-0.737494,0.770672,-2.517392,1.478248,2.837397,0.735892,-0.952036,-3.366722,-4.025006,2.635658,-0.578093,-2.548673,-2.468234,-1.890612,2.417982,3.259529,1.637623,2.903226,4.563890,-4.622486,-0.249031,3.528092,2.433393,-2.934812,-2.829066,0.169683,-4.648122,-4.577929,-0.906995,3.506918,4.537026,-4.551126,4.831324,-4.837422,-2.264709,0.632881,1.210749,3.054525,-2.588381,3.166076,-0.980100,-2.240211,3.233131,-0.467238,-3.093966,-4.892422,3.896908,-4.863277,-3.839991,0.768609,0.880764,-4.349498,-1.782586,-1.361736,-2.341838,-4.876858,3.328501,4.995448,-4.171342,-3.260419,-3.918161,-2.547345,1.500980,-0.715579,-4.841920,3.799063,-0.827789,2.018799,0.682546,-4.403974,2.773370,-0.290231,-2.380139,3.489944,-0.457778,2.406690,-0.924406,1.879025,3.506729,-0.034944,-1.671346,-0.935850,2.678610,-1.293374,4.283425,-2.040315,-0.119785,-3.035676,-3.297372,-1.685385,0.242470,-3.761864,4.314859,-2.199469,-1.229286,2.152928,0.818506,-3.094119,2.161626,-1.232032,-1.614887,-3.037049,0.773949,-3.148289,-3.898892,2.449110,1.832636,-4.587848,-1.946318,-1.727805,-1.139714,-2.808313,1.430403,0.094150,0.162053,-2.299875,-4.362774,0.065767,-1.284982,-2.069918,4.659413,2.554704,-3.691214,3.552812,-4.333323,2.589343,-4.865261,4.145634,-0.309915,0.662709,-2.721183,-1.368145,-1.868801,-4.705496,-3.358104,-2.648244,-3.710135,2.682119,4.437696,0.731223,-4.645833,-0.815455,-4.188971,4.716178,1.916257,-2.433088,-1.036409,-1.714682,-1.131626,2.440107,3.854946,-4.137700,1.838435,2.417524,-2.847682,2.603992,3.710288,-1.344035,-1.050752,-4.476913,-3.364971,-1.944182,-1.461531,-3.023011,1.805780,2.661061,-4.793390,-2.198248,-2.487869,0.253304,2.853023,-2.058016,-0.009003,-3.019044,2.546617,4.791711,4.427625,4.642018,-0.506607,-1.383251,1.201819,3.665273,3.347270,-3.897061,1.758171,-3.588366,3.541978,-3.386334,-4.681692,
-3.590655,0.928678,3.429975,2.532273,4.878079,-4.838099,4.292123,-4.287088,2.655873,-1.846980,-2.706687,3.405713,3.727531,-4.158757,-2.288430,-1.522721,-4.715567,-3.605457,-4.568163,-2.763146,0.910367,1.277963,-0.651570,3.684500,-0.742821,-2.779321,-3.506272,-3.842738,0.881680,4.104129,0.870235,-1.984008,1.956084,3.141575,-3.788263,-2.860805,-4.903409,1.805322,0.771050,-4.673910,-2.941984,3.787042,2.581408,-2.137669,-4.168676,2.934812,2.643666,-0.172887,-4.781640,2.258065,-3.078860,-3.221992,2.927641,-3.555254,-1.365246,0.190741,-3.175298,2.668996,-2.623676,-0.015564,-1.611988,0.364086,2.526627,-2.853481,1.567278,3.832057,-0.834681,-1.899472,-4.960021,-3.818934,-0.555742,0.827509,4.271218,2.380749,-2.730949,1.857662,0.141453,1.261483,-1.843928,4.446089,4.594562,0.896786,-1.856899,4.602802,4.883419,-0.043641,-2.870113,-4.832453,2.964263,1.033815,3.407392,4.700919,0.593585,0.652333,-3.326212,-2.026734,0.051119,1.642506,-2.352672,4.697104,0.487075,4.833674,-4.242073,-3.109684,4.895474,1.895962,1.563311,-3.239235,-2.710654,3.718833,-1.110111,0.328227,3.031251,4.414655,4.935606,-3.204291,3.467055,0.948515,2.011475,-4.220405,-4.611805,-3.391217,0.515458,4.822382,-0.140996,-0.798669,0.739311,-1.739708,-2.534715,2.715690,3.625294,3.802301,-4.424574,-1.304666,-4.925228,4.381392,-0.566576,-4.100162,-4.986877,-4.456465,0.440077,2.386700,4.163182,1.306040,1.468398,-0.203864,3.847926,-2.825404,2.867824,-3.974578,-3.135472,2.466048,0.119785,-2.758873,1.106449,4.803766,0.068819,4.133274,-4.737236,1.729026,-1.644948,-0.693990,-2.435680,4.264048,-2.211219,-2.186956,3.201239,-0.003815,4.537034,-3.260598,1.409650,-1.182897,4.394818,-1.845302,2.223426,3.365886,3.783380,3.157140,2.627338,4.765160,4.775536,-4.327067,3.087558,1.180761,-3.990448,-4.654378,-4.838252,-1.568804,-2.691427,1.485948,2.790310,-4.230780,2.508774,1.720328,-4.067354,3.631245,1.787011,-3.935820,2.165899,-2.838832,-2.558214,1.145360,-1.740013,-1.592608,3.138829,-4.174780,4.011963,4.993896,1.352733,0.666982,2.806940,2.821894,3.379315,4.710990,-1.213569,4.476150,3.225351,2.095251,-3.869135,-4.541612,-2.823115,1.187170,4.869228,3.981597,-2.753075,4.437086,-1.303140,1.952574,3.591266,-0.506149,2.414624,-3.247169,2.882321,-2.021699,4.386120,-1.359294,2.736747,3.955199,0.748924,2.176275,3.053682,2.626118,3.419904,3.294933,-0.368661,0.331280,-4.359111,-3.963134,-2.326579,0.598926,2.857295,-0.645772,2.778405,-4.066897,3.444777,-3.217414,-2.504807,-4.986724,-4.426557,1.776940,-0.563372,-3.353069,2.043367,4.090548,-1.261330,2.657399,-0.255898,3.657033,1.752983,-3.266549,1.155584,3.399765,0.262919,1.426893,0.999329,-4.983062,-4.933470,-3.893551,-1.869869,3.753166,3.296152,-3.183386,3.961150,-4.305399,2.371899,3.455000,3.487655,-1.674856,4.391156,-2.011780,-1.220586,3.153327,3.142796,1.431623,1.647694,0.730155,0.946989,-2.319863,-2.758108,4.159370,-1.252174,-1.688894,1.452376,4.650410,1.857814,1.962188,4.578845,-4.184698,3.762474,0.602283,-0.591754,-0.457472,0.636006,0.365764,1.838435,-2.443922,3.917814,-0.181584,2.468492,-1.590012,3.538774,1.655171,1.968596,3.630177,4.269082,-1.196934,4.323407,-1.027252,-2.691580,2.776727,-2.800378,1.040071,4.798730,1.302530,0.360118,-4.414502,-4.215064,-1.624195,0.691092,-4.699087,-1.045564,3.162938,-4.870296,3.187811,1.348156,0.163887,-3.647875,-4.485457,-2.230750,2.577136,0.357982,-2.699667,2.574696,-2.559280,-4.453717,-3.256630,4.381542,1.604053,0.666066,-0.343333,-4.746849,-3.295541,-3.791314,-4.973449,-3.456832,1.687216,4.099399,-3.678396,-1.211432,0.305948,-3.369701,-2.824793,-3.472394,-1.780295,1.551105,3.554949,4.934690,-3.095492,-4.047365,-2.353739,-4.625383,1.471300,4.627217,-2.239601,-1.625874,-0.866573,3.959014,-4.581439,1.419721,-4.108097,3.771477,-1.539659,2.864772,0.643941,1.638997,-4.132664,0.791192,4.923399,-1.390881,-0.928371,-4.224369,-0.399637,-4.147617,-2.360759,0.231788,4.159825,-4.980010,-0.670489,3.397018,-2.177799,-0.195166,-0.472579,-0.915555,-0.194250,0.246284,4.946593,-3.319498,0.219733,-3.267769,-2.653432,0.822932,-2.664113,-4.235511,4.977569,0.297098,4.089633,4.751580,4.192025,2.866148,-0.590837,-3.455457,-2.151096,-2.130343,1.797999,2.058170,4.606009,3.013857,0.505997,2.002777,1.145970,-1.237526,-2.928556,1.749626,0.765862,3.416395,4.576250,-4.686422,-3.056429,2.782067,-1.761528,-2.663350,0.021210,-0.530869,-3.727226,-0.153354,3.518176,2.796261,-0.399790,-4.037291,-3.325294,-3.246251,-0.769674,-4.013639,-0.832542,-1.306343,1.893674,-3.634602,-3.359020,1.007569,-3.524735,-1.964934,4.092380,-0.458083,3.365276,0.868709,2.657399,1.941893,2.947172,-2.918027,1.306040,-2.641072,4.134342,4.928893,1.734064,-0.982846,-1.252325,-2.121188,-2.523117,-3.613848,3.842588,2.904297,-2.206029,2.995850,-0.040132,4.286325,-2.959227,-0.629749,-0.579089,-2.909940,4.918821,-0.902585,-3.420362,-1.712394,-1.121097,-0.560625,4.005707,-2.210761,-3.071078,-3.806879,-1.137120,2.411725,-1.931364,-3.023011,-3.480636,-0.347301,-0.340434,-0.118410,-1.694690,-3.234654,4.853664,-3.501999,-1.184881,2.260811,4.008454,0.679495,-0.482192,2.994018,-2.017426,-1.477096,0.246895,1.417432,-3.084048,-1.888485,2.898190,-0.590686,-1.343577,3.547319,2.867214,2.933897,1.430403,-3.825343,-2.476272,-3.138524,-4.669026,1.555073,-3.443096,-1.702321,-0.889462,3.376873,4.009522,-4.089328,0.870846,-0.712455,1.694845,-0.515152,4.406110,-2.361675,-1.675924,-1.357463,-3.993500,-2.725608,0.789819,-3.190558,-4.153722,0.654317,-2.163457,-0.445570,-1.371044,3.919645,0.467391,-2.696463,4.659873,-4.312110,2.794582,-2.569048,-1.754814,3.364055,-0.164342,4.276864,-0.929594,3.697775,-4.651631,-2.780847,-3.436384,-0.997192,-2.139958,-3.575549,1.572771,-1.606494,0.701468,3.097476,2.373577,0.751976,-4.600360,4.762108,-1.926634,-1.389966,-3.921171,-0.622729,0.314954,-3.680072,4.824062,3.656575,-2.182531,0.081332,-0.422224,0.673696,-2.925657,1.076998,2.287057,0.853755,0.509964,-1.520432,2.576067,-4.905240,2.911466,-2.608570,1.787469,-4.850002,-1.182440,-4.479049,-2.138737,4.434797,3.144169,4.433424,-1.570787,-0.165560,-2.701648,-0.784782,3.376263,2.968078,4.786676,2.330088,-1.454512,-0.472274,0.922727,3.447829,-1.189306,4.923704,-0.417646,-4.821162,0.953551,1.716971,-2.179479,-4.784692,-4.238105,-3.557848,-2.157353,1.297952,-2.405316,0.246590,-1.409040,4.543138,-3.068026,-4.089936,4.791561,0.146642,-4.094058,0.934019,-0.277413,3.028047,-3.234046,-1.826991,-3.897214,1.871853,3.376415,0.301981,-0.303964,4.225898,-3.425855,0.289163,3.967101,-2.222816,-4.806665,-4.649190,0.986511,-3.929411,-3.592792,4.334544,1.535386,-0.317698,-3.260903,3.174078,2.926267,2.863552,-3.069399,-3.283639,3.302103,1.768700,2.062441,-1.100803,-0.953093,-4.809412,3.699454,4.045381,4.258095,-1.807459,-1.107364,-2.804041,2.250435,4.729911,-2.961821,-4.241310,-0.810266,3.409528,-4.988861,-4.933775,-4.480422,1.894436,-2.095096,0.330821,-3.907132,-0.419630,1.121708,-4.540086,-3.907895,-3.004700,4.222694,-0.736564,2.162084,0.676595,2.868892,2.198859,-3.527329,0.318003,-2.477493,-3.968780,-4.980773,-4.138768,2.665181,-0.136265,-1.185797,4.774316,-3.127537,-1.750389,0.683615,-1.007874,-0.142521,0.353710,-2.709433,-4.119236,-3.700217,2.142705,4.633473,4.855800,-0.255440,2.753075,-0.027772,1.030915,-1.108127,-2.669759,2.357860,0.747246,-1.405683,3.261818,-4.298837,-1.243629,4.773400,-3.443098,2.676321,3.367565,3.567003,1.957152,4.033784,1.673482,4.752800,-0.287484,-0.823542,-0.145116,1.410566,-1.192511,3.223060,3.543199,-4.863277,2.865841,-1.575976,4.377880,-2.429884,3.721427,4.459975,0.506760,0.805841,-2.803430,2.375866,
3.357799,0.065462,-0.822321,2.066408,-1.775719,-3.292184,-1.813868,-1.456191,-1.496017,1.830653,-0.424818,-0.218207,0.242164,1.167943,-4.823298,-0.966063,3.447981,2.435377,-0.233314,-1.069521,-0.605487,4.539018,3.095798,-0.095981,-2.238075,1.912290,-0.852840,2.877743,-2.496872,2.895901,-2.358776,3.202307,2.384869,-3.741111,-3.914151,3.129215,-3.603473,3.238929,-0.926847,2.931761,-3.026063,2.973724,-0.197302,-1.663106,2.794580,3.202918,-2.828150,-3.347880,1.043428,-4.359722,2.759178,3.798181,-3.246101,4.182867,0.928373,3.055055,4.188360,0.470290,-0.056001,3.455611,-0.565355,-4.458296,-0.056001,-3.323466,-4.205603,4.824824,-4.069948,-1.285592,-0.916471,2.318644,-0.127720,-1.214179,-4.959563,0.013733,3.433180,2.792291,-4.145482,-4.187902,4.273202,-2.705008,0.558489,0.825831,1.553392,1.457411,1.904050,2.749718,1.959136,0.814081,3.480483,-2.371746,-4.739067,1.866817,-0.776849,-0.073092,-2.116153,-3.725700,-2.696768,-3.209174,0.323191,2.834864,-0.404370,-0.736412,1.262398,-2.915128,-1.798303,-3.468276,4.790338,-0.529191,-1.608783,-4.952696,-1.628620,-1.273995,-2.120273,2.976623,1.899319,1.596271,-4.519181,-1.694845,4.284036,1.234626,-0.866420,4.383831,0.809809,1.285592,1.695914,-1.820582,2.259896,-2.895291,-4.235511,1.286813,4.207434,1.575671,-1.256294,1.197374,-3.677045,2.144737,-0.544603,1.354869,-1.427046,4.298227,-4.999390,3.827631,-4.865719,3.791009,-3.355358,-4.454482,1.579791,-4.263588,-1.530351,-4.973296,-3.498489,-4.678030,-4.598529,0.774255,1.676992,2.385632,4.386731,4.280679,1.707816,-1.818751,2.698752,-3.950734,4.754218,-3.807286,-0.161901,-3.906827,4.215369,-0.517136,0.700095,-4.191259,3.001495,-1.022675,-1.631520,-1.642811,1.454817,-2.492447,4.391003,1.402020,0.878323,2.008118,0.877560,4.039735,-2.698294,-4.005402,-0.428175,-3.310801,3.248543,3.340709,-2.414152,4.532670,4.179860,-3.982679,4.463485,-3.592639,3.500168,-3.326975,-1.310617,1.569414,-2.224952,-2.140873,4.267098,4.994812,1.671957,-0.126804,-1.319773,1.728111,1.366619,2.114628,-2.853938,2.461928,2.578051,4.878842,3.000275,-2.849818,-2.479324,4.578322,1.606873,1.259849,3.931978,4.824787,1.841792,-2.159032,-0.899228,-0.372173,-3.406476,-0.105747,4.475387,-1.435133,1.391797,-4.390698,-4.551225,3.628346,0.747246,4.283273,-2.096774,-3.534196,1.378674,-4.913938,-2.072054,-4.894101,-3.871273,3.776666,1.962035,-0.424904,-0.838451,-2.859021,-0.936991,-4.258095,3.888974,1.392102,4.637440,-0.011292,1.235084,4.237495,-0.584124,-4.475082,-0.904874,-0.882748,4.214148,1.930143,4.595172,0.075076,-0.539415,4.090701,-2.142552,0.074007,1.433760,0.668661,-1.622364,4.530015,3.541419,-0.567604,0.068912,-3.989043,1.813715,3.693503,4.829096,3.020264,-3.667257,-3.405866,0.523850,-2.972045,-3.771325,4.574725,-1.658071,0.348674,4.456160,-2.276833,-0.835444,-0.815760,1.748757,1.110225,-2.609638,-3.828394,-2.035585,0.139164,-2.955107,2.884492,4.340612,3.453246,-4.365794,-1.406598,3.246101,-1.369060,1.576891,4.241005,-2.415998,2.235328,2.914060,4.790948,-3.765831,4.883114,2.264473,-2.768181,2.242347,-1.688284,-1.675161,-2.573294,-1.236871,2.263073,4.575488,2.297739,3.614612,-2.776116,4.625204,-3.355890,-3.386289,-0.886002,0.186621,0.733207,-2.977996,-1.314432,4.422742,3.873714,-1.156041,-2.037568,1.019013,-3.175756,1.552324,-1.098514,0.532395,2.125156,-1.828059,-4.051180,2.362381,-0.049042,-3.459839,2.025761,-2.350841,0.490432,2.143925,0.422834,1.000961,0.219931,-3.843612,3.224566,2.331156,3.860744,1.434217,-2.940764,-3.339335,-4.136937,-2.001404,-1.173437,4.108097,2.761467,-4.742576,-4.808649,-3.523362,-1.935636,-4.506058,-2.831965,0.622330,-1.479188,-0.950730,3.771289,1.570330,-1.579638,3.328806,3.761830,-2.250507,-1.182090,0.900954,0.239723,1.490829,1.978210,-3.967559,1.255074,-4.916837,3.050172,-0.528123,0.416120,-4.415113,1.113163,-3.570055,-2.454909,-3.236335,-1.399884,-3.975972,4.417379,-1.717842,4.162460,4.059571,-2.484359,3.626209,-1.805170,1.727255,-4.405767,3.138416,-1.630763,0.260475,2.570116,2.435835,4.224982,3.728446,2.701193,-4.920347,-2.462081,3.021485,-3.166601,-4.071780,1.128422,2.512741,-4.923246,2.915738,2.179785,-2.342437,2.081560,4.120806,0.618503,1.326618,-3.103292,0.725865,1.000837,0.496461,-2.605778,-2.481161,4.561095,2.255623,3.813288,2.822047,-1.967223,0.162358,1.623585,-1.474044,1.702170,-4.346141,1.293222,-2.666707,-4.064913,-2.538224,-2.757958,-3.985412,-0.800653,-1.734470,0.572114,0.842203,0.353144,-0.476807,4.479399,1.577852,3.748328,1.765540,0.597750,-3.179537,1.092257,-1.601611,-3.241829,-2.625813,-3.700980,3.130741,-2.357555,-3.870052,-1.858577,1.442457,1.596576,0.428632,3.192694,3.975188,2.002319,3.607135,1.679434,-1.551378,-1.328723,1.346225,-2.272813,-0.037098,-3.977949,2.699091,-1.155201,-2.630346,1.571476,-2.922159,-1.620380,2.765130,-4.142735,-4.201483,-0.578631,2.655873,-1.944334,-2.001404,-0.679800,2.448195,2.899411,-2.035432,-3.071535,0.009003,-0.663015,-2.864162,0.776696,1.336100,3.314920,4.118625,-2.698447,1.592608,2.675253,0.345828,-3.248345,-1.768503,4.247108,0.486923,2.597125,-0.960723,2.781762,2.966094,-2.562487,4.293649,-3.470412,1.420942,-3.103275,1.443373,-3.761254,1.046937,4.453108,0.803705,0.799890,0.569933,4.873959,-4.270150,-4.496750,4.845119,4.034547,2.649770,1.216812,3.076768,-2.015093,-1.696911,3.099002,-2.672964,3.932005,-3.771783,-2.993866,-3.706931,-0.200659,-0.128483,0.032807,-4.025086,-2.405774,3.822748,-0.818506,4.964446,-4.808344,-3.247169,-1.241340,2.701651,1.475417,-1.293069,-3.920713,-0.225837,4.033174,0.133956,-1.272127,-4.936782,0.044706,1.636579,-4.195379,-1.861934,2.019257,3.396100,1.397748,2.515946,2.030854,-0.395215,4.328745,4.361705,1.982635,2.290719,2.749413,0.913419,-4.480117,-1.322825,-0.923338,2.458571,-4.336680,-0.850551,4.433576,-2.405316,0.702078,4.511493,-2.623784,-4.256219,4.816723,-1.008942,1.660817,4.200568,3.390759,4.517960,-3.235878,-4.347972,2.606433,-0.724204,3.870510,1.564989,-2.749260,3.483535,4.863277,1.953185,3.460189,2.105472,2.855312,-0.945769,-4.615772,4.265114,-1.021302,-4.030580,-2.831051,-4.537877,0.885387,-3.097595,-3.588403,3.556169,-4.767449,3.409375,3.992889,2.803125,3.838923,-1.204108,1.149480,-0.013733,-1.825007,-1.912748,1.168096,0.214393,4.315928,-4.009369,-3.791925,-2.382427,-3.708609,3.483230,2.651143,1.731162,4.774316,3.936735,-1.142613,-2.620583,0.847456,-2.307513,-3.933378,2.089145,0.649129,-0.216376,-4.088870,-4.021271,0.716269,-0.940733,0.828120,-3.924833,-3.479568,-2.010712,-2.902158,-4.345225,-0.949278,3.433332,2.597125,-0.899533,-4.033021,1.538591,-0.364086,3.937651,2.476272,-3.453932,0.072939,-0.825678,-0.430006,-2.200232,-4.891202,3.857997,-2.641377,-2.415845,-3.786737,3.790704,-1.270180,1.702780,3.659017,-4.002960,3.330485,2.601093,2.090976,0.281991,3.756676,-0.184942,-0.728782,-1.232643,-4.094974,0.286416,-4.285714,4.313181,1.820276,-3.342235,0.170904,-2.494888,0.277261,3.867153,-3.743553,-1.547594,-4.246651,-0.551164,-4.190954,-2.950072,1.136204,-1.982940,-1.033662,-2.424543,-2.798700,-2.996002,-1.253700,4.097110,-2.971435,-1.642659,2.048402,-0.283059,0.343638,-1.791437,4.209418,1.897183,-2.248146,-1.349223,1.126591,4.488205,-3.977020,1.109500,3.417463,-4.899747,-3.723411,-4.224830,-4.179968,3.554949,3.147832,1.304056,4.872433,2.367016,-3.569597,-1.135594,1.816767,3.274026,2.783288,2.034974,-3.328349,-2.399213,2.500381,-3.817103,2.468337,4.836268,-1.414838,-0.394147,-0.424055,0.059053,-3.895535,-2.998596,0.512558,-2.958007,4.301889,4.030274,2.808771,-0.497909,-1.925565,1.528977,4.400159,4.006012,-1.557207,-4.273049,0.265358,-2.079379,-4.677419,
