0.727165,-0.597095,-0.601978,0.568041,-0.309366,-0.995361,0.999329,-0.547105,0.722282,-0.718375,-0.488266,-0.261208,0.523728,-0.798943,0.668264,0.424299,-0.140843,-0.20719,0.26426,0.57036,-0.444807,0.149144,0.157628,-0.699454,0.501083,-0.575243,0.268838,-0.199072,-0.351665,0.837092,0.580798,-0.679983,0.0112613,-0.334273,-0.861287,-0.831254,0.666918,-0.746561,0.0533941,0.722756,0.753397,-1.00078,-0.523851,-0.591499,-0.531862,0.382416,-0.315436,0.748485,0.0923724,0.930106,0.928212,0.269936,-0.0694906,0.222877,-0.414716,-0.379498,0.384442,-0.0744346,0.0737632,0.479598,0.903134,-0.24601,0.88053,0.597774,-1.00073,-0.524177,0.531671,-0.198635,0.232071,0.885595,-0.454362,-0.234706,0.266433,0.10203,0.920824,0.913444,0.870752,0.86461,-0.918697,0.788744,-0.349158,-0.755138,0.875179,-0.395489,0.542405,-0.615284,-0.795238,-0.517806,-0.589345,-0.576862,0.968123,0.599192,0.183157,-0.489137,-0.927913,-0.941321,0.756238,-0.315804,0.213823,-0.600522,-0.14729,-0.332683,-0.608698,0.506616,0.724411,-0.161413,-0.905892,-0.552605,-0.126477,-0.183686,0.0739205,-0.187048,-0.208411,-0.00656148,-0.637169,-0.174212,0.640539,0.884922,0.238296,0.0711567,0.748429,-1.02499,-0.126492,-1.10965,0.200491,-0.894789,0.614751,0.648217,-0.587967,1.06512,-0.684052,0.433795,0.358031,-0.286457,-0.488104,-0.926267,1.01679,-0.629725,-0.771959,0.358503,-0.13596,0.593005,-0.0159245,-0.956129,-0.272232,0.428948,-0.421076,0.125071,-0.788982,-0.465632,-0.920261,-0.92179,-1.58827,-0.367465,-0.678162,0.755353,-0.137237,0.127547,0.295396,-0.216634,0.250469,0.409792,-0.971106,0.0949761,-0.821017,-0.66257,0.369762,-0.556758,0.554186,0.0869785,0.595891,0.774234,-0.0731546,0.295785,-0.0538346,-0.185246,0.591449,-0.769457,-0.416254,-1.78439,-1.02631,-0.836007,-0.298669,-0.360428,-0.847752,0.213079,0.926397,0.0845821,0.565295,0.454371,0.301068,-0.54187,-1.17727,-0.696648,-0.273931,-0.671376,-0.281167,-0.560988,0.77565,0.769924,0.630518,-0.951966,0.282289,-0.0086951,-0.540229,0.0982973,-1.46538,-1.94763,-0.772293,-0.893364,0.641883,-0.747071,0.334681,0.170729,0.556364,-1.08915,-0.615834,-0.4873,-0.0531254,0.0755957,0.55503,0.633251,-0.608504,0.279245,-0.722465,-0.314313,0.155178,0.726853,-0.903721,-0.802317,0.00062358,0.0302111,0.122354,-0.546686,-0.308582,-1.43267,-1.09998,0.322431,-0.621281,0.203757,-0.828051,0.98072,-0.558828,-0.291,0.0131689,-1.69021,-0.705826,-0.726946,-0.81436,-0.610406,-0.337636,0.69618,-0.787835,-0.0752552,0.444681,0.420936,0.742389,-0.874466,-0.295084,-0.557616,0.310365,-0.165145,-0.763382,-1.26862,-1.29562,-0.805745,0.259177,0.802117,1.01662,0.463417,-0.744027,-1.75526,-0.272241,-0.768027,-0.847195,-0.270601,-0.921988,-0.795616,0.903713,-0.961253,-0.432783,-0.706801,-0.605025,-0.256664,-0.952299,-0.726051,-1.38695,-0.731333,0.839799,1.04026,-0.0932282,-1.24986,-0.972028,0.727114,0.641327,2.31317,0.570073,-0.421899,-1.05232,-1.9311,-1.5455,0.391361,0.125598,0.393114,0.775665,-0.452367,-0.547328,-0.264971,0.449568,0.985101,0.830684,0.636773,-0.431026,0.521741,0.655797,-1.18699,-0.240259,0.733995,0.145881,-0.413645,-0.583319,0.356354,0.310655,-0.840203,0.143572,-0.599166,0.0118021,-0.634263,-1.02527,0.0764087,-0.571009,0.509802,-1.01035,0.419417,-0.237329,-0.601391,0.0286569,0.327378,0.652483,-0.881633,-0.0898624,-0.282869,0.656275,-0.45504,0.556492,-1.00182,-1.03521,-1.33987,0.253367,1.05914,0.194125,0.511151,0.905105,-0.228103,-1.11478,-0.88522,0.128101,0.481334,-0.128013,-1.00242,0.714274,-0.216453,0.396633,0.643524,0.536485,0.640722,0.806165,-0.762141,-0.19562,-0.53604,0.221532,-0.835131,0.717829,-1.24049,0.0283701,-0.459206,0.206778,0.742738,0.799728,-1.37579,1.03387,0.710085,-0.621192,-0.280755,-0.522034,0.1781,0.621327,-0.670516,0.690649,-0.464575,-0.108477,0.142501,0.267373,-0.67101,-0.697408,-0.896436,0.90167,0.55691,0.651246,-0.841807,-0.814703,0.234207,-0.551797,-0.188373,0.967586,-0.208463,0.223018,-0.212467,0.186679,0.212999,-1.0558,0.250926,0.471523,-0.0919642,-0.901051,0.908125,-0.052682,-0.255714,0.881697,0.659058,-0.421735,-0.141331,0.217277,0.905748,-0.996202,-0.0908829,-0.715593,-1.03558,-0.579541,-0.164684,0.707663,1.33448,0.884053,0.0824623,-0.246721,-0.373843,0.655575,-0.98123,-1.39695,-1.33962,-0.85571,0.58407,0.365134,-1.20785,-0.758326,0.485642,0.0946004,1.01589,0.888729,-0.241432,-0.311209,0.889716,-0.0144167,0.530245,-0.0686387,0.430374,0.155704,-0.733301,0.412713,1.55926,0.00972913,0.584155,-0.481874,-0.410418,-0.734521,-0.761236,-1.17643,-0.16299,-0.789805,-0.976063,0.185644,-1.23123,-0.271463,-0.0532684,0.319492,0.0658271,0.680593,0.620046,-0.0825421,-0.625603,-0.216145,-0.517451,0.244762,-0.883926,-0.958885,-0.947692,1.57518,1.12648,-0.718536,-0.261285,0.176505,0.27415,-0.796612,-1.64715,-0.472478,-0.791684,-0.283997,-0.463153,-0.423926,0.298976,0.762504,0.332166,0.265203,0.68565,-0.503945,0.0967744,-0.830995,0.718861,0.341523,-0.214953,-0.300146,-1.11956,-0.480954,0.569194,0.538711,-0.885662,0.278461,1.2279,-0.676912,-1.62631,-2.17139,-2.01772,-0.786947,-0.902197,0.536739,-0.974848,-0.102299,0.88083,-0.689333,-0.159845,0.912164,-0.0205548,-0.0512405,-0.0950278,-0.235349,-0.634032,-0.264717,0.624382,0.311656,-0.135131,-1.10351,-0.722237,-1.0801,-0.255073,0.689097,0.262931,0.231526,-0.633548,-1.38134,-0.144894,-0.0829482,0.0426713,-0.27486,0.709569,-1.04427,0.118682,0.487294,0.858059,-0.80613,0.937747,0.701529,-0.176062,0.0962849,-0.178881,0.0567232,-0.834115,-0.322873,-0.412205,-0.781516,-1.67975,-0.583502,0.288972,0.0758421,0.462139,0.280306,-0.989647,0.725042,0.418194,0.73158,1.09415,0.740895,-0.890959,0.221195,-0.421799,-0.418261,-0.187725,0.128285,0.708304,0.488393,-0.305458,0.618884,0.628536,-0.505884,-1.22488,-0.0952169,-1.37407,-0.195309,-0.407735,1.08892,0.970986,-0.552132,-0.345584,0.284425,-0.207729,0.00445799,-1.11069,-0.0715052,-0.780994,0.102601,-0.129013,-0.73801,0.916463,0.0333792,-0.781744,0.792231,0.477035,0.103799,-0.579331,-0.168182,0.424,0.3005,-1.17066,-1.03078,-1.57938,0.244376,0.473374,-0.267871,-0.780133,0.202558,0.0326695,0.339726,-0.0553861,1.4229,0.106505,-0.946678,-0.468192,-0.659591,-0.322452,-0.13174,0.322577,-0.581109,-0.472553,0.330069,-0.513657,0.404767,0.968749,0.327586,-0.104825,0.698816,0.740538,-1.05394,-0.274039,-1.48986,0.173145,-0.463726,0.2873,-0.0752627,-0.748407,-0.853604,-0.3178,-0.879247,-0.311025,-0.110404,-0.181026,0.565344,-0.531761,-0.341448,-0.591098,-0.923789,-0.718808,-0.0286654,-0.953673,0.310709,0.367473,0.73591,-0.203015,-0.887287,-0.12752,0.0406614,0.740384,0.188,-0.659471,0.17251,0.492172,-0.633202,-0.87583,-1.34227,-0.201676,0.380115,0.514602,0.273595,0.314375,-0.398965,0.742052,0.493557,0.191599,0.554256,-0.736953,0.821043,0.529527,0.803522,-0.291849,-0.253323,0.901516,-0.0744418,-0.133741,-0.140705,-0.845854,-0.63651,-0.340057,-1.0801,-1.11774,-1.04425,0.447354,-0.331679,0.0927916,0.200604,0.93679,-0.924651,-0.253837,-0.757911,0.787509,0.34579,0.649379,-0.539678,0.130528,0.386883,-0.629139,0.927671,-0.855403,0.140843,0.106172,-0.392771,0.0623186,0.603142,-0.902554,-0.561614,-0.915245,0.742908,0.540643,0.384764,0.483502,-0.261358,-0.874619,-0.819676,-0.886874,0.884129,-0.920112,-0.611071,0.93063,-0.850161,0.852298,-0.517807,0.664418,-0.00747703,-0.931944,-0.209998,0.893246,0.737907,0.348613,0.703177,0.27173,0.80595,-0.620801,0.670776,-0.493654,-0.329169,0.909557,0.214202,-0.590882,0.907006,-0.24417,-0.0953562,0.798625,0.116163,0.774991,0.378828,0.567838,0.90992,0.918834,0.34312,-0.295267,-0.911496,-0.818842,
-0.744926,0.853023,0.319376,-0.685965,0.980529,0.328654,-0.132237,0.489242,-0.400922,0.501328,-0.969665,-0.566088,-0.494125,0.969237,-0.891659,-0.347453,0.908506,-0.857173,-0.784478,0.462081,-0.173132,0.245521,0.278176,0.991882,0.0934782,-0.687185,-0.964965,0.183691,-0.646596,-0.807184,0.0374462,0.792108,-0.93585,0.546312,-0.350932,-0.616361,0.493162,-0.156297,0.0441175,0.3764,0.806617,-0.574957,-0.680162,-0.155757,0.643767,-0.782629,0.962622,-0.083776,-0.996646,-0.65545,0.901302,0.360698,0.268593,-0.587756,0.453352,0.81048,0.79223,0.979736,0.859798,0.710138,0.720177,-0.605008,-0.838692,-0.685823,-0.0356791,-0.280068,0.181378,-0.388159,0.305661,-0.907357,0.63508,0.333299,-0.705217,0.212798,-0.85963,-0.992429,0.763078,-0.0709977,-0.0600328,-0.755715,-0.642748,0.250711,0.986755,-0.395795,0.250526,-0.435408,0.309427,0.262771,0.314304,-0.0501642,-0.355031,-0.910209,-0.0430942,-1.29648,0.287313,-0.18923,0.353662,1.07232,0.353724,-0.0477895,-1.32149,0.479036,-0.219965,-0.646039,0.173319,-0.317058,-0.679426,-0.703188,0.238508,-0.671857,0.283115,-0.115268,0.220252,0.111118,-0.278173,0.442858,0.0844588,0.873144,-0.0781315,-0.722603,0.681354,0.0650054,-0.912941,-0.416046,-0.0844419,0.668459,0.129353,-1.04688,-0.206721,-0.461111,-0.255019,-0.295448,0.458893,0.489475,1.05178,-0.0156973,-0.72698,-0.138355,-0.196998,0.784357,-0.994629,-0.404706,0.244923,0.0897303,-0.0690124,-0.834644,-0.957268,-1.37553,-0.501306,-0.583892,-0.208294,-1.10002,0.757426,0.823007,-0.719546,0.675444,-0.212083,-0.62954,-1.24809,0.948346,0.129062,-0.300342,0.283895,0.397777,-0.868421,-1.06456,0.769222,-0.753287,0.722831,0.805841,0.83761,-0.172886,-0.320431,-0.996646,-0.291435,-0.462327,-0.383986,-1.41154,-0.164895,-0.286751,-0.671839,0.0560454,-0.191419,-0.138454,-0.764601,0.426043,0.61389,0.741879,0.046313,0.0160124,0.816393,-0.0741355,0.103253,-0.382978,0.391009,0.0249039,-0.698416,0.343848,0.261404,0.0863227,0.943558,0.816742,0.441148,0.235502,-0.598188,-0.628327,-0.678723,-0.154232,0.109127,-0.0212816,-0.0839971,-1.69048,-0.152069,-1.00041,0.0678516,0.091093,-0.352452,-0.873714,-0.301489,1.14918,-0.0867627,0.25168,-0.684851,-0.296641,0.48351,0.624766,-0.855886,-0.794918,-0.76924,0.721364,-0.407356,0.782622,-0.155348,0.290796,-0.588135,-0.689263,1.04724,0.875017,0.449183,0.0375638,-0.412221,-0.16208,0.136205,1.25409,0.135223,-0.451471,-0.191449,1.40241,1.01271,-0.00727297,0.607316,0.65104,-0.177221,-0.130249,-0.149396,-0.763851,-0.314044,0.871687,0.845261,0.0702455,0.887105,0.794615,0.767292,-0.710489,0.589201,-0.356814,-0.707786,-0.0978933,-0.682008,-0.396191,-1.19249,0.242778,1.39612,0.366988,0.291551,0.548799,0.894951,-0.989559,0.657009,-0.927653,0.686025,0.120993,0.585638,-0.0866074,-0.760527,0.406003,0.323323,0.723775,-0.494082,0.236207,-0.990711,1.38536,0.825435,-0.74315,-0.389537,-0.269534,-0.462953,-0.0193322,-0.582831,0.723954,0.826621,0.163703,0.331465,0.857352,0.371686,-0.708422,-0.266086,0.967918,0.252418,-0.770201,-0.617687,1.04126,0.732841,1.31907,0.184971,0.566779,0.495218,0.148695,0.599803,-0.684836,-0.289009,-0.101185,-0.0149137,-0.799835,-0.188411,-1.91796,-0.461374,-0.884935,0.136708,0.625567,0.82367,1.90452,-0.644439,0.810816,0.00118126,0.156606,-0.486251,0.871284,0.101049,0.136921,-0.46124,1.36442,0.85338,0.192424,0.0344703,1.51522,0.724105,-1.28594,-0.894218,0.334512,-0.281784,-0.44784,0.671175,-0.795164,-0.847055,-1.2171,-0.101681,1.4655,0.612995,0.590801,0.603695,-0.848507,-0.653741,0.272749,-0.725822,0.502474,0.338623,0.541373,-0.320623,0.266561,1.77992,0.822432,1.04196,0.797618,-0.431434,-0.865951,-0.287809,-0.0292074,-1.61881,-0.947937,-1.27315,-0.558435,-1.37246,-0.489639,0.749759,1.22807,0.16226,0.559251,-0.363148,0.200168,-0.299523,0.764412,0.150426,-0.596293,-0.427255,-0.80482,1.21305,0.161226,1.00882,0.810236,0.750834,-0.214445,0.693467,-1.39812,-0.982792,-0.879451,-1.3125,-2.15475,-1.57823,-1.53345,-1.21877,-0.305044,0.172041,1.64262,1.02668,0.794593,1.42066,-0.734658,0.55519,0.882122,0.571703,0.684927,-0.94023,-0.931614,0.294536,1.46085,1.21377,0.00649754,0.592656,-0.685679,-0.0905693,-1.15931,-1.0513,-0.850306,-1.36502,-1.37302,-2.07787,-2.16661,-1.64049,0.961842,1.40777,-0.538704,-0.313741,-0.466168,0.937896,-0.373515,-0.722934,-0.302191,0.779657,-0.720317,-0.0799213,-0.828581,1.04946,0.569103,0.555877,1.96372,0.976179,0.0400819,-0.993918,-1.25718,-1.16109,-0.733549,-1.11966,-2.03376,-0.774831,-2.48769,-0.467485,0.672173,0.238472,-0.319016,0.923552,-0.672156,-0.496413,0.543095,-0.861572,0.0978006,0.828486,-0.0998864,-0.945978,0.0812189,-0.673825,0.231738,-0.218156,0.125448,-0.767367,0.118536,0.0761813,-0.32633,-0.345429,-0.701711,-0.5517,-1.60196,-1.81259,-1.49507,0.11189,-0.118214,0.00876374,0.370228,0.495183,-0.112926,-0.0458479,0.788777,-0.848972,0.772938,0.585521,-0.915281,-0.827485,-0.0573873,0.390247,0.642607,0.514049,0.331381,1.12041,-0.191231,0.337074,0.024501,-2.14366,-1.04239,-1.22813,-0.3903,-1.44346,-0.935181,0.956073,0.683361,0.264656,0.616556,-0.570043,-0.698934,-0.890346,0.840828,0.15357,0.245599,-0.271828,-0.815484,0.764441,-0.880924,-0.101252,0.342265,0.265127,-0.00628992,-0.129816,0.253757,-0.270406,-0.835404,-0.476663,-0.48508,-0.327882,-0.468408,-1.12279,-0.527956,1.15595,0.0268528,-0.371779,1.1468,0.262136,0.545038,-0.15792,-0.869886,0.795955,0.811949,-0.250099,0.363264,0.224914,-0.4786,0.829108,0.132369,0.0493145,-0.761064,0.0166735,-0.0838733,0.734456,0.240539,0.337028,-1.22609,-0.0744608,-0.968594,-0.382871,1.63989,-0.445889,-0.232499,-0.27125,0.646518,0.07583,-0.0317418,-0.769911,-0.0060038,-0.50265,0.602161,-0.0456862,0.596789,-0.356477,-0.878758,0.213304,0.505381,0.851068,0.48001,-1.14148,-0.371755,0.176308,-0.269256,-0.525505,-1.55601,-0.99677,-0.603778,-0.322517,-0.356118,-0.465857,0.205159,-0.561763,-0.892117,-0.240294,0.283886,-1.05276,-0.423731,0.568527,-0.415509,-0.541856,-0.326212,0.995562,-0.65925,0.74347,0.649608,-0.113705,1.0382,-0.730294,-0.859123,-0.936937,0.368811,-0.323351,-0.521321,-0.372968,0.0163053,0.142527,-0.37695,-0.236974,0.104202,-1.07864,0.0790596,-0.438575,-0.930887,-0.162098,-0.204836,0.0981742,-0.494674,-0.809442,-0.804743,0.0599077,-0.298184,-0.610361,-0.132358,0.717281,-0.865824,-0.53085,-0.210187,-0.356651,-0.00304356,-0.885422,0.0116456,-0.320419,0.714826,0.0325777,-0.533837,-0.29321,-1.07624,-1.00805,0.333045,-0.519155,0.0662906,-0.819961,0.377579,-0.0255533,-0.0655843,-0.106662,0.574999,0.425433,-0.519411,0.484872,-0.606985,0.738333,-1.06877,-0.00183108,-0.519909,-0.425533,0.668259,-0.817571,-0.400494,-0.743552,-0.864751,0.0124779,-0.103793,-0.742371,-0.682905,-1.15607,0.122914,-0.469644,-0.757781,-0.216246,0.854779,-0.0920134,0.254128,0.120579,-0.961241,-0.522935,-0.276181,0.0201758,-0.0728094,-0.988228,0.61857,-0.829982,0.533618,-0.741705,-0.0622447,-0.814613,-0.806759,0.228124,-0.00792967,-0.470208,-0.503909,-0.643518,0.175956,-0.248544,-0.683562,-0.248478,-0.0465969,0.338667,0.586047,-0.578051,-0.3408,0.23899,-0.374615,0.438093,-0.665151,0.145056,0.238419,0.235658,0.741518,0.600248,0.225209,0.227736,-0.633044,-0.336019,0.635208,-0.705625,0.483514,-0.466368,-0.647492,1.08588,-0.219993,0.305369,-0.8565,-0.403736,-0.401949,-0.623962,0.732047,-0.148167,-0.843013,0.427778,-0.814203,0.327128,-0.995361,0.761407,0.913178,-0.818189,-0.41815,-0.468634,0.283989,0.477328,-0.886178,-0.33286,-0.590315,0.0683319,-0.302258,-0.0244753,0.304454,-0.321418,-0.760794,-0.987321,0.778645,0.62364,-0.670742,-0.829157,0.268838,0.345439,-0.432661,
0.259194,-0.99646,0.91345,-0.670522,0.391583,-0.109836,0.36784,0.470992,0.551439,0.517685,-0.0632038,0.385907,0.0615383,0.608998,0.216529,-0.939024,0.775567,0.380169,0.365764,-0.954405,-0.842769,0.713858,0.105564,-0.548448,0.201147,0.985656,-0.280251,-0.0468459,-0.527879,-0.848811,0.0544145,0.787225,-0.902341,-0.271033,0.527054,0.764504,-0.199345,-0.193712,-0.911472,-0.79181,0.763587,-0.951803,0.25363,0.00180002,-0.312314,-0.446671,-0.68267,-0.0303641,-0.567142,0.273259,-0.412041,-0.387246,0.379254,0.299844,-0.544786,0.909909,0.308451,-0.272561,-0.22306,-0.0456583,-0.766082,0.944813,-0.148504,-0.517677,-0.184456,0.936421,-0.582214,0.651996,-0.904643,-0.772464,-0.710479,-0.326822,-0.873913,0.344955,0.584398,1.19004,0.153308,0.79471,0.413739,0.926005,0.525341,-0.833691,0.740165,-0.614673,0.230445,0.179052,-0.99105,0.756894,-0.783419,-0.0812499,0.211745,-0.530769,-0.181435,-0.741131,-0.176667,0.288532,-1.08127,-0.0990733,-0.405608,1.09093,0.0715183,0.0219581,1.39849,0.0939279,1.08524,0.110986,-0.0288983,-0.238185,-0.435132,0.647502,0.151092,0.920042,-0.737053,0.515366,-0.757377,-0.374769,-0.0397488,-0.401799,0.00140607,0.0020573,-0.193063,0.474922,-0.233904,-1.23979,-0.454374,-1.01593,0.0720109,-0.252129,0.0858396,0.461436,0.773181,0.12735,1.00271,0.418267,0.162129,1.00086,-1.15577,0.137736,0.702029,-0.384869,-0.00643941,-0.692007,0.556422,-0.342259,-0.961928,-0.446817,0.264953,-0.705727,0.322634,-0.680642,-1.09138,-1.29778,-0.850291,-0.281139,-0.788592,-0.552335,-1.28407,1.18929,-0.514251,0.993667,-0.178574,0.0165722,-0.215951,1.41907,0.111086,0.389103,0.214829,0.149555,-0.427961,-0.308573,-0.456033,0.434575,0.512003,-0.246712,0.610642,0.0403792,-1.36749,-1.32244,-2.44188,-1.15351,-0.363071,0.29421,-0.818126,0.558265,-0.799309,0.368942,0.449732,-0.458947,0.352206,0.418278,0.464034,-0.609914,8.19037e-05,0.0251498,1.00395,-0.206755,-0.289163,-0.641056,-0.606356,0.113225,-0.960252,0.862635,-1.04922,-1.24748,-0.322895,-2.00885,-2.30213,-1.26497,0.773871,-0.232122,-0.84307,-0.866033,0.204167,-1.55095,-0.508573,0.359478,0.748166,-0.0424303,-0.180155,-0.677827,-0.993112,-0.0665381,-0.492096,0.16732,0.684858,0.574886,-0.158905,-0.553489,-0.145367,-0.0445875,0.0986987,-0.504812,0.0528984,-0.347171,-0.973361,-1.16804,1.02606,-0.11663,-0.607178,-0.997851,-0.193921,-0.340013,-1.77059,-0.140737,0.376299,-0.541393,-1.02042,-1.1796,-1.22795,0.449874,-0.617222,-0.259366,-0.668569,0.155565,-0.801716,-0.303043,0.63597,-1.10489,-0.648389,-1.25971,-1.09017,-0.974985,-0.13073,-0.919003,-0.0766314,-1.02808,-0.575511,-0.666877,0.22513,-1.40812,-2.05723,-2.05717,-0.321234,-0.0440457,-1.59156,-1.33152,-0.253403,-0.880501,0.586329,-0.456114,-0.9494,-0.492105,0.321419,0.663081,-0.257323,0.0907292,0.334661,-1.20552,-1.11628,0.241704,-0.830143,-0.611796,-0.106425,1.12693,1.20891,-0.919983,0.132944,-1.02951,0.304374,-1.39255,-0.901146,-1.56735,-0.972953,-1.58553,-0.400244,0.316892,-0.450359,0.822199,-0.195349,0.54328,0.702977,0.870524,0.295628,0.552119,-0.175187,-0.453763,0.203244,0.184057,0.22411,0.815531,1.09172,0.762019,-0.35116,-0.309694,-0.392106,-0.505013,0.746819,0.0537985,-0.915584,-0.186656,-1.70246,-0.935304,-0.661041,-1.07964,-0.750795,-0.212889,0.118503,-0.208578,0.253231,-0.706044,-0.39723,-0.490724,0.767896,0.580929,0.549591,0.668729,1.77636,2.10825,0.470838,1.03564,-0.398187,-0.358668,-0.326503,0.00609665,-0.957547,-0.922069,0.546415,0.708157,-0.974568,0.51715,-0.776158,-0.770455,-0.548929,-1.02076,-0.920469,0.320011,-0.416725,-0.487409,-0.336482,-0.906976,0.0117953,0.0500316,-0.603778,2.03646,2.046,0.9453,0.237719,-1.04724,0.478952,-0.326496,0.280826,-0.952782,-0.663037,-0.434462,-0.239353,0.280064,-1.16295,-0.0317126,-0.38506,-0.575464,0.0711127,-0.48127,0.337809,-0.237393,-0.191511,-0.528007,-0.861001,-0.266739,-0.121776,-0.538956,1.12004,2.27176,1.72799,1.72963,-0.489443,-1.01698,-0.5602,-0.730204,-0.790596,-1.1043,-2.04174,-1.052,-0.230792,-0.157019,0.582665,-1.39135,0.0549218,-0.692569,0.206521,-0.650589,0.105502,0.316902,0.577467,-0.151855,0.949781,0.495084,-0.883683,0.569687,0.861371,0.341208,2.18495,1.36186,-0.853048,-0.381542,0.179926,-0.696893,-1.34153,-1.03252,-1.38011,0.540734,-0.284433,-0.736648,0.0653292,0.23934,-1.38691,-1.26965,-0.984705,0.513672,-0.842341,0.742546,0.149095,-0.0824739,-1.10919,-0.770695,-1.30197,0.930179,1.93105,0.362654,0.986894,1.69969,0.612546,-1.3387,-1.02684,-0.813928,-1.41523,-0.116647,-0.157876,-0.0849886,-0.224168,0.18437,0.53471,0.358277,-0.418739,-0.26475,0.27817,-0.121225,0.831721,0.360941,-0.667459,-0.454927,-0.567673,0.172787,-0.846325,0.00697456,0.961895,1.07028,1.29946,0.475346,1.41809,-0.880398,-5.03848e-05,-1.7506,-0.447617,-0.483023,0.719525,-0.339121,-0.192745,-0.164381,-0.3278,-0.729452,-0.116415,-0.129662,0.800342,-0.949955,-0.972676,-0.943663,-0.50619,-0.950242,-0.574026,-0.164651,-0.108426,0.15776,-0.353476,-0.0106533,-0.191366,1.49198,2.28795,0.986091,-1.4623,-1.22632,-0.630858,-1.46471,-0.00686721,-0.672189,0.173689,0.627287,-0.965239,-1.43028,-0.91052,0.102181,-0.918896,-0.151014,0.207251,-0.746756,0.547959,-0.634116,0.155346,0.384337,-0.42859,-0.726269,0.283603,0.313238,0.881908,2.22435,1.92686,0.436512,-1.4738,-1.38923,-0.375449,-1.46393,-0.697187,0.100663,-0.13637,1.59691,-0.205435,-0.261721,-0.915926,0.316195,0.765793,0.846705,-0.60387,-0.0278736,-0.978465,-0.114676,-0.47541,-0.638467,-1.54517,0.298595,-0.0381812,0.554292,0.373447,2.10968,1.13949,-0.285593,-0.695057,-0.640943,-1.11619,-1.29871,-0.764254,-0.856397,-0.193436,-0.383771,-0.682437,-1.07402,0.48345,-0.561734,0.118245,-0.84869,0.181494,0.885189,-0.0152894,0.654375,-0.0290987,-1.25282,-1.96797,-1.70353,-0.443981,0.0526442,0.489942,2.42141,1.39858,0.736781,0.894783,-0.709849,-1.96858,-1.36489,-0.74643,-0.103087,-0.13602,-0.0383952,0.668901,0.558801,0.550761,0.615845,-0.236079,0.431929,0.713187,-0.0184637,-0.988629,0.312014,0.72294,0.255682,-0.435147,-0.839614,0.0992141,0.761866,0.569431,0.902142,-0.0568603,1.17132,0.128115,-0.626893,-1.18393,-0.457076,0.729412,0.921884,-0.228351,0.518041,0.203313,-0.0116722,-0.934088,-0.256783,0.962809,0.916746,-0.296426,0.0138249,0.296377,0.101077,-0.454093,-0.269287,0.33048,0.849515,0.0968045,-1.30904,-1.02129,-0.0381406,0.111212,-0.580654,-0.84761,-0.663358,-0.0929895,-0.853365,0.389995,0.842648,1.34502,0.51395,1.00162,-0.896373,0.634228,-0.921813,-0.462817,-0.603748,0.427656,0.241249,0.582099,-0.35784,0.815719,1.05069,1.04196,-0.278264,0.269678,-0.483339,0.561474,0.199038,-0.0241419,-0.939047,-0.225024,1.3994,-0.402896,-0.11048,-0.28565,0.407712,-0.467747,0.17331,0.526576,0.564958,-0.115101,-0.549196,-0.237777,-0.776421,0.72277,0.485702,-0.82187,-0.746518,0.673785,0.542987,1.00873,0.353107,1.04718,0.101561,0.193036,-1.00661,0.627185,0.682298,-0.0821915,-0.834237,0.83434,0.0670616,0.474327,-0.593502,0.333154,0.13786,0.752115,-0.916633,0.370593,0.338352,0.679487,0.314249,0.98883,-0.868648,-0.0464797,-0.196738,0.887879,-0.328631,0.555744,0.984917,0.966441,1.11143,0.310598,-0.964317,0.870727,-0.423532,0.840777,-0.939591,-0.977638,-0.0146801,-0.542065,-0.374941,0.318946,-0.57631,0.181421,0.34543,0.112957,-0.248817,-0.256264,-0.853816,0.188208,-0.874935,-0.660756,0.692007,-0.875118,0.510226,0.767118,0.232866,0.0569529,-0.63016,0.335481,-0.728054,0.417627,-0.287035,-0.994625,0.340017,0.558338,0.142182,0.343311,0.267543,-0.777174,-0.25863,0.0378074,0.392431,-0.310404,0.261025,-0.988891,0.760063,
0.747978,0.65801,0.00930815,-0.181188,0.956114,-0.411115,-0.121616,-0.0755943,0.960936,-0.199011,0.532701,-0.53618,-0.682636,0.677266,0.683636,0.976561,0.893735,-0.0856044,-0.644948,-0.685415,0.869625,-0.480148,-0.116428,-0.357463,0.737907,-0.185339,-0.0820643,-0.562487,0.30369,-0.567858,-0.58037,0.488998,-0.315287,-0.681875,0.646275,0.87178,-0.771108,0.683641,0.214242,-0.885538,-0.0149012,-0.731682,-0.95483,-0.26126,0.5521,0.694109,0.180975,-0.0689827,0.640111,-0.601075,-0.53796,-0.896623,-0.18778,-0.246742,0.458724,0.774651,0.0559404,0.611988,-0.598315,0.9792,-0.31153,-0.890793,0.746858,-0.0463445,-0.83963,0.654588,-0.650496,0.463024,-0.145454,-0.898312,0.113379,-0.824877,0.431526,0.179369,0.27178,-0.578188,-0.871012,-0.897056,0.407348,-0.927087,-0.757886,-0.27412,-0.332011,-0.502976,-0.882565,-0.642994,0.662099,-0.957408,-0.732566,-0.85952,-0.291723,-0.184813,0.453485,-0.698051,1.11577,0.157841,0.00462612,-1.1648,-0.208892,0.817769,1.18299,-1.57076,-1.50487,0.0479266,-0.873594,-0.691991,-1.01439,-0.995987,-0.813184,0.037808,-0.622812,0.483322,0.913633,-0.860469,0.219825,0.745325,-0.986836,0.261491,0.542671,0.753322,1.07706,1.0268,1.09414,-0.012557,1.2137,-0.0364031,-0.919086,-0.238174,-0.666401,0.248932,-1.56241,-0.758286,0.485554,0.119965,-0.981537,-0.736203,0.171989,-0.835607,-0.269486,0.924253,-0.817866,-0.255776,-0.593555,0.463867,-0.0635133,-0.194917,-0.557048,-0.716315,0.334036,0.386726,1.52315,0.879016,0.490038,-0.501364,-0.402139,1.09557,-0.913062,-0.469665,-0.738971,0.37896,0.368021,-1.36714,-1.45341,-0.398001,-0.769116,0.0816367,-0.889727,0.30924,-0.0266427,-0.731803,-0.134046,0.884402,-0.720924,0.728116,0.564137,-0.984407,0.12802,0.641723,0.0448055,1.41844,-0.624354,0.70613,-0.591257,-0.0859661,1.01058,-0.508534,-1.02474,0.0788241,0.323749,0.903248,-0.956484,-0.0950869,-0.48551,0.106475,0.395702,0.455625,-0.349895,0.12255,-0.440989,-0.858053,0.593438,-0.0597572,-0.249414,-1.22051,-1.58862,0.77435,-0.185544,-0.976808,1.19512,1.89155,0.894722,-0.168259,-0.00432251,0.0614865,-0.41352,-1.04093,-0.685752,-0.0506634,-1.39879,0.315706,0.248384,0.62521,0.675823,-0.436705,0.887465,-0.977461,0.786134,0.317663,-0.64604,-0.219792,-0.165188,-0.754886,-0.652267,-0.283939,0.561423,0.292134,-0.482971,0.20549,1.12367,0.240607,-0.849145,1.36294,1.31533,-1.17456,-0.710489,0.467614,0.63381,0.202749,0.0359101,-0.462213,-0.779823,-0.0117082,0.673696,-0.99145,0.00629191,0.0168855,0.0139213,-0.429766,-0.405196,-0.645689,0.5405,0.200556,1.53478,-1.70487,-0.60418,-0.257811,-0.12049,-0.854844,-0.250411,0.365046,1.0241,0.374923,0.945879,-0.291961,1.58204,1.19785,0.255575,-1.00982,-0.0793871,0.498321,0.308634,-0.568909,0.210706,0.45442,-0.591207,0.797009,-0.944189,0.394738,0.364652,0.0543425,-0.420303,-0.56099,-1.09678,-0.680693,-0.142138,-1.04076,-0.683424,-0.507298,-0.211574,1.45202,0.97831,0.403991,2.32769,0.975524,-0.672176,-0.0476387,0.660904,0.177577,-0.596123,-0.0603319,0.645291,-0.168172,-0.0320908,0.224882,0.128249,0.614334,-0.00158648,-0.901911,-1.02137,-0.220131,-0.689077,-0.425167,-1.18508,-0.95041,-2.96052,-2.53474,-1.08031,1.9429,1.80155,1.61384,2.01832,1.14346,0.361228,-1.18875,-0.145583,0.404663,-0.112643,0.533809,0.784414,0.541597,1.08695,-0.235074,1.54117,-0.0914314,-1.09967,-1.96394,-0.227499,-1.18335,0.0785614,-0.234862,-0.991396,-1.27908,-3.64047,-1.81281,0.450638,0.874412,0.802733,1.43198,1.35714,0.679475,0.706101,0.573409,0.106454,0.86666,-0.00289926,-0.536941,0.444821,-0.552409,-0.296004,0.207496,0.0444933,0.114512,0.0840905,-0.203951,-1.53205,-0.877786,0.46824,-0.0611344,-1.44089,-2.05136,-2.78264,0.0844538,-0.463246,1.00012,1.10858,2.19338,1.87067,0.0286516,0.498649,0.415902,0.407363,-0.411944,0.280434,-0.667782,-0.231992,-0.134724,-0.501341,1.79283,1.01325,2.37678,0.133889,-0.708877,-0.0418932,-0.0146928,-0.802096,-0.181231,-1.18566,-2.7034,-1.93051,-0.179426,0.568478,3.31073,2.07987,0.487503,0.537384,1.38236,0.22138,0.435488,-0.0229283,0.786595,-0.398417,-0.941813,-0.865542,-0.681243,1.5287,2.1891,-0.000145108,0.423011,1.0591,0.847313,1.36207,-0.279936,0.693234,-0.190132,-1.69109,-2.97974,-0.897265,1.16559,1.30133,1.22858,1.0654,0.374666,-0.653356,-0.14304,1.30175,0.527601,0.289166,-0.795475,-0.864121,-0.122917,-0.558261,-0.512975,1.12035,1.25083,1.40895,-0.093593,0.156852,0.354815,1.8699,-0.530681,0.392196,-0.459287,-2.52417,-1.02355,-0.377184,1.68398,1.90867,0.829277,1.40393,0.73561,-0.749322,-0.22312,-0.0431429,-0.946047,-0.639411,-0.244916,0.371136,-0.694061,-0.143157,0.615086,1.02793,0.00689059,0.765737,-0.62901,-0.33276,-1.07931,1.53744,-0.674073,0.679731,-1.56474,-1.28408,-0.587863,1.51193,0.626117,-0.254013,0.272827,0.6689,0.610295,1.36442,-0.913189,0.306125,0.8373,-0.726477,-0.316571,-0.894655,-0.806999,-0.374275,-0.935066,0.613595,0.161271,-0.492914,-1.27825,-0.550447,0.772399,-0.771805,0.705133,-0.930147,-1.38697,-0.972594,-0.424366,1.52757,1.1531,1.32954,-0.412169,-0.348374,0.363167,0.277776,-0.412988,0.44342,0.364948,0.721771,0.51091,-0.5421,-0.301177,0.508452,-0.339291,-0.814019,0.876777,0.650404,-0.350054,-0.799818,-0.208985,-0.197723,0.333968,0.177999,0.018926,-0.854218,-0.290884,0.181599,1.25214,0.378384,-1.44627,-0.53204,-0.0480894,-0.0972478,-0.261309,-0.726904,-0.563769,0.523379,0.180429,-0.152379,-0.702045,0.398836,-0.134115,0.480141,-0.205437,-0.978009,-1.02336,0.331644,-0.818982,0.35713,-0.612424,-1.1273,0.449116,0.141694,-0.633289,0.317864,-0.00773933,-1.2891,0.344618,-0.425932,0.501331,-0.110705,-0.916547,0.859498,-0.456783,-0.235403,0.857479,-0.985595,0.768181,-0.293526,0.482175,-0.191837,-0.817816,0.214246,-0.0758556,-0.391804,-0.929895,-0.716311,-0.179974,0.287757,-0.513532,-0.00525063,0.825572,0.697651,-0.266356,-1.37092,-0.341513,-0.542995,-0.388921,-0.0951444,0.524057,0.792075,0.573289,-0.0926678,-0.94879,0.00863674,-0.784295,-0.860662,-0.835453,-0.202736,0.82715,-0.13498,-1.16457,1.08611,0.514739,0.230022,1.17791,-0.168114,0.508914,-0.932064,-0.290699,-0.147343,0.29055,0.516838,-0.048988,0.602626,-0.316491,-0.665845,-0.301837,0.902369,0.643877,0.745194,-0.426252,0.19303,0.047029,-0.420642,0.0457389,-0.909796,-0.919193,0.055398,-0.744969,0.490528,-0.603353,0.929655,0.352091,-0.643082,-0.220162,0.6841,0.825317,-0.654337,-0.162452,-0.251436,-1.04124,-0.450296,-0.0568389,1.03446,0.21146,-0.195428,0.317161,0.323269,-0.446638,-0.757195,0.984191,0.332881,-0.335771,0.69666,-0.455827,-0.630036,-1.34761,-1.03073,0.0408705,1.20707,0.0186679,-1.22309,0.0497521,-1.76633,-0.569486,0.159847,-0.645124,0.0671583,0.0971545,-1.01676,0.469385,0.454399,0.573861,0.535709,0.432281,-0.943785,0.431135,-0.854122,0.0617389,0.970725,0.536725,-0.509911,-0.881285,0.883585,-0.703447,0.510898,-0.567882,-0.25609,-0.47622,-0.734408,0.679562,-0.686235,-0.933442,0.216912,-0.504279,-1.10093,-0.847062,0.572632,-0.666053,-0.948841,-0.724346,0.238165,0.208231,-0.354412,-0.0397046,0.202551,-0.373028,-0.612049,-0.515305,0.958467,-0.648608,-0.631496,0.828575,-0.0760527,-0.593418,0.622753,0.648092,0.00945579,-0.244593,-0.817341,-1.05026,-0.652794,-0.928726,0.371928,-0.647024,0.143005,0.569732,0.898156,-0.422871,0.411497,-0.863887,-0.889584,0.206885,-0.974487,0.339579,-0.209387,-0.16599,0.934202,0.00930507,0.135808,-0.495735,-0.503873,0.29209,-0.405435,0.415223,0.213344,-0.362758,-0.0165103,0.141506,-0.953035,0.711179,-0.757333,0.757258,0.329188,0.715193,-0.0409224,0.357575,0.516953,0.964354,0.782342,-0.450728,
-0.015656,-0.448653,0.231239,-0.143834,-0.0498367,-0.607349,0.333232,0.355022,0.889218,-0.12125,0.692923,-0.709159,-0.364125,-0.640389,-0.324014,-0.455,0.0873745,-0.752007,0.710685,-0.938658,-0.797113,0.018952,0.287637,0.846248,-0.995361,-0.790033,-0.0398267,0.968505,0.577013,-0.578784,0.344035,0.559435,0.0668661,0.315038,-0.888774,-0.195878,0.640498,0.591175,-0.988774,-0.0160973,0.686638,0.141831,-0.0487158,-0.551691,-0.556654,-0.384269,0.415452,-0.647155,-0.69586,-0.842168,0.85747,0.517253,-0.200964,-0.405683,-0.0607013,0.178869,-0.61919,-1,-0.207678,0.979425,-0.34121,0.474753,-0.481507,0.523599,-0.75488,0.214197,-0.719981,-0.51859,0.111348,-0.172956,0.821803,-0.0527022,0.202425,0.11734,-1.07177,-0.147367,0.465514,0.0778161,0.668672,0.188053,-0.733745,-0.1963,-0.0361644,-0.591113,0.557482,0.308695,-0.0234787,-0.640492,-0.676735,0.346296,-0.621633,-0.768111,-0.148946,-0.206418,0.188525,-0.665986,1.5453,1.1479,1.20997,0.930819,-0.285352,1.17099,-0.55054,-0.96715,-0.582065,-0.800441,-0.65862,0.261957,0.186763,0.471272,0.00306257,-0.476547,-0.668874,0.430769,-0.651891,0.993163,0.685038,-0.624161,-0.446377,-0.357111,0.383362,0.925081,0.475042,1.73779,1.046,1.16015,2.48898,1.89223,1.37582,0.0487525,0.00232108,-1.12275,-1.1564,-0.535175,-0.271722,-1.62869,0.282454,-0.782049,-0.783555,0.448469,-0.0116276,-0.487838,-0.723522,0.288297,0.618939,0.248522,0.215243,0.853235,0.057684,0.508195,0.952877,0.983316,1.24815,1.41435,2.19052,0.987496,1.32104,1.29302,-0.600422,-0.391823,-0.57278,0.0461373,0.0557952,-0.402848,-0.97794,-0.843343,-0.356488,-0.836856,-0.121738,0.761727,0.492689,0.584038,0.662644,0.63191,-0.257743,-0.375587,0.391436,0.43921,0.13043,-0.618472,0.136575,0.559752,1.63859,1.44112,0.349025,1.69115,0.910764,0.563763,-0.0342907,0.235556,0.200305,-0.760436,0.299284,-0.168237,0.549065,-0.252508,-0.587511,0.455016,0.584562,0.355025,-0.230567,-1.21037,0.427537,0.0818274,-0.61566,-1.57082,0.300483,-1.78943,-1.08135,-0.124475,1.36982,1.66537,1.85882,1.07942,2.02686,0.874959,0.909632,0.35559,0.784133,-0.485743,0.371619,-0.00754399,0.138774,-0.682078,0.0685533,-0.0879821,0.17779,-0.758116,-0.086481,-0.965984,-0.222651,-0.358165,-1.0504,-1.69665,-1.74222,-0.724579,-0.779222,-2.26034,0.14767,2.18291,2.4261,0.925714,-0.0187117,-0.441099,1.99269,1.52695,0.053754,0.563854,-0.230372,-0.269728,-0.296171,-0.00488941,0.372967,-0.458366,-0.877374,-0.105962,0.0823206,0.275139,-0.0803555,-0.927973,-0.933908,-1.88635,-0.22986,-2.01968,-1.22487,-2.2055,-0.844276,0.790677,1.84326,2.2863,0.0692297,-0.116182,0.86149,-0.208699,1.23694,0.720485,0.152,0.433201,-0.307126,-0.918525,-0.0651564,0.79506,0.243008,-0.086865,0.279541,0.203944,-0.0874189,-0.623096,-1.0026,-2.01447,-1.38115,-0.83047,0.285778,-0.987346,-0.912422,-0.341025,1.0528,0.828276,-0.653,0.111537,0.397013,1.64113,0.414333,0.628928,-0.684299,-0.183174,-0.509196,0.85015,-0.58739,0.199885,-0.715655,0.0219719,-0.375707,-0.792768,-1.78724,-0.528237,-0.878384,-1.2161,-0.0458839,-0.714795,-0.501185,-1.7607,-2.37016,-0.358109,-0.473668,-0.161579,0.909618,0.965105,1.01156,1.03723,0.992851,0.143126,0.242994,-0.950161,-0.279735,0.675747,0.530259,-0.679984,-0.681649,0.0999347,0.170953,-1.80708,-1.81449,-2.37713,-1.44662,0.107346,0.164546,0.450921,-0.170101,-0.823922,-2.25907,-0.787444,-0.572087,-0.907725,0.441543,0.0154395,0.212685,-0.253219,-0.0640147,-0.3678,-0.36169,0.286977,-0.181429,0.97437,0.0744957,0.818923,0.31178,-0.909783,-0.542709,0.346936,-1.41431,-0.0451489,0.760709,-0.615682,-0.0689763,-1.46987,0.0408473,0.330648,-0.878612,0.705483,-0.216208,0.784462,0.867094,0.804188,0.474664,0.293521,-1.04181,-0.864751,-0.972818,-1.0097,0.447634,-0.754691,-0.105624,0.443423,-0.659075,0.69556,-0.515621,-0.563287,1.20906,-0.64016,-0.460093,-1.279,-0.359233,-0.522753,-0.148435,-0.862229,-0.285534,-0.140364,0.420743,-0.390491,-0.384446,0.370307,0.554356,-0.421662,-1.08276,0.149772,0.799543,-0.497333,-0.590586,0.0365397,0.901547,0.933316,0.578619,-0.0460136,-0.250416,0.417308,1.0025,0.514463,-0.555798,-0.285331,-0.0573087,-1.46974,-0.402799,0.578162,0.694817,-0.423911,-0.470399,0.380994,-0.522697,-0.862803,-0.661317,-0.119708,-0.933919,-0.267156,0.164047,1.08163,-0.741504,0.975026,-0.929929,0.0610422,-0.863802,-0.910911,0.429202,-0.82442,0.252751,-0.464974,-0.498265,0.820452,-0.784558,-0.115533,0.532195,0.129129,-1.52924,0.0398165,-0.835974,-0.209169,-1.1293,-1.32573,-1.27253,0.114143,-0.563622,-0.28562,-0.0403849,0.270963,-0.0427201,0.73565,-0.56328,0.783806,-0.827762,1.14156,1.17182,-0.0354537,0.00268003,-0.370706,0.0602596,-0.204381,-0.638015,0.212143,0.699786,-0.356496,-0.417534,-1.15022,-0.412491,0.881501,-0.641654,-0.279212,-0.274624,-0.91729,-0.167156,-0.462081,-0.210046,0.396532,0.247404,-0.975981,0.101254,-0.946759,0.0905867,0.0800003,0.457806,1.53592,0.413674,-0.647922,-0.990192,0.73896,0.551641,0.275259,-0.12447,0.00167666,-0.976731,0.262183,-0.322853,0.380119,0.638077,-0.590377,0.824473,-0.208132,-0.339278,-0.993466,1.05038,0.0186101,0.273394,0.720578,0.22306,-0.0981159,0.481783,-0.68457,0.0461242,-0.24785,-0.0741286,0.588327,0.692291,0.342345,0.736566,1.27149,-0.325156,-0.473354,-0.272458,-0.541258,-0.181534,0.123092,0.544087,-0.0137669,0.921632,-0.161043,1.12459,-0.0638737,0.112979,0.867907,0.828432,-0.464735,0.0284738,-0.596064,-0.346085,-0.574719,0.358463,0.412223,0.914353,0.150377,0.715892,0.0506154,0.430887,0.831466,-0.530303,-0.0482511,-0.175345,-0.435743,0.811293,-0.0271523,-0.433671,0.106618,-0.587045,-0.703468,0.4002,0.97706,0.788013,0.00331672,0.137152,0.540147,0.803462,0.674422,0.0217868,1.12391,0.61292,0.239805,0.963686,1.54357,0.827814,0.458042,0.586768,0.364613,-0.924749,-0.280038,-0.146702,-1.11239,-1.44693,-0.358503,-1.72071,-0.182242,0.141032,1.08226,1.13463,0.417964,-0.814645,0.903085,-0.732287,-0.303995,0.897031,-0.0346996,-0.810333,-0.785347,0.304874,0.381627,0.990258,1.52199,1.24364,1.06188,1.49066,-0.565249,-1.14913,-0.271616,-0.671746,-0.31475,-1.76355,-0.621107,0.283135,0.887575,-0.520827,1.02151,0.267577,-0.171727,-0.347846,0.282701,0.447986,0.0415356,-0.279153,0.531053,-0.221016,-0.732403,-0.370416,0.715155,1.19289,1.54531,-0.0562858,1.68323,1.3547,0.526277,-0.688232,-1.24936,0.0104438,-0.974772,0.752532,0.785244,-0.0739262,0.686279,-0.0676894,-0.128611,0.465874,-0.591749,0.459605,0.27398,0.927534,-0.308573,-0.250893,0.705069,-0.478382,-0.27387,0.804906,-0.222869,1.0027,0.694267,-0.172204,0.839205,0.739937,0.661535,-0.543895,0.194778,-1.306,-1.10174,-0.712821,-0.0735781,-0.280608,-0.61709,0.188314,0.833582,0.0353111,0.0360801,0.829057,-0.21188,0.998023,-0.177099,0.518357,-0.116672,-0.826272,0.271902,0.11115,-0.767265,1.02179,0.314426,-0.713697,-0.766905,-0.691287,-1.16706,0.192719,-0.695816,-1.11743,0.216789,0.0421122,0.0897284,-0.90395,-0.546603,-1.04175,-0.489296,0.4771,-0.278956,0.821028,0.768225,0.0502687,0.675771,0.627674,0.524461,0.535997,-0.453615,0.536905,0.346427,-0.43476,0.450026,-0.205921,-0.801933,-0.0708793,0.73681,0.48221,0.290391,-0.777356,0.508183,-0.0416691,0.802633,0.27806,-0.893628,0.59026,0.53709,-0.87696,-0.993427,-0.306497,0.328715,0.526292,-0.447859,-0.261208,0.149388,0.491928,-0.716727,0.26316,-0.94186,0.0960556,-0.231239,-0.149893,-0.844979,-0.545261,-0.35698,0.149489,-0.396939,-0.25286,0.595854,-0.130774,0.617786,-0.831311,-0.614178,0.777324,-0.494529,-0.876348,-0.172473,-0.284646,0.614612,-0.0674154,0.81695,
-0.45146,-0.223426,-0.394208,0.891049,0.662099,0.131687,0.953307,0.72869,-0.233985,-0.91229,-0.312113,-0.959532,0.857051,0.0943325,-0.78753,-0.317545,0.744133,-0.58623,-0.257607,-0.676992,-0.95117,0.120762,0.305521,-0.55681,0.205359,0.102512,0.742119,0.336467,-0.539781,0.0586871,-0.294961,-0.891415,0.872555,-0.49853,0.659393,-0.322095,-0.690467,0.754332,-0.118883,0.760362,0.437613,0.962053,0.385147,-0.26809,0.809883,0.0385482,0.299893,-0.483551,-0.338709,0.769489,0.12278,0.736805,-0.761711,0.817621,-0.531053,-0.491012,0.335917,0.436689,0.645436,0.650628,0.752658,0.878017,0.821148,-0.232064,-0.950804,0.212839,0.08525,-0.486131,0.741093,-0.764468,0.873462,0.096043,-0.678496,-0.692004,-1.30075,-1.23246,-1.20457,-0.938182,-1.20284,0.355588,0.583998,0.282777,-0.0929289,0.0952483,-0.80932,0.347697,-0.211928,0.297761,0.0199626,0.417967,-0.47132,0.506716,-0.459385,0.3149,0.991843,1.31854,0.569831,0.209179,-0.199287,-0.278599,0.735878,-1.13551,-0.34019,-0.7372,-1.48421,-0.100332,-0.8176,-1.31047,-0.601192,0.00902337,-0.46519,-0.999268,-0.147679,0.0411695,-0.694735,-0.352336,-0.830733,0.992962,-0.445971,0.245957,-0.139891,0.875722,0.399267,0.728223,0.0643937,0.112812,-0.808976,0.279573,0.944207,-0.816362,0.652798,0.0789293,0.522483,-0.167066,-0.334503,-1.05192,-0.502762,0.26924,0.647343,-0.0328207,0.960875,0.579211,0.166272,-0.899975,-0.412658,0.216009,0.404117,0.10537,0.179118,1.72212,1.82916,0.363669,1.83527,0.39921,1.55865,-0.391609,0.109991,0.377506,-0.427422,0.78252,0.103145,1.45131,-0.0771102,-0.932183,0.434117,0.743161,0.486726,-0.493339,-0.0310984,-0.16369,0.184119,-0.134807,-0.591761,-0.865016,-1.01383,-0.72137,-0.177693,-0.262961,0.558301,1.2807,0.815084,0.345364,0.374657,-0.136331,0.722223,-0.0284428,0.0360075,-1.1972,-0.936441,1.21109,0.982235,-0.241673,-1.02956,-1.14143,0.738863,0.973319,-0.858334,0.506202,-0.0189089,-0.0410443,-0.528728,0.838992,0.997452,-0.862536,1.28035,0.623676,1.18319,0.364866,-0.413676,-0.0650471,-0.501784,-0.407083,-0.827925,-0.0433453,0.0479133,0.0602836,-1.32233,-0.543166,-0.194774,-0.379878,-0.272625,-0.419994,0.176703,0.403847,-0.447189,0.0699865,0.927229,0.247175,-0.568479,-0.678808,1.04517,-0.658701,0.770878,-0.0388477,0.891774,1.01509,1.12523,0.138906,-0.346052,-0.320648,-0.24305,-1.03058,0.290323,1.36801,-0.0582604,-0.978754,-0.586011,-0.441421,-0.409426,-1.25131,0.401776,0.868952,-0.895688,0.853051,-0.668427,0.538734,0.325904,-0.0385279,1.50662,0.933946,0.40959,1.61988,-0.0604812,0.45319,-0.775652,-0.794763,0.189994,-0.556116,-0.113601,-0.714668,0.477794,-0.61593,-0.200937,-0.732631,-1.82204,-1.51142,-0.886381,-1.5157,-0.22985,0.194106,0.486984,-0.0179717,0.158489,1.00282,1.02435,0.0266117,1.222,0.921645,-0.397411,0.341554,1.10906,-0.176887,-0.168366,-0.438505,-1.60461,-0.913763,-1.06613,-0.58967,-0.139412,-0.639533,-0.141069,0.190325,-1.34368,-1.19154,-0.599498,0.676477,-0.407637,0.972986,-0.780145,-0.610129,-0.77719,-0.885799,0.16011,0.292344,0.412212,-0.223765,-0.302868,0.919327,0.400488,0.290613,-0.713822,0.463359,-1.6415,-1.26852,-0.157161,-1.87591,-1.83423,-0.792855,-0.3929,0.0603284,0.775938,-0.974526,-0.376794,0.999381,-0.205559,0.559754,-0.369366,-0.174875,-0.624825,0.869975,0.310762,0.396187,-0.0568749,0.639265,1.25682,0.479079,-0.150875,-1.18771,-0.294393,-0.00904165,-0.966229,-0.0676792,0.884603,-0.522336,-1.67545,-0.23891,0.309352,-0.379157,-0.27574,0.576288,0.276937,-0.0031593,-1.02021,-0.835437,0.859493,0.851636,0.11901,-0.664846,-0.346252,-1.1647,0.737916,1.40803,-0.220792,0.522224,-0.832713,-0.766391,-0.423313,0.090569,0.16283,-1.26658,0.0160389,-0.0974997,0.46026,0.00123315,0.317478,-0.109594,0.276848,0.483229,0.683367,-0.140943,-0.872801,-0.17178,0.858882,0.84308,-0.476062,0.0932776,0.807462,0.67427,0.825261,0.428398,0.901964,0.913635,-0.278362,-0.263861,0.855714,0.366909,-1.57241,-1.95931,0.805254,0.234442,1.02029,0.106741,-1.80956,-1.37773,1.0023,3.05023,0.526632,0.49122,0.342506,0.399921,0.394086,0.986816,0.823088,-0.229466,-0.812324,-0.687776,1.11243,0.596697,0.803215,1.29076,0.338348,1.20035,-0.356578,-0.469118,-0.940657,0.0920228,1.2712,0.147873,0.645845,-0.759675,-0.666072,0.822122,1.84985,0.717415,0.118848,-0.368545,-0.188095,-0.461684,-0.957274,-0.71466,-0.0498906,-0.525414,0.625948,-0.95559,0.487066,0.729439,0.788094,1.89034,1.4851,0.313053,-0.0330167,0.291945,0.290859,0.450022,0.782154,1.39206,-1.99798,0.449967,0.0101336,2.86351,2.99244,1.00882,0.521404,1.26641,-0.415259,0.712853,-0.805109,0.541193,-0.346799,-0.499023,-0.694563,1.00706,0.20842,0.0197005,-0.703841,0.974989,0.0164452,-1.00272,-0.695332,-0.0919051,-1.4289,0.263691,0.145881,0.327045,0.124383,0.705689,1.34848,2.30666,1.17031,1.0533,1.25028,-0.00680178,0.669871,0.200704,0.0487218,0.388046,-0.718541,1.06597,0.524804,0.205677,0.114535,0.686499,-0.287907,1.44465,1.56107,-0.259791,-0.16595,-1.25986,-1.49084,-0.98175,-0.296637,-0.802751,0.331178,2.12743,3.56356,2.26229,0.85139,1.4111,0.457415,0.117048,0.757605,-0.920983,-0.366924,-0.749395,-0.636417,-0.509311,0.461993,-0.0853375,-0.159078,-0.122234,-0.837855,1.64718,1.14936,1.38044,0.876767,-0.904902,-2.69104,-1.06172,0.0574443,-0.698209,2.05519,3.55978,2.72905,1.04261,0.0398846,0.582192,-0.321049,0.248175,0.341626,-0.724368,0.761773,0.393071,-0.845486,0.0962327,1.15417,0.228459,1.01696,-1.26983,0.120307,0.508151,1.41661,1.13487,0.337236,-0.929537,-1.4548,-1.23253,0.91457,1.66839,2.34703,2.34065,1.52667,1.32949,0.4176,0.502573,0.492454,-0.32869,0.62548,-0.497909,-0.920469,-0.109164,0.488872,1.02589,0.117976,1.49032,0.433157,-0.975346,0.190228,1.2576,0.148655,0.087002,1.25263,-1.44449,-1.4023,-0.230007,1.39117,2.60678,1.86398,2.398,0.101108,-0.444736,0.334988,0.0871516,0.440446,0.353548,-0.29744,-0.708731,-0.960875,0.585681,0.228243,-0.665405,1.30098,1.08973,-0.0467146,-0.605153,0.412802,-1.14605,-0.793655,0.74934,-0.474995,-1.03296,-0.751076,1.75623,3.36127,3.06456,1.3182,0.971759,1.29088,-0.407728,-0.458849,1.03668,-0.122438,-0.563092,0.664772,0.984375,-0.0944548,0.178686,-0.00643103,0.373007,0.309418,0.572998,-0.0807588,-0.23501,-0.535066,-0.448724,0.0645086,-0.613541,-1.10425,0.878632,-9.29041e-05,1.3272,3.14006,1.21846,0.662228,0.319314,-0.311112,0.874461,-0.367986,-0.139762,0.0916169,0.637076,-0.923137,-0.263039,-0.243507,-0.830622,-0.0404789,-0.749693,0.160289,-0.552065,-0.261049,-1.23498,-1.26498,-0.20946,-0.765972,-1.61997,-0.515264,-0.0115144,1.11526,0.659737,1.69684,2.05025,2.12655,0.429166,0.373071,0.850528,-0.16605,-0.595236,-0.269803,0.666855,-0.477121,-0.482589,-0.51793,0.86993,0.0122657,-0.396325,-0.490267,0.563184,0.751554,-0.334088,-1.31773,-1.11943,-1.7582,-0.883851,-1.89868,-0.494551,-0.0706219,0.347388,0.238836,0.897637,0.707748,0.412327,1.23204,-0.383573,0.550405,0.188185,-0.543526,0.932342,-0.625805,-0.893551,0.785028,-0.595386,-0.442732,-0.0597841,-0.902282,0.376578,0.534509,0.77888,-0.455811,0.624042,-1.14647,0.206238,-0.291328,-0.570583,0.49019,-0.709956,0.827756,0.75199,0.229418,0.768943,-0.248569,-0.460404,-0.159611,-0.923652,-0.804161,-0.315775,0.800104,0.0974456,0.180334,-0.289407,-0.333964,0.847591,0.637745,-0.993218,-0.23823,-0.940447,-0.695573,-0.234885,-0.744323,-0.457174,-0.196915,-0.939897,-0.835921,-0.545625,0.376304,0.571722,-0.874177,-0.839221,0.314978,-0.913248,-0.0914333,-0.308197,-0.414594,-0.0162053,0.784539,0.896054,
-0.109531,-0.0419019,0.653066,0.356243,-0.826533,-0.088168,-0.693472,-0.502792,-0.245277,0.457442,-0.681936,-0.139866,0.15188,-0.238018,0.979198,0.377118,0.415387,-0.509995,0.143773,-0.45732,0.202795,0.966247,0.228431,-0.585864,0.704459,-0.987243,0.212134,-0.388958,0.680593,0.030549,0.636464,-0.6845,0.453963,-0.0171224,-0.408174,-0.748824,-0.144978,0.384532,0.793933,-0.201257,0.508277,0.36751,-0.585304,0.700822,-0.854165,0.479628,0.262871,-0.462071,0.652245,-0.915327,-0.312872,-0.799528,0.951048,-0.143529,-0.367046,0.275613,-0.21427,0.147191,-0.446821,0.880672,0.418671,0.866496,0.491522,0.671119,-0.366419,0.476938,-0.842641,1.1096,0.0800903,-0.969712,-0.551643,0.575238,-0.711298,0.105728,-0.616219,-0.2524,0.943271,0.717924,-0.00356962,0.463532,0.218298,-0.207653,0.376812,0.281411,-0.339579,-0.503098,0.826777,0.214846,-0.510206,-0.326508,-0.689014,0.833461,-0.705244,-0.385087,-0.533858,0.539034,0.564815,0.234177,-0.381937,-0.0441612,-0.153249,0.374388,0.263458,0.883388,-0.954065,0.706576,0.390588,0.125373,0.596336,-0.350548,-0.465668,0.411115,0.321879,0.831233,-0.557114,0.0381919,-0.409981,-0.784215,-0.893326,0.205215,-1.599,-0.0129863,0.225834,0.846657,1.66478,0.766381,0.73592,-1.14361,-1.99611,-1.0346,-0.264106,-0.757908,-1.1492,-0.545123,-0.872131,0.508601,-0.262161,-0.186837,-0.418483,-0.992926,-0.650502,0.464034,-0.0500706,0.622372,0.269111,-0.366161,0.0705254,-0.570305,-0.130953,0.206764,0.055924,1.65837,0.940216,0.822216,-1.76047,-1.15545,-0.50424,0.0772172,-1.04312,-0.492257,-0.534022,-1.16706,0.787439,-0.406519,0.900971,0.197453,0.83353,-0.0138425,-0.114414,0.271832,0.464039,-0.150736,0.669325,0.773413,1.01204,1.00573,-0.351534,1.46806,0.840664,1.74357,0.337943,-1.31432,-2.22329,-3.59522,-0.79287,-1.22962,-0.341227,-0.455046,0.689436,-0.409149,-0.36884,0.721457,0.520351,0.231872,0.974078,0.80724,0.634632,-0.301989,0.685262,-0.837117,-0.627119,0.110678,1.06073,0.510673,-0.151126,1.51666,1.93697,1.7542,-0.039934,-0.409369,-1.70729,-1.86937,-1.19458,1.4505,0.278147,-0.801404,-1.0722,1.2782,0.168113,-0.760352,-0.90814,0.959338,-0.628288,0.512662,-0.0997088,-0.261275,-0.188171,-0.621792,0.389948,0.149887,0.305229,0.82625,0.641461,1.53882,1.34706,1.31157,-0.849958,-1.69755,-2.02888,-2.34188,-1.53839,-0.0754267,-0.0461656,-0.267596,-0.568722,0.427378,-0.975205,-0.333107,0.647518,-0.781488,0.612929,-0.31075,-0.597643,0.952065,0.574275,0.996323,-0.367523,-0.449757,0.230302,-0.937201,0.232453,-0.432681,0.790111,1.46895,0.315638,-1.57172,-0.863309,-0.317407,1.86934,0.722146,0.0230422,-1.45196,0.331907,0.210327,-0.346661,0.347039,-1.01322,-1.13717,-0.567955,0.50015,0.642814,-0.527064,-0.559273,0.183202,0.174405,0.27962,-0.321047,-1.67248,-0.0486115,-0.242711,0.687636,0.667337,0.637385,-1.49678,-2.16291,0.346723,0.377477,1.05654,0.119433,0.529192,-0.164379,-0.950529,0.296934,-0.438311,0.629329,0.203867,-0.159063,0.655868,0.539497,0.993944,0.302195,0.85949,-0.682439,0.343598,-2.00196,-0.885982,-2.01014,-0.573044,-1.04737,0.672127,-0.606389,-1.31778,-1.04227,0.181154,1.11654,0.147776,-0.151317,0.486658,0.174791,-0.829846,-0.153898,-0.566526,0.0598582,0.0841117,-0.97205,-0.54379,-0.390407,0.754094,0.648512,-0.0540925,-0.47538,-1.32514,-0.84992,-0.590956,-1.55659,-1.02077,-1.82934,-1.35251,-0.94703,-0.722563,1.01706,0.815627,-0.686495,0.211605,-1.0203,0.0454216,-1.38151,-0.397243,-0.820861,-0.356972,-0.300364,-0.29719,0.642396,-0.257761,-0.0672323,-0.422082,-0.471233,0.424012,-1.46247,-1.3406,-1.45891,-0.950541,-0.365978,-1.11032,-1.40415,-1.36146,-0.491073,-0.768761,-0.80107,-0.398193,-0.212396,0.903015,0.0306619,-0.0610993,-0.20097,-0.448968,0.290135,1.13011,-0.508798,1.1327,0.895766,-0.0762086,-0.849055,-0.181312,-0.473905,0.450639,0.388571,0.0149055,-0.0858692,-1.13607,-0.304461,-0.85939,-0.118059,-0.369227,-0.902259,-0.810472,-0.262084,0.00841534,-0.100894,0.27275,1.28763,0.468836,0.0364621,-0.942013,0.852991,1.42159,0.0942102,0.578709,0.156096,-0.0608223,0.468917,-0.565696,0.81171,0.0196501,-0.320488,-1.11757,-0.675264,-1.03337,-0.228309,-0.848646,0.520475,0.370923,0.93095,-0.192907,1.31666,0.540617,1.14684,0.962638,0.315597,0.217657,-0.463141,0.902911,0.0484743,1.08542,0.345633,-0.593792,0.252692,-0.643699,0.653554,-0.0332836,-0.850376,0.494187,-0.78761,-1.7448,0.637564,-0.493873,0.481292,0.778796,-0.0363048,-0.588565,-0.465912,1.35065,0.0765502,1.13738,0.532828,0.379445,0.0709771,-0.16265,-0.519715,0.270973,-0.561126,0.458656,-0.826509,1.06771,0.543003,-0.735074,0.0345164,0.430252,-0.114282,-0.960029,-0.248735,-0.33467,-1.16758,0.576426,-0.357048,-0.205191,0.508911,-0.273862,0.465145,0.853197,0.871069,-0.437239,-0.308472,-1.40531,0.992987,-0.349223,-1.05865,-1.75185,-1.34836,0.286187,0.374426,0.0747301,-0.0603594,0.317802,0.504743,-0.542907,-0.197803,0.403775,-1.24599,-0.45769,0.910106,0.571846,1.40356,0.566504,0.107356,0.481261,-0.263501,1.34224,1.17987,0.651235,0.526706,0.736896,-1.15931,0.203268,-1.45622,0.456546,0.555332,0.897496,1.38318,0.641487,0.914342,0.733227,-0.483505,-0.76714,-0.615075,0.487509,-0.262597,-0.0858655,-0.511278,0.738701,-0.437293,0.578732,0.238987,1.37121,0.0296518,0.888507,0.363745,0.165059,-0.770457,-0.939506,0.415127,-0.537185,-0.775242,-0.826373,0.272639,-0.085896,1.16248,0.511508,-0.431774,0.295947,0.0890835,-0.489019,0.590155,-0.845294,-0.238314,0.0462568,-0.811984,0.524824,-1.24903,-1.14204,-0.61368,-0.327268,-0.579412,1.01348,-0.0563394,0.0955106,0.330738,0.368051,-0.539134,0.712212,0.762114,-0.106634,-0.00410638,0.457027,0.305847,-0.775852,-0.553887,0.346842,0.801433,-0.366013,0.950614,-0.492747,0.657855,-0.216204,-1.10369,0.352937,-0.329968,-0.510656,-1.04587,-0.0228303,0.933921,-0.36176,0.692831,0.756484,0.911535,0.968716,0.981998,-0.0504544,-0.0609596,-0.0462311,0.849981,-0.40383,1.15105,-0.259334,-0.23734,-0.19779,-0.204456,0.440897,-0.453492,0.441209,0.941218,-0.305729,0.0819012,-0.559176,-0.844711,0.615931,0.543301,-0.917014,-0.984649,-0.756668,-0.700177,-1.68315,-0.564668,-1.11693,-1.05335,0.317837,0.510285,-0.400106,-0.396118,-0.103729,-0.416305,0.578486,-0.771199,-0.871883,0.776055,0.385174,-0.920434,0.328693,0.0428572,-0.0796811,0.228325,-0.681683,-0.032095,-0.456278,0.101123,-0.165241,0.11491,0.386065,-0.599227,-0.577211,-0.077261,-0.194792,-1.23912,0.0195668,0.113846,-0.37888,0.446374,-0.522102,0.670513,-0.310464,0.176091,0.357341,-0.98999,-0.531663,-0.168688,-0.653671,-0.445156,0.664352,-0.777939,-0.862321,0.197436,1.05976,-0.203856,-0.211982,-0.790652,0.84051,1.01938,-0.619048,-0.771733,-0.976647,-1.41208,-1.30576,-0.390014,-0.698656,-0.341564,0.331737,-0.385675,0.732461,0.442397,-0.915036,-0.672903,-0.74572,-0.432605,-0.94598,0.336857,-0.22338,-0.12951,-0.443042,-0.915103,-0.0176839,-1.16359,-0.690876,-0.702721,0.69424,0.188984,-1.26687,0.22199,-0.294939,-0.194191,0.156865,-0.0889328,0.203156,0.750038,-0.567706,0.67737,0.856764,-0.541458,0.468856,0.119358,0.869564,-0.360881,0.283703,0.266563,-0.21456,-1.04172,-0.934849,0.316097,0.456245,0.302745,0.429994,-0.387917,0.220683,-0.625847,0.540668,0.27313,0.448658,-0.536212,-0.798771,0.666811,-1.14294,0.68527,-0.379444,-0.00122484,0.891354,0.206824,-0.770928,-0.658681,-0.996948,0.976745,-0.195654,-0.465865,-0.303058,-0.478024,0.407919,0.783136,0.850534,-0.123854,-0.14549,-0.930977,0.0816592,-0.28143,0.358967,-0.348639,0.0949371,0.120261,-0.360104,-0.540156,-0.259366,-0.147691,-0.931537,-0.941221,-0.885678,-0.762322,-0.351543,
0.197668,-0.87756,-0.87756,-0.780877,-0.49089,0.235145,0.105747,-0.134068,-0.882626,0.388897,0.456343,0.913388,-0.00833346,-0.368949,-0.200225,0.0650403,0.413617,-0.678762,-0.926267,0.337077,-0.0224921,0.132176,0.52916,0.0580767,-0.409894,0.0484939,-0.271218,0.869198,-0.529344,0.367718,-0.451827,-0.276101,-0.849178,-0.300533,0.173739,0.886521,-0.525468,-0.0336966,-0.890089,-0.0589764,0.599693,0.412821,-0.800108,-0.21641,-0.00158261,-0.445433,0.466321,0.553638,0.406966,-0.726103,0.444159,-0.0966355,0.0328074,0.769402,-0.118686,0.547288,0.177587,0.484481,0.802545,0.658561,-0.40601,0.231723,0.598407,-0.309864,0.310269,-0.855911,-0.0720175,0.391168,-0.261853,-0.428124,0.883415,0.838285,0.245084,-0.706284,0.666148,0.500779,0.263958,-0.614118,-0.100387,0.0262705,0.79085,0.222281,0.693533,-0.54442,0.454634,-0.594165,0.116153,0.0497757,-0.838141,-0.0511827,0.774678,0.465054,0.100623,0.127825,0.491984,0.560162,-0.121764,-0.32835,0.464586,-0.306827,-0.0431944,-0.869745,-0.512985,-1.0825,0.653555,-0.50231,-0.671041,-0.470989,-0.872252,-0.528393,0.455287,0.745903,-0.24955,0.377422,0.0318279,-0.759497,-0.507182,0.294162,-0.594741,0.692285,0.629028,0.479055,-0.351313,0.361563,-0.74316,0.600566,-0.0484627,-0.477381,0.514543,-0.406984,0.726511,-0.0105493,-0.217776,-0.639345,-0.070372,0.542368,-0.426016,0.839054,-0.982988,0.879052,0.826472,-0.0426344,0.400716,0.852196,-0.451101,0.0018442,0.781809,-0.57833,-0.641509,-0.0191923,0.364787,-1.14427,-0.0125909,2.07265,1.28275,-0.0975617,-0.196432,-0.789294,0.225768,-1.25893,-0.757615,0.647324,0.249108,0.814494,0.1622,0.163456,-0.790361,-0.362777,-0.243812,0.0163648,0.394053,0.859967,-0.455725,-0.753558,0.0429538,0.879681,0.681756,-0.524498,-0.0324344,1.81027,1.18858,-0.166549,0.442997,0.540573,-0.500617,-0.678808,0.528763,0.868734,0.930469,0.728113,0.331797,1.10768,0.199669,0.340714,-0.647827,0.115178,-0.0740073,-0.259623,0.491842,0.64332,-0.972325,-1.12226,-0.646731,-0.286878,-0.602592,-1.11813,-0.315305,0.515743,1.05363,1.05583,-0.4348,1.07391,0.571917,0.469995,1.03157,-0.889916,0.0561521,-0.643537,0.801038,-0.544636,-0.148837,-0.362526,-1.00543,0.717478,0.0345238,-0.384031,0.4848,0.675814,-1.19606,0.260009,-0.508823,-0.63069,-0.484779,-0.108359,0.450992,0.922504,0.322424,1.22876,1.15887,0.974051,0.597327,0.0395054,0.0940115,0.454807,1.25461,-0.397731,-0.137973,0.452236,1.25941,-0.278727,-0.767479,-0.853883,0.0931731,-0.562607,-0.520973,0.857271,-0.609411,-0.707335,-0.368962,0.0252522,-0.46001,0.235127,-1.5041,-0.992407,0.629979,0.40042,0.731119,-0.0829368,0.25021,-0.647616,-0.132978,1.57238,0.40311,1.00295,1.07964,1.04029,1.03886,-0.550481,0.100445,0.383284,-0.574572,0.353569,-0.108114,0.424845,0.357996,-1.11894,-0.0251453,-0.755827,-1.05552,-1.17214,-1.11841,-1.20872,-0.954094,-0.691306,-1.17647,-1.56794,-1.11431,-0.375093,-0.213683,0.0739599,0.0521808,0.506725,1.02885,0.120589,0.0124934,1.1401,-0.757428,0.856917,0.667776,0.840982,-0.546445,-0.0539229,0.135981,-0.0627743,-1.082,-0.748054,-1.3703,-0.111362,-0.716737,-1.59206,-1.94695,0.312201,-0.808833,-2.3164,-0.212507,-0.637678,-0.710508,-1.11475,-0.0104701,-0.712595,-0.991116,0.35762,0.0582675,0.367629,-0.507903,0.16389,-0.2313,0.555775,-0.794237,-0.75173,-1.03702,0.309084,-0.735526,0.00958671,-1.14437,0.691015,-0.181399,0.535062,-0.257826,-0.203234,-0.200603,-0.984817,-0.639492,-0.399779,-0.740376,-1.77815,-0.544718,-0.312757,-0.0211186,1.41096,0.0986153,-0.137687,0.973825,-0.710794,-0.0104068,0.594108,-0.495845,-0.572142,0.184906,-0.862148,-0.17462,-0.779868,-0.667474,0.0243275,-0.833466,0.281305,-1.18132,0.740419,-0.568665,0.373896,-0.845289,-0.191879,-0.5132,-0.773027,0.169125,0.726676,0.493564,1.01628,0.173351,-0.369058,-0.9133,0.505397,-0.0958582,-0.674262,0.0137199,-1.02795,-1.13947,-0.761174,0.410571,-0.306917,-0.788676,-0.537757,0.522036,-1.92833,-1.74828,0.419841,0.958173,-0.120085,-1.28464,0.0394944,-0.165467,0.293468,0.73782,-0.24344,-0.835447,-1.03036,0.158068,-0.184389,0.979813,-0.604972,-0.601489,0.434069,-0.293509,-0.28985,-1.10708,0.512182,0.37653,-1.07343,-1.00107,-0.818359,0.310846,0.516961,-0.671115,-0.707046,0.98325,0.106926,-0.22112,-0.137495,0.849526,-0.747032,-0.395154,-0.441482,0.0652814,-1.24634,-0.139781,0.806923,0.400414,0.861306,-0.32841,0.915775,0.901503,0.660814,-0.196978,-0.128063,-0.157477,0.604991,-0.577622,-0.394348,-0.607301,0.769649,1.1947,0.497816,0.758823,-1.66094,0.155736,0.258856,1.33374,-0.391863,-1.08668,-0.260872,0.14795,-0.297616,-1.31449,0.797084,0.836071,-0.881124,-0.765557,-0.92171,-0.833457,0.230026,0.000906823,-0.222528,0.679124,-1.15566,-0.275079,1.33911,1.13422,0.951394,0.701141,0.242301,-0.577485,-0.791092,-0.223378,-0.876685,-0.680235,-0.941443,-0.44934,-0.0834758,0.515484,-0.598069,-1.16604,-0.723157,-0.850712,-0.29776,-0.0890052,0.541935,-0.527308,0.174808,-0.269604,0.026357,0.218981,-0.0840797,0.866726,-0.0957937,-0.644776,1.25057,0.145522,0.856345,-1.02661,-0.0695013,-1.07328,-1.42902,-0.190749,-1.58908,0.143913,0.373092,0.262262,0.221383,-1.17647,0.824499,-0.699667,-0.558579,0.837214,0.238775,0.0125109,-0.55026,0.070663,-0.0968887,0.164739,-0.823039,1.25179,-0.131227,-0.424561,0.0767366,1.3772,-0.339554,0.473821,0.0587865,-1.12152,-0.228604,-0.559545,-0.426388,-0.974602,-0.63027,-0.627682,0.566,-0.729188,-0.223563,0.650801,0.507669,0.461959,0.415168,0.314326,0.659995,0.0020061,0.179897,-1.15941,0.548799,-0.483377,-0.714191,-0.78627,-0.549497,1.13007,1.81352,0.0196098,-0.870961,-1.64442,-0.545776,-1.73577,-1.036,-0.715548,-0.162455,-0.130694,-0.644099,-0.492372,-0.832138,-0.147554,0.338542,0.546552,0.632433,-0.734909,-0.766029,-0.024377,0.365307,0.162094,0.233516,-1.73223,-1.03897,-0.601655,0.988507,-0.0381622,0.246761,0.663413,-1.49166,-2.02822,-1.76448,0.0656193,-0.699369,0.00264024,0.276637,-0.495125,-0.96243,0.411495,-0.157121,0.907625,-0.277749,0.164582,-0.243509,-0.98095,0.0654725,0.758556,-0.282035,1.12773,-0.332366,0.91428,0.913957,-0.178594,0.793309,0.852209,1.19229,-0.637673,-1.92157,-1.92799,-0.248374,-0.536615,-1.37364,-0.852828,0.537474,-0.773887,-0.391035,0.201731,-0.203604,-0.915887,0.748283,-0.297647,-0.0276803,-0.982454,-0.539841,0.0790675,0.0252588,0.00833994,0.950929,1.46324,0.0819031,0.215423,1.02147,-0.0694535,0.301755,-0.696419,-1.59753,-1.74232,-1.51154,-0.558589,-0.652041,-0.252584,-0.577598,-0.360447,0.390951,0.431628,0.374289,-1.01045,0.818354,0.858638,0.775506,0.211221,-0.79619,0.344206,1.13494,1.32957,1.41633,-0.0464068,-1.01824,-1.33035,0.655281,0.923234,0.130384,0.0669058,-1.67149,-1.6753,-0.890454,-1.33991,-0.112866,0.376686,-0.291797,0.545763,-0.118106,-0.0875785,0.0958061,0.579386,0.646962,0.644581,0.97412,0.443653,-0.128122,0.920772,-0.354432,0.915323,0.425798,-0.451468,0.0775089,-0.38149,0.130411,0.220657,1.29674,-0.741992,0.405729,-1.24687,-0.140075,0.61931,0.47518,-0.606733,-0.823132,-0.946832,0.0361887,0.845776,0.983986,-0.960157,0.260842,-0.616138,0.688711,-0.669851,-0.0947994,0.261793,0.566662,-0.249738,0.97094,0.13944,0.425032,-0.621688,0.227225,0.344703,0.920943,-0.524513,-0.522352,0.883437,0.452731,-1.0294,-0.49406,-0.306123,0.686462,-0.671448,-0.164978,0.593493,0.229225,0.92645,0.999451,0.712943,-0.647511,-0.455245,0.827692,0.47087,-0.453959,0.246794,0.458667,-0.415727,-0.397638,-0.592952,0.353932,-0.907852,-0.353718,0.71911,0.269792,-0.66877,-0.915187,-0.823653,-0.711465,-0.0396433,0.658845,-0.902562,-0.196952,-0.0503861,0.413556,0.100253,-0.485519,
0.968017,0.66216,0.508774,0.951659,0.458052,0.308206,-0.36607,0.708243,0.483627,0.382,0.333048,-0.936338,0.646315,-0.738303,0.22953,-0.5927,0.573168,-0.692984,-0.990539,-0.809442,0.00912503,-0.938414,0.421491,-0.0721763,0.724845,-0.9494,0.276467,-0.804498,0.562487,-0.118076,0.447981,0.633045,-0.573107,0.22599,0.872128,-0.0581375,-0.714653,0.815603,-0.453143,0.886725,0.182451,0.459548,0.534493,-0.707715,0.165539,-0.0234398,-0.0414644,-0.949146,-0.564484,0.325138,0.00286587,0.111609,0.19303,0.476485,0.918027,0.489731,0.718558,-0.524522,-0.985595,0.26152,-0.645678,0.429939,0.664869,-0.428839,0.50629,0.503152,0.298075,0.597522,0.626226,0.944479,0.434289,-0.384184,0.248958,-0.973034,-0.387492,-0.994101,0.0332043,0.15055,0.477919,-0.912999,0.543086,-0.310325,-0.306314,0.331706,0.527573,-0.856563,0.0182806,-0.743963,0.768399,0.0855739,0.288308,0.468872,0.0953638,-0.0322959,-0.793198,0.410472,-0.680495,0.647287,-0.0709373,0.0366292,-0.415919,-0.167416,-0.52504,0.187119,0.0306002,-0.615442,0.813021,-0.568603,-0.520252,-0.98467,-0.961303,0.765984,-0.856685,0.649098,-0.667959,-0.894127,0.280565,0.370623,1.06784,-0.440823,0.196536,0.139306,-0.568696,1.04364,0.00430131,-0.25066,-0.607933,0.5581,-0.585973,0.177083,-0.608227,-0.162498,-0.200746,-0.940929,0.154892,-0.0993668,0.812959,0.84229,-0.550154,-0.101086,-0.217872,-0.182043,0.890818,-0.682101,0.498938,0.577816,0.400149,-0.0553576,0.994498,-0.361148,-0.735502,0.391814,-0.0960184,0.646456,-0.62387,-0.938425,0.326869,-0.674471,0.870871,-0.490007,-0.099247,0.165483,-0.47104,-0.86412,0.339114,-0.400329,-0.510923,-0.0999165,-0.2772,0.538388,0.687938,-0.451719,0.206041,-0.114784,-0.470251,0.292763,0.142827,0.636706,-0.485219,-0.713017,1.13444,-0.415344,0.239405,-0.093254,0.143338,-0.534578,-0.404288,0.152571,0.650843,-0.257227,0.204098,-0.0210517,0.101146,-0.0981253,-0.219659,-0.997545,0.306619,0.760701,0.786995,-0.511784,0.0585503,-0.387041,-0.181281,-0.0108441,0.0473481,0.377446,-0.251507,0.566737,0.555534,-0.301085,0.721634,-0.27328,1.01993,-0.103841,-0.485543,-0.761989,0.464424,0.989716,-0.593247,-0.700624,-0.0382817,0.306701,1.00587,-0.500728,0.937709,0.496092,-0.681848,0.760479,-1.05275,-0.448116,-0.858611,-0.201377,-1.14144,-0.523975,0.0752315,-0.303108,-0.108027,-0.0495087,-0.0140818,0.596902,-0.207739,-0.428136,0.43118,0.522897,-0.0636693,-1.08715,0.494541,0.0267609,-0.21159,-0.761932,-0.0657222,-0.248865,-0.918577,-0.174374,0.457423,-0.784723,-0.108821,-0.92953,-0.824687,-0.636487,-0.750068,-0.35757,0.223338,0.418882,0.142056,-0.404277,0.0935211,-0.000728439,-0.0684729,-0.779721,0.096989,-0.641979,-0.11813,-1.058,0.509741,1.03372,-0.192478,-0.495675,-0.657423,0.171301,0.267617,0.883966,0.449354,0.796574,-0.161389,-0.152446,-0.458316,0.118516,0.322891,-0.166272,-0.466737,-0.530515,-0.144945,0.113961,-1.68231,-0.517837,-0.524536,-1.4158,-1.10831,-0.521788,-0.594742,0.716677,-0.653355,-0.572384,0.210993,0.0212664,0.103047,-0.758115,0.0871404,-0.120382,-0.393566,-0.707963,-0.317186,-0.711192,0.0829363,-0.275706,-0.0406413,0.673474,0.692592,0.857993,-0.80673,0.257739,0.0201835,0.128833,0.144381,0.514601,1.0171,0.708833,0.813093,-0.785104,0.312743,0.466042,-0.695686,-0.581084,-0.88025,-0.483714,0.193895,-0.945812,0.314433,0.783435,0.528082,-0.600395,0.607619,1.17527,-0.0169663,1.09666,0.974197,-0.424089,0.278989,-1.12275,-0.666954,0.788272,0.421785,-0.118525,0.0913091,0.275792,0.61409,-0.430716,0.916374,1.05297,-0.884941,0.709274,-0.499009,-0.408868,0.304178,0.754583,-0.998069,-0.716221,-0.355893,-0.282769,0.671625,-0.671871,0.957423,-0.251109,-0.759457,-0.812154,-0.154827,0.757174,0.853713,0.38397,-0.535329,0.711371,0.259475,-0.0582629,0.065716,-0.285781,0.874155,0.574185,0.134535,0.780181,0.15815,0.132861,0.196753,-0.638444,0.157818,0.866625,0.238416,-0.0585642,0.0812,-0.0250178,0.135833,-0.90666,-0.173938,0.895171,-0.9896,-0.488695,-0.766387,-0.751329,-0.875776,-0.860692,-0.402894,0.235641,0.284898,-0.37679,-0.182264,0.370284,0.828996,0.694159,0.36927,-0.0987863,-0.287027,-0.673452,0.349689,-0.236623,-0.483122,0.243592,-0.688778,-0.644185,0.263309,0.440934,-0.136608,0.790274,0.0824766,-1.04976,-0.130539,-0.256096,-0.715507,0.0130855,-0.877821,0.614598,0.391408,0.393484,-0.755979,-0.37042,-0.332983,-0.454487,-0.755632,-0.34252,0.756645,-0.838068,0.194774,0.153851,0.664346,0.32435,0.213982,-1.19642,-0.0628757,0.474806,0.713496,0.64587,-0.0744631,-0.482127,-0.615913,-1.02782,-0.545793,-0.47373,-0.926548,-0.822266,-0.787841,-0.209901,-0.71004,-0.19244,1.04923,0.377371,-0.00949395,0.26937,-0.705985,-0.5562,0.378039,0.315047,-0.6052,0.372108,-0.85262,0.175152,0.393014,-0.875803,-0.124564,-0.575712,0.0265915,0.263429,-0.920272,-0.714783,-0.255598,-0.0773649,-0.572515,-0.00894798,-0.0304008,-0.150551,-0.13951,0.384463,-0.442194,0.484485,-0.00614841,0.66013,-0.646798,0.810358,-0.350766,0.630185,-0.941628,0.424842,-0.0270981,-0.832011,0.291901,-0.143542,-0.961317,-0.0311983,1.0613,-0.0628583,-0.304683,-0.978224,-0.887457,-0.678129,-0.704502,-1.02009,-0.24668,-0.0190157,0.84084,0.873571,-0.20649,-0.933395,0.587297,-0.19578,-0.972228,-0.0374693,0.815722,-0.449932,-0.78836,0.645751,-0.802439,-0.435722,0.592355,0.467925,0.252144,0.0497507,-0.721663,-0.560417,0.449529,-0.653493,-0.249724,-0.00985426,-1.00555,0.373812,-0.139536,0.300375,0.0929983,-0.851319,0.709992,-0.495877,-0.784133,0.768253,0.469344,-0.336083,0.756294,-0.481707,-0.526277,-0.77574,0.939825,-0.798787,0.375164,0.133816,0.509524,0.828689,-1.07849,-0.103815,0.358623,0.392491,-0.580023,-1.45763,-1.46259,0.487817,-0.39046,0.501402,-0.145113,0.761715,0.909433,-0.869856,-0.629742,0.632496,-0.105197,0.737541,0.404155,-0.913374,-0.560103,0.426234,-0.535331,0.196489,0.363633,0.278295,-0.38006,-0.523484,-0.56128,0.625679,-1.09816,-0.413477,-1.7574,-0.193512,-0.400631,0.225112,0.845927,0.826608,0.056775,-0.679065,-0.754424,-0.576507,0.604333,0.575549,-0.416913,0.0746788,0.753958,0.86637,0.752765,0.648853,-0.489077,-1.23095,0.0053306,-0.849733,0.298451,-0.0534374,0.425512,-0.901726,-0.259472,0.474906,-0.651075,-0.659279,1.13748,1.25098,0.502101,-0.549444,-1.059,0.721381,0.740395,-0.0910365,0.552335,-0.169958,-0.124546,0.624928,0.867075,-0.467238,-0.779319,0.0800311,-0.420276,-0.937052,0.555922,0.807452,0.261306,-0.231121,-0.808207,0.36949,0.204425,-0.619141,-0.151951,1.12528,0.921497,-0.242036,0.44619,0.599398,0.880439,0.680798,0.304063,0.135141,0.893324,-0.309488,-0.824274,-0.59856,-0.133679,-0.199536,0.714096,-0.801267,-0.104657,0.855474,-0.902065,0.30034,0.775501,0.332353,-0.0223526,-0.525885,-0.652432,1.28795,1.06746,0.402234,1.16178,-0.174571,-0.215523,-0.00139474,-0.0145062,-0.747894,-1.01699,-0.253672,-0.622913,-0.486129,-0.0497757,-0.520005,0.936309,0.478915,-0.858538,0.5913,-0.767165,0.471424,-0.884139,0.367594,0.812611,-0.290698,0.268568,0.136388,0.503756,0.923605,-0.320884,1.10392,0.0854671,-0.660211,0.973753,0.513743,0.993305,0.528843,-0.160306,0.445051,-0.186071,0.719535,0.727775,-0.0013123,-0.674673,0.423018,0.468189,0.853117,0.341796,0.237055,-0.116388,0.659652,-0.0608528,-0.97822,0.21352,-0.562547,-0.948644,-0.604543,0.164913,0.413977,0.510331,0.140758,-0.941245,0.0492997,-0.104673,0.337063,-0.0145454,-0.00308237,0.0763268,0.789422,0.0995819,0.158238,0.343242,0.548509,0.723014,0.659376,0.0327039,0.689326,-0.805629,-0.39465,0.513225,0.35257,0.925197,-0.82799,-0.762408,0.750633,-0.631076,-0.42934,-0.330931,-0.861851,0.0869669,-0.866542,-0.593184,0.85217,0.65978,0.227699,0.0992767,-0.732109,
-0.490097,-0.532945,0.0822474,-0.499191,0.0472732,-0.142247,-0.237037,-0.578845,0.700613,0.312723,-0.305277,0.142369,-0.838036,0.191033,-0.492338,-0.00292397,-0.939695,0.933348,0.641224,-0.869808,-0.349528,-0.611011,0.352336,-0.500717,0.12418,0.48912,-0.293069,0.874447,-0.545396,0.909909,-0.415448,0.83813,0.427412,-0.8605,0.66397,0.76741,-0.365976,-0.519864,-0.513562,-0.0712881,-0.531514,0.0257518,0.40325,-0.73082,0.226876,0.737185,-0.699621,-0.412101,-0.22459,-0.660153,0.464472,-0.253136,0.299173,-0.584704,-0.546312,-0.0250557,-0.875423,0.266518,-0.1348,0.618382,-0.158281,-0.902994,-0.929796,-0.263478,-0.324115,0.787226,0.207574,-0.747448,-0.161537,0.578153,0.645763,0.862576,-0.918484,0.323729,0.388989,0.0150937,0.334003,-0.955838,-1.00709,0.341767,0.211121,-0.983367,0.458296,0.717154,0.746025,-0.0649739,0.994171,0.0835105,0.183664,-0.180012,0.661215,-0.906939,0.285142,-0.0667967,-0.813417,0.428174,-0.605224,0.934222,-0.986558,-1.10593,-1.2331,-1.2419,-1.41341,0.0880825,-0.182995,-0.772985,0.34221,-1.15391,0.0718382,-0.162594,0.902197,0.467696,0.357341,0.125828,0.853965,0.290156,-0.80612,-1.02892,-1.07177,-0.385432,-0.889103,-0.998185,-0.0505027,-1.44087,-0.457725,0.822693,-0.832759,0.101909,-0.00426784,-0.739274,-0.236421,-1.29835,-1.32685,-1.14386,-1.12225,-0.68385,0.588577,0.287491,0.970339,0.404214,-0.190344,0.861934,-0.862582,0.0977475,0.387418,0.672682,-0.469329,0.0963858,-0.761763,-0.913956,0.278549,0.364473,-0.705171,-0.958164,-0.0222139,0.587021,0.343486,-0.671218,0.658756,0.119755,-0.156932,-1.00986,-0.131985,0.650938,-0.899748,0.160671,0.0250868,-0.48054,0.766655,-0.0216138,-0.646452,0.161732,-0.923054,0.116895,-0.496061,-1.02783,0.622923,-0.0287358,-0.115337,0.0575219,-1.37837,0.284345,0.364635,1.07203,0.949684,-0.258643,-0.433431,-0.873205,-0.688422,1.0005,0.204202,0.821335,-0.116999,-0.370751,0.0842815,0.589606,0.704215,-0.880434,0.820871,-1.0554,0.377938,-1.18774,-0.227943,0.232306,-0.981989,-0.524181,-0.158648,-0.861231,-0.403003,0.644735,1.09446,-0.657921,-0.200706,0.324351,-0.207417,-0.559666,0.110894,0.842474,0.61864,0.209782,0.191592,0.804023,0.620672,0.310355,0.924016,-0.246973,0.670701,-1.09351,-0.500071,-0.0650516,-0.239876,0.368906,-0.797566,0.595498,-0.049163,0.0128816,-0.978453,0.127888,2.12958,1.7369,0.105503,1.39321,-0.27184,-0.525148,-0.395277,0.121647,-0.176274,-0.0117598,0.187918,1.28742,0.862209,-0.921579,0.488266,-0.850921,-0.193868,0.0885797,-0.708732,-1.26841,-0.46705,0.264514,-0.315805,-1.2306,-0.308505,-0.883514,-0.587889,1.86522,0.750374,-0.134559,0.16937,0.274483,0.885143,-0.452229,-0.307247,-0.104713,-0.556389,0.257486,-0.148232,-0.269187,-0.439551,-0.968742,0.349345,0.393446,-0.907381,0.426658,0.32238,-0.190177,-0.338941,-0.198815,0.351227,-0.242212,-0.977926,-0.237598,-0.76816,1.49997,1.18069,0.224812,-1.0777,0.0596306,-0.342713,-0.449927,-0.354913,-0.908212,1.2178,1.47878,0.829212,-0.229155,-0.13681,0.381964,-0.779657,0.387073,-0.937167,-0.335798,0.900083,0.0342728,0.663164,0.514757,0.245774,-1.143,-0.0577545,-1.93648,-1.02487,0.325947,1.64785,0.792981,0.952961,-0.600802,-0.517942,-0.893233,-0.317284,0.934073,0.538559,0.559351,-0.438808,0.373516,0.565972,0.905898,-0.360088,-0.179535,-0.0157063,-0.789303,-0.858327,0.845832,-0.522478,-0.443214,-0.927981,-0.464148,-1.01378,-1.81438,-1.84534,-0.276721,-0.260831,1.18667,0.235263,0.130808,0.174511,0.633234,-0.213801,0.263626,0.684467,0.415599,-0.687629,0.350311,-0.149361,0.298496,-0.0408646,-0.77276,0.165509,0.584223,1.25161,0.163445,0.767118,0.384253,1.13083,0.0677499,-0.871506,-1.30523,-0.234903,-0.149014,-0.116378,-0.0680067,0.598771,0.437286,0.419467,-0.242012,-0.822194,0.573932,0.92175,1.28308,0.670332,0.726635,0.228564,0.0293342,0.341533,0.972767,-0.393237,0.770034,0.599155,1.13739,0.347214,0.268899,1.06875,-0.00719768,0.365377,0.0740856,-2.88522,-3.10935,-2.36458,-1.22269,-0.694607,-1.4176,0.303385,-0.148235,0.906047,0.169208,0.865326,0.314698,0.0772556,-0.362929,-0.131861,-0.536401,0.763176,-0.802731,0.139679,-0.945485,-0.783532,-0.884005,-0.341965,0.512003,1.60662,2.8163,0.908644,1.05797,-1.35212,-1.19179,-1.18648,-1.38502,-0.731584,-1.3126,0.509245,0.992939,0.634279,-0.346521,-0.413897,0.624935,0.511087,-0.692287,0.759846,-0.328427,-0.987365,-0.18515,-0.639623,0.049743,0.283074,0.344436,0.832738,0.565794,1.45422,2.35832,2.43644,1.41351,-0.783881,-0.151797,-0.386344,0.164104,-0.721264,-0.173379,-0.36419,0.711521,0.149491,0.535022,0.885284,0.295989,0.450699,-0.137282,0.52026,-0.405254,0.691092,0.63942,0.699514,0.512309,0.118706,-0.0465607,-0.388227,0.0116607,1.78138,0.722683,0.448006,1.05259,1.25001,0.861538,1.4264,0.795548,-0.856007,-1.05822,-0.991782,-0.684659,1.0722,1.12356,0.440453,-0.703901,0.21179,-0.646068,0.763036,0.000444118,-0.78976,-0.76013,-0.572471,0.872677,1.29753,1.69429,1.51242,-0.722188,0.199309,1.14958,-0.596003,-0.416206,0.219452,0.176996,-0.657543,-0.398144,-1.15459,-2.05914,-2.62202,-1.67824,0.334904,0.355056,0.0749705,-0.632997,0.633156,-0.568724,0.829086,-0.657014,-0.198584,-0.980401,0.641977,-0.706876,0.279719,1.1258,1.49522,0.981128,1.60427,0.164573,-1.20624,-1.63148,-0.13636,0.384785,0.731864,-0.308246,-0.456943,-1.84021,-1.29179,-1.49801,-0.0769965,0.212167,-0.342969,1.01994,-0.745445,-0.568196,0.0336346,0.100402,-0.501999,-0.801394,-0.802747,-0.302234,-0.254946,1.86723,0.766548,0.328763,0.595095,-0.45925,-0.633599,-1.67054,-0.626023,0.346963,-1.51847,-0.509213,-0.622846,0.150964,0.0341601,0.204388,-0.02499,0.777631,0.0586877,0.407492,-0.859422,0.886166,-0.718259,0.403424,-0.847225,0.768853,-0.2326,0.114903,0.537453,1.38138,0.096164,0.653906,0.226574,-0.717189,-1.1279,-0.153152,-0.581532,-1.11397,-0.498974,0.23719,-0.445204,-0.448598,-0.757405,-0.569662,0.373613,0.859343,0.440264,0.145898,-0.371336,0.971938,-0.542536,0.260414,-0.570605,0.597766,0.886619,0.0754069,1.01125,0.784547,0.325964,-0.339381,0.539426,0.75536,0.249215,-0.0464191,-0.537936,0.0941646,-0.651303,-0.0529807,0.753494,-0.577376,-0.402603,0.973293,0.681637,-0.424968,-0.0936279,0.430586,-0.573385,0.531796,-0.830334,-0.531968,0.803827,-0.677419,0.900588,-0.814877,-0.677408,-0.459099,0.493003,-0.233166,0.323138,0.89783,0.26645,0.104168,0.895039,0.694152,-0.326573,-0.58737,-1.05583,0.470555,0.496481,0.475895,0.0212255,0.660255,1.07961,0.841339,0.780523,0.360195,0.830092,-0.356975,-0.435286,-0.596362,-0.105667,0.794744,-0.787258,-0.297395,0.0304676,-1.43204,-0.0519221,-0.24417,0.617287,0.206016,-0.744468,0.872176,0.388701,0.00558756,-1.14254,-1.27185,0.517627,0.432773,-1.00603,-0.12973,0.106048,-0.817046,0.294356,0.989349,0.721426,0.214637,-0.186926,-0.886044,-0.155481,-0.0169915,-0.89676,-0.863194,0.487516,0.110283,-0.830687,0.0700191,-0.323779,-1.23877,-0.853741,-1.10903,-1.38757,-0.679852,0.455092,0.292816,0.465268,-0.902106,0.691492,-0.562002,0.207409,-0.841789,0.267605,0.943499,0.926078,0.424482,-0.537461,0.538987,0.501083,-0.320122,0.279078,-0.057783,0.774077,-0.696408,0.241709,0.219812,-0.613865,0.479439,-0.121957,0.136754,0.597958,0.575391,-0.79038,-0.84922,0.606922,-0.264409,0.653675,-0.962614,-0.72718,0.220086,0.711538,0.372295,-0.683462,-0.673269,0.239174,-0.423444,-0.568529,0.598865,-0.0414136,-0.89119,0.248669,-0.689489,0.340241,-0.852664,0.188303,0.626617,-0.234599,-0.30791,-0.697926,-0.80787,0.0497929,0.468822,-0.264808,-0.0367505,-0.599251,-0.782953,-0.722245,-0.613953,-0.56444,-0.702322,-0.416791,-0.211768,
0.538987,0.212745,0.816156,-0.516892,0.0607624,0.210791,0.761345,-0.691885,0.0666219,-0.027192,-0.964537,0.937498,-0.112949,-0.280007,-0.749443,-0.12656,-0.584765,0.236061,-0.419233,0.181127,-0.893307,0.867183,0.763054,0.487838,-0.0204779,-0.478011,0.09653,-0.0163884,-0.385723,0.671804,-0.55681,0.420881,0.153966,-0.649849,-0.773054,0.114049,0.30368,-0.846619,0.433719,-0.0619871,-0.667915,0.240925,0.617574,-0.655606,-0.927071,-0.667818,-0.115072,0.32081,-0.0888008,-0.288501,0.911984,-0.560473,0.80932,-0.774102,0.935545,-0.173132,-0.716849,0.28367,-0.245094,-0.827268,-0.586475,-0.144118,-0.267807,-0.27056,-0.15402,-0.515604,-0.208596,0.292512,-0.251684,-0.811609,-0.605976,0.210136,0.85852,-0.288759,0.669035,-0.349154,-0.171749,0.419184,0.150296,0.811522,-0.892343,0.801194,-0.979308,0.889645,0.367534,-0.645497,-0.958128,-0.486196,-0.408226,1.00312,0.541174,0.908079,-0.514497,-0.641604,0.644315,0.0954997,1.31856,0.442517,0.312963,-0.413514,-0.144903,-0.112986,1.03707,-0.30668,0.29731,-0.113829,0.407888,-0.9761,-0.686504,0.177428,-0.732353,0.571764,0.251564,0.753044,-0.842949,-0.217795,-0.966037,0.571416,0.557198,0.985906,0.443624,1.34561,0.423983,1.20539,1.34993,0.243743,0.995534,0.150101,0.949967,-0.139109,0.400957,0.365852,-0.804184,-0.269492,0.223255,-0.885843,0.450919,-0.150803,-0.845732,0.835679,0.882076,-0.0896939,0.516818,0.911734,0.757856,1.19537,0.923211,-0.0744806,0.409022,0.141184,-0.163568,0.630411,0.0607993,-1.02242,0.424713,0.647315,0.16424,-0.333708,-2.05743,-0.348419,-0.656259,0.255893,0.871952,0.736962,0.0596882,0.872065,0.720098,0.206442,0.768303,0.820063,0.110535,0.484287,0.144424,1.19599,-0.539476,1.12717,-0.323905,0.311449,-0.018567,-0.268402,-0.9975,-0.911747,-2.04554,-1.23046,-1.04563,-1.10711,-0.59707,-1.19112,1.13449,0.616409,-0.0055543,-0.00381984,0.233374,0.785214,0.596059,-0.227537,0.982055,0.0410973,-0.546785,0.226597,0.800137,-0.20265,0.552297,0.79228,-0.43529,0.679293,-0.0200225,-1.11471,-1.11542,-0.472666,-0.554141,-1.68037,-0.509545,0.493895,-0.130117,0.64724,0.0249122,0.107113,-0.680095,-0.780169,-0.258039,-0.0730198,-0.12338,-0.803378,-0.843064,0.68546,0.643261,0.725616,-0.443509,0.706653,0.302822,1.02219,1.87297,1.40732,-0.188089,1.2786,1.48173,0.0779201,-0.683953,-1.26578,-1.62943,-0.193519,1.24769,0.626663,-0.205673,0.572145,0.482133,0.586573,-0.428824,-1.04068,0.339896,0.646574,-0.508347,0.443033,0.403415,-0.676745,0.258576,1.48,1.89664,2.05196,1.75437,1.06236,1.60914,1.92644,1.8097,3.2038,2.28593,1.74421,0.677248,0.422385,0.530014,0.210425,1.24765,-0.14474,0.0764604,-0.670857,0.342709,-0.707289,0.294877,0.941586,0.743645,-0.459107,-0.0917532,-0.0841254,1.49355,1.12284,1.80938,0.0861704,1.08308,0.0316761,-0.404758,0.808483,0.991188,3.0171,0.855517,0.336292,0.0675954,1.21962,-0.513158,-0.55641,-0.236724,0.373931,0.0138384,-0.387761,-0.279796,0.622769,0.586026,-0.593484,0.235206,0.812676,0.956292,0.172798,-0.201195,1.18954,-0.320429,-0.702438,0.400339,-0.398252,-0.264129,-0.246223,-0.842066,-0.863673,-1.29772,-0.687047,-0.773313,-0.363959,0.203851,-1.05482,0.526871,-1.11143,-0.957181,-0.86905,-1.09684,-0.55057,0.573697,-0.0598327,-0.149327,-0.395251,-0.0988701,-0.533121,-0.147513,0.0332937,-0.632152,-1.28624,-0.324881,0.101816,-0.153248,-0.860579,-1.67702,-1.61018,-2.03902,-1.84227,-0.0477213,-0.959196,-0.0662854,0.172388,0.178176,-1.40457,-1.61484,-1.23823,-0.861236,0.714811,0.274682,-0.995235,0.0368969,-0.148234,-0.311813,0.84636,-0.968696,-1.00755,-1.22436,-0.017489,-0.32089,-0.162497,-1.45929,-0.616714,-0.70074,-0.666398,0.414144,-1.89699,0.493812,0.326872,1.2823,-1.03401,-0.969283,-0.926888,-0.451543,-1.04693,-1.09606,-0.00326719,0.23661,-0.375558,-0.196997,0.0748503,-0.236367,0.620808,0.682776,-0.926375,0.0816007,-0.284729,-0.194134,-1.35508,-1.26475,-0.688582,-2.53713,0.0440085,-0.133125,1.00965,-0.302215,1.20338,1.55018,1.15632,-0.539772,-0.404243,-0.0733356,0.517528,0.758267,-0.423173,-0.434879,-0.610419,0.720939,-0.689774,0.255629,-0.695292,0.0576299,-0.528508,-1.59886,-0.67625,-2.36007,-1.30752,-2.00802,-1.58656,-1.61164,-0.237098,-1.07896,0.967237,-1.15792,-0.961209,-0.302861,1.08935,0.0486156,0.22792,0.518157,-0.116676,-0.633679,-0.260528,-0.0837615,0.446675,0.924802,-0.882376,-0.326038,-0.138222,0.0929607,-0.493215,-0.702131,-1.37382,-1.40869,-1.98552,-0.67662,-1.22134,-1.35007,0.0948536,0.624095,-0.0361085,-1.54628,0.770392,0.0839088,0.854703,0.884951,0.948616,0.554105,-0.55032,-1.15317,0.221983,-0.486778,-0.490622,-0.888546,-0.255914,1.06908,-0.0932199,-0.996712,-1.00059,-1.36776,-0.512346,-0.58337,-0.887078,-0.357215,-0.163714,-0.566071,-0.409162,0.520781,-0.950743,-0.430169,0.0640743,-0.118884,-1.62376,-1.03371,1.6326,0.773517,-0.204212,0.32271,0.864578,-0.849089,-0.147088,0.541158,-0.0705283,0.259384,-0.285515,-0.815193,-0.590386,-0.00882908,0.386612,-0.0139957,-0.176094,-0.638442,-1.18732,-0.585976,0.513893,0.205138,-0.160278,-0.0527416,0.589001,0.0940908,-0.0422766,-0.31624,0.866458,0.489373,-0.588402,-0.842142,-0.536841,0.191109,-0.68596,-0.967223,0.982125,-0.46386,-0.326234,0.337062,0.517543,-0.966322,-0.425359,1.45081,-0.513434,-1.78722,-1.11483,-0.174759,-0.254609,0.0437683,-1.42495,-0.878684,-0.68135,-1.52491,-0.0438426,-0.122755,-0.618736,-0.534581,-0.683761,-0.467199,-0.703015,0.529377,0.293195,0.973571,0.758354,-0.057248,-0.389375,0.410594,-0.530909,0.505151,0.219898,-0.513649,0.0953283,-0.802731,-1.01841,-1.6403,-0.410771,-0.126887,0.629291,-1.65301,-0.793869,-0.378991,0.653568,0.262376,0.156149,-1.01656,0.249659,-0.254593,-0.263678,0.67293,-0.247536,-0.690847,-0.306986,0.740738,-0.73082,-0.877025,-0.486904,0.302374,0.0923254,-0.314753,0.0990359,-1.23897,-1.30691,0.369131,0.440709,0.872956,0.592276,-0.362388,0.670534,1.08492,-0.303112,-0.971623,0.171069,-0.259811,0.643591,0.236346,-0.892848,-0.36739,-0.783135,-0.451033,0.778619,-0.1167,-0.801463,-0.569025,0.668017,-0.342674,-0.1299,-0.464768,0.0858326,0.190107,0.0922056,0.737346,-0.202514,-0.3247,1.00172,-0.143634,0.731503,0.464368,1.13626,-0.0531263,0.184065,-0.131427,-0.671907,-0.147891,-0.252261,-0.97398,0.773919,-0.235267,-0.428816,-0.0689938,0.327518,0.089092,-0.254337,0.0560943,-0.727046,-0.618884,0.200065,1.35249,1.30996,-0.410175,-0.888886,1.18017,1.39892,1.13007,-0.292233,1.7185,0.686286,-1.01363,-0.789456,-1.12013,0.102365,0.461066,0.970796,-0.976478,-0.926756,0.590747,0.189489,-0.01957,0.20225,0.428216,1.24442,-0.0715348,1.81793,0.891478,-1.25246,0.237834,1.41726,-0.0293145,0.263287,-0.0128755,-0.0908255,0.289777,0.696429,-0.932924,-0.872119,-1.16404,0.348292,0.720467,-0.260194,0.328606,0.473011,0.341167,-0.672475,-0.776299,-0.685415,-0.262096,-0.932272,0.278262,0.662705,0.368363,1.03725,1.48405,0.448967,1.53567,1.29402,1.99754,0.233307,0.509321,1.4223,0.332358,0.100243,1.14219,1.19129,0.974598,0.553731,-0.427267,-1.05432,0.202596,0.578662,0.275002,-0.688528,-0.577013,0.190222,-0.608631,-0.395529,-1.08566,0.429025,-0.737911,0.328146,-0.159411,-0.430262,-0.188074,0.191296,0.436475,-0.237856,0.334025,0.153587,0.513265,-1.70167,1.14835,-0.0317932,-0.639905,-0.778558,-0.136145,0.876049,-0.4639,0.143529,0.677664,-0.637379,-0.489669,0.622547,-0.258095,-0.945677,-0.26017,0.0746014,-0.229658,0.5714,-0.751896,0.427636,0.132301,-0.760259,-0.322499,0.600496,0.957446,-1.15276,-0.586212,0.788276,0.0992027,-0.0254994,-0.761874,-0.495183,-0.521575,-0.654027,0.227882,0.607837,-0.0352489,0.380779,
0.845759,-0.803766,-0.70275,-0.964049,0.410199,0.223548,0.0310984,-0.665761,0.0263375,0.0878018,0.531663,-0.40141,0.20249,0.625477,0.463607,-0.178259,-0.240638,-0.0145573,-0.196142,0.308878,-0.169591,0.629139,0.842097,-0.322367,-0.138707,-0.669546,0.180212,0.858272,-0.38963,-0.82403,0.732963,-0.906735,-0.851558,-0.435591,-0.272805,-0.0620049,0.857273,0.205757,0.701382,-0.740112,-0.562717,-0.871333,-0.392776,-0.619002,-0.0814853,0.659139,0.317116,0.369552,-0.455787,-0.535436,-0.401348,-0.545274,0.0267647,0.489547,0.144078,-0.387066,-0.714408,-0.98645,-0.944151,0.274392,-0.421002,0.623096,-0.253679,-0.823545,-0.525413,-0.78314,-0.124453,0.342242,-0.205074,-1.1376,-0.382579,0.381682,-0.107614,0.338841,-0.869391,-0.55604,-0.867529,0.443141,-0.560163,-0.963103,-0.534161,0.353143,-0.689383,0.275613,0.906003,-0.709403,-0.105441,0.754568,-0.0766186,-0.816954,0.925296,0.390178,-0.738318,0.117341,0.0794486,-0.909477,-0.142191,-0.0598288,-0.436691,-0.411898,-1.58301,-0.218869,-1.28841,0.250862,-0.178025,0.136724,-0.0673769,0.460704,0.265152,0.570746,0.347684,0.146519,-0.18131,0.90112,-0.810046,-0.978103,0.721275,-0.639799,0.483228,-0.328643,0.487203,0.337403,0.0489968,-0.658525,-0.790512,-0.355324,0.0190313,0.257276,-1.08189,-1.37458,0.0565274,1.01244,0.926727,-0.193543,-0.942845,-0.045395,-1.11429,-0.894369,0.572672,0.84503,-0.316568,-0.948363,-0.803614,-0.162164,0.842237,-0.332591,-0.15975,0.148395,-0.349569,0.0557087,-0.628734,-0.773597,-0.0930568,0.0105171,-0.154047,-0.672626,-0.142721,-0.738665,0.412173,0.797572,-0.0804631,0.377534,-0.397363,-0.594405,0.90277,0.82926,-0.859396,0.286419,0.472396,-0.738656,0.483943,0.407157,-0.311975,0.699854,0.406476,0.736392,0.174392,-0.173883,0.680324,-0.257346,0.564592,0.116407,0.00378467,-0.854157,-1.3536,-0.168883,0.358016,0.167444,0.369374,0.595824,-0.98278,0.773847,0.268574,-0.278878,-0.241615,0.703013,0.470137,-0.639515,-0.118157,0.257837,0.347606,1.39998,0.634869,-0.04298,-0.287679,0.79721,0.392464,0.774209,-0.099186,-0.99055,0.567933,-0.843277,0.139314,0.0980932,-0.0380672,0.892514,0.107551,-0.446862,-1.20035,-0.957806,0.269991,0.706525,0.497934,0.658205,0.273963,-0.515009,0.733896,0.90559,0.458587,0.267984,-0.658443,0.299427,0.686974,0.511798,0.812301,0.625818,0.883583,-0.840331,-1.70266,-0.972878,-0.508752,0.934279,0.0732372,0.618809,0.87096,0.587672,0.552862,-1.11043,-0.185163,-0.258152,-0.382818,-0.990149,0.793452,0.117234,0.461519,0.316881,-0.171551,-0.562272,-0.622186,-0.748878,0.173103,0.797652,-1.10201,-2.69098,-1.40505,-1.89535,-1.71254,-0.0493774,-0.681547,0.7446,1.07449,0.718379,1.06252,-0.338272,0.421931,0.3684,0.85115,-0.0590772,-0.200891,0.92344,-0.749257,0.00808756,0.697767,1.00556,-0.201326,-0.00927876,-2.27027,-2.20406,-1.33173,-2.57251,-2.46874,-2.55929,-2.71194,-1.17246,0.236715,1.03469,1.13145,1.36465,-0.192749,0.100836,1.38385,0.146291,0.126359,1.19141,0.411231,-0.940628,-0.0719177,-0.0767228,-0.819391,0.232461,-0.29391,-0.570304,-0.950544,-0.680867,-0.890049,-2.08543,-2.26499,-2.29573,-1.58517,-0.481269,-0.254722,2.42675,1.83068,1.52027,0.2863,0.798495,0.40061,-0.121209,0.208108,0.201611,0.429207,-0.761594,-0.116016,-0.573307,-0.704536,-0.225505,0.430158,0.19786,0.0239297,-1.09602,0.14353,-1.1,-0.661342,-1.40564,-0.346959,-1.35567,0.225276,1.62195,1.90931,1.22809,1.81471,0.559715,1.50938,0.334808,0.810448,-0.623397,-0.506496,-0.478785,-0.109194,-1.10172,0.542704,-0.152849,-0.433983,0.596625,-0.840937,-0.391776,0.316225,-1.07125,0.634761,-1.53339,-0.195522,-0.148309,0.654825,-0.224878,-0.0679784,1.65193,0.0617896,-0.280381,1.35687,0.691068,0.459466,0.422819,0.612398,-0.71729,-1.5916,-0.925723,-0.582463,-1.1439,-0.540056,0.819985,0.432493,0.811452,-0.160496,0.488735,-0.305497,0.711224,0.221482,-0.464811,-1.58963,-0.0624828,-0.0988225,-1.18733,0.166342,0.424812,0.800316,0.607941,0.16752,0.691534,0.133505,-1.19155,-0.216009,-1.41849,-1.08601,-0.290839,-0.486558,0.850501,0.222615,-0.399427,0.177017,-0.83286,-0.743888,-0.835806,-0.355977,0.121256,0.561526,0.0159894,-1.31232,-1.52911,-1.97449,-2.51614,-0.50461,0.220442,0.0139341,1.11281,0.996993,0.665375,-0.289017,-1.076,0.190395,0.59445,0.344252,-0.787574,-0.716518,0.329946,0.69215,-0.322862,-0.600426,0.709274,0.506149,0.246964,-0.336609,-0.263565,0.159177,-1.03522,-1.17178,-2.60363,-2.9192,-2.71859,-2.86505,-2.1676,-0.719206,-1.53834,-1.53378,-0.306567,-0.606861,0.123875,0.899752,0.380071,-0.271364,-0.676857,0.584304,-0.676569,-0.643176,0.738471,0.580136,0.801356,0.999207,0.729312,-0.471992,0.0841614,-0.292489,-1.03557,-1.39527,-1.82574,-2.62811,-2.65717,-2.81681,-3.41194,-3.5378,-2.28307,-0.35386,0.136816,-0.927381,-0.237157,0.0212696,1.31314,-0.126348,0.74928,-0.317182,-0.61159,0.312181,-1.04178,-0.78892,-0.881432,0.458275,-0.121603,0.0509411,-0.106476,0.143935,0.615316,0.50303,0.432215,1.22381,-0.970549,-1.44194,-0.845378,-0.789777,-0.947772,-1.26416,0.119261,-0.690505,-0.368828,1.21944,-0.368237,-0.728464,1.03577,0.330882,-0.0493313,0.686267,0.803957,0.593402,-0.33725,0.915464,-0.723691,-0.4893,0.339105,0.309856,1.27729,0.26727,1.03756,1.18066,2.74071,1.23847,1.41832,-0.314424,-0.242948,-0.765447,-1.11581,-0.355257,0.48021,-0.419192,-0.256792,0.214247,0.87518,-1.19381,1.0045,-0.296292,0.843812,0.494446,0.702343,0.720634,0.812466,-1.05715,0.166486,0.385656,0.380311,1.02581,1.23376,0.635034,0.909735,1.29455,-0.205668,0.0259802,-0.681158,-1.24056,-1.39559,-0.457669,0.516516,-0.393929,-0.108181,-0.109285,0.628794,-0.258064,-0.352815,0.366681,-0.102529,0.947489,0.859188,0.532503,0.693324,-0.401677,-0.0884642,-0.18563,1.11302,0.559591,-0.117029,1.1685,-0.591702,1.25889,-0.400804,-0.967716,-0.505217,-0.428031,-1.95995,-1.22814,-0.253045,-0.29275,-0.471533,-0.708694,-0.449201,0.0975722,-0.456402,0.720763,-0.383792,0.356615,-0.921567,-0.676826,-0.562087,-0.738262,-0.358506,-0.183694,1.48781,0.824543,-1.52284,0.258945,-0.43738,-0.694246,0.01646,0.113436,-0.746128,0.658662,0.0886561,0.130388,-0.29157,0.078517,0.417473,-0.332923,-0.842955,0.639741,0.774011,0.659414,-0.501939,-0.578449,0.586657,0.377361,-0.122227,-0.0422672,0.387043,0.315706,0.482693,-0.681466,-0.713991,0.401573,-0.3729,0.49658,-0.318581,-0.902087,-0.159255,0.497584,0.592896,0.80959,-0.15027,-0.509788,0.647244,-0.274113,-0.634893,0.498082,0.110292,-0.511827,-0.331246,-0.865051,0.933897,-0.707755,-0.843013,-0.784341,0.0365364,-0.368938,-0.0929785,0.573441,-1.02943,0.585646,-0.52866,-0.77638,-1.59772,-1.16746,-0.724889,0.690279,-0.327098,-0.557211,0.0764421,0.67516,0.357779,-0.491655,-0.420519,0.717308,0.0447648,-0.79113,0.280222,0.813776,-0.0169988,-0.0224311,0.73217,-0.128424,-0.140505,0.673608,1.0845,-0.188878,-0.198331,0.472546,-0.10948,1.15496,0.81218,0.105605,0.395931,0.349962,-0.377941,0.111276,0.0326391,0.258046,-0.0100726,-1.11267,-1.01488,-0.881031,-0.550862,0.892433,-0.146519,0.0868862,-0.0906705,0.655446,0.372173,0.763909,-0.612463,-0.90096,0.748451,-0.877081,0.129262,-0.72579,-0.665692,-0.699856,0.498913,0.386984,0.868498,-0.184667,-0.265009,0.60179,0.368797,-0.113106,-1.07079,-0.282418,-0.558652,0.512384,-0.449583,-0.0819422,-0.660146,0.894833,-0.799432,-0.1395,0.158727,-0.994385,0.133213,0.540208,0.18759,0.943754,0.779936,-0.784642,0.0126935,-0.876028,-0.114796,-0.54333,0.528841,0.256812,0.499502,-0.837503,0.987277,-0.562719,-0.00589931,0.484683,0.820155,-0.0467623,0.0509438,-0.0249336,-0.0555742,-0.509079,0.657216,
0.668752,-0.522202,-0.332377,-0.29075,0.992187,-0.262001,-0.835322,-0.0992767,0.648915,-0.899472,-0.900266,0.0571001,0.613941,0.556322,0.979186,0.70043,0.924863,0.1583,-0.628346,-0.584887,0.681814,-0.97766,-0.0912809,0.848201,0.0473952,-0.673269,-0.715873,0.709037,0.246681,0.312113,-0.745781,-0.230323,-0.432722,0.28167,0.636905,-0.136705,-0.641699,0.600836,-0.686041,-0.109911,0.0352942,-0.301022,0.233598,-0.193269,-0.931493,-0.935201,-0.604053,0.637139,-0.997958,-0.74572,-0.127659,0.464156,-0.56914,-0.119114,-0.206091,0.435102,-0.98114,-0.376507,0.354656,0.759636,-0.50859,0.222717,-0.190835,0.707425,-0.368828,0.474453,-0.531115,0.603545,-0.72455,0.239828,-0.277113,-0.140957,-0.672158,0.455908,0.039886,0.975852,-0.0768356,-0.806394,0.907021,-0.605807,-0.125156,-0.627918,-0.128758,-0.26194,-0.618641,-0.832636,-0.416364,-0.346904,-0.412429,-0.278272,-0.301911,-0.177043,0.721623,-0.658279,-0.733767,0.401405,0.322512,-0.473972,-0.490849,-0.907347,-0.313123,-0.240445,-0.460141,-1.06249,-0.162744,0.692453,-0.252543,0.741748,0.395281,0.180581,0.755913,0.217078,0.792596,-0.238441,0.618337,0.483714,-0.251599,0.0202198,0.496917,-0.106387,-0.767989,0.994878,0.93369,-0.446613,-1.33142,-2.27712,-0.925383,-1.90989,-0.543628,-0.462962,-0.117831,0.857848,0.72026,-1.08245,0.562732,0.943772,-0.897232,-0.248563,0.750155,0.53386,-0.226478,-0.713553,0.198789,0.331738,-1.11982,-0.749734,-1.12101,-0.311704,-0.405312,-0.269379,0.591912,0.903613,0.770133,0.588424,-0.0542557,-0.798481,-0.355802,-0.239776,0.454699,-0.721575,-0.547814,0.135047,-0.0107072,1.08157,-0.911957,0.575801,-0.776545,0.412322,-0.0923185,0.685029,0.121541,-0.669275,-0.95431,-0.648507,-0.0461201,-1.08003,-0.735768,1.07848,0.824646,-0.711944,0.236539,-0.186177,1.35979,-0.654034,-0.262861,-0.682195,0.245986,-0.631901,-1.48393,0.711283,-0.323835,-0.67393,0.628772,0.29469,0.606008,0.638817,-0.15891,-0.0357251,-0.7244,0.759786,-0.296168,1.2155,-0.31248,1.63208,0.715236,1.28326,1.57345,0.761721,0.741919,0.422813,1.40668,0.684333,0.985083,-0.901323,0.234207,-0.414035,0.10961,-0.454821,-0.616693,-0.820832,0.892923,-0.526378,0.363677,-0.936193,-0.717826,0.186331,-0.417049,-0.998279,0.820783,0.952202,0.312889,0.592353,0.736403,0.455491,0.0062343,1.38261,0.793735,0.276962,1.57039,-0.79408,0.55195,0.331561,0.0724976,-1.27317,0.149816,0.00212798,1.00737,-0.128068,0.453063,-0.210442,-0.891279,0.596904,-0.997986,-0.512348,-0.00466854,-0.721547,1.10615,-0.124752,0.461479,0.479917,0.514625,-0.155397,0.950982,0.842666,-0.211309,-0.18205,-0.262687,-0.774399,-0.445313,-0.333957,0.778592,-1.17262,-0.231368,-0.656486,-1.01935,0.190383,0.412909,-0.072204,0.326206,-0.782878,0.834162,-0.940797,0.475146,0.252251,0.883909,0.982369,0.362154,-0.353444,0.173404,-0.0735149,1.11504,-0.555399,-0.740976,-1.26719,-1.13774,-1.72941,-0.678982,-1.12669,0.570031,-0.787218,0.327511,0.227763,-1.21636,0.627762,-0.835829,-0.208865,0.82178,-0.0447834,-0.326203,-0.848322,0.435008,0.920784,0.00480156,-0.867113,-0.500215,-1.08438,0.64867,-1.24263,-0.653778,-1.86262,-1.33139,-1.39196,-1.47522,0.0428359,-0.362656,0.0237759,-0.590581,0.210174,0.155521,0.875708,-0.603611,-0.944197,0.535197,0.318497,0.290125,0.907164,-0.519315,-0.905271,-0.199242,0.0728624,0.254366,0.547314,-0.109599,-0.999721,-1.00383,-0.675603,-0.888176,-1.81739,-2.35906,-1.73988,-1.38106,-1.55298,-1.83676,-0.701125,-0.276183,0.630095,0.563495,0.229347,0.72319,0.299415,-0.889721,-0.612766,-0.461015,-0.756337,-0.72393,-0.740284,-0.125139,-0.647699,-0.0803454,0.201649,-1.30675,-1.67791,-2.0042,-1.14891,-1.49267,-1.64905,-1.75946,-0.358893,0.759428,-0.323358,-0.414191,-0.555582,-1.30593,0.413505,-0.0213571,1.26958,0.452954,0.344895,0.472415,0.0489212,0.435642,-0.810189,-0.857953,-0.906716,0.957132,-0.712567,0.822366,0.00445294,-1.65217,0.189557,-1.84268,-1.71529,-1.70285,-0.844945,-0.576422,0.258988,-0.272869,0.309149,-0.248023,-0.752574,-0.933342,-0.434016,-0.798765,1.11327,0.859636,-0.420767,-0.890781,0.292003,-0.0659956,0.0212874,0.225119,-0.89853,0.44147,-0.320028,0.604777,0.39332,0.0504882,-0.398849,-0.478338,-0.323023,-1.22095,-1.05843,-1.11023,-1.00107,-0.237011,-0.292695,-1.25188,-3.03733,-0.589619,-1.23416,-0.870991,0.0962086,0.545046,-0.00663801,-1.00805,-0.672684,-0.0338448,0.135157,0.733879,0.839043,0.732145,-0.613593,0.408865,-0.234898,-0.783748,-1.50706,-1.42299,-1.41581,0.135715,-0.546415,-0.760518,-0.693399,-0.989153,-0.645163,-1.37713,-2.74721,-1.51224,-1.30799,-0.904936,0.178584,0.180393,0.302499,0.994669,-0.480324,-0.305277,0.907444,-0.0607013,0.950278,-0.691785,0.248532,-0.274685,1.05016,-0.631583,-0.814611,0.311179,-0.866866,-0.171618,-1.16406,0.417969,0.401589,0.668144,-1.58929,-3.05131,-1.82239,-0.52236,0.385425,0.125343,-0.690721,0.478444,-0.579647,0.814413,-0.147114,0.956041,0.672692,0.174963,-0.87513,0.726799,-0.922684,-0.905824,-0.0759647,-0.638215,-0.771956,-1.12326,-0.243043,-0.415018,-0.340192,0.224659,-0.275156,-1.64611,-1.00396,-1.62978,-2.3736,-0.587264,0.190271,0.565072,0.345819,0.907952,-0.347354,-0.668343,0.353162,-0.820218,-0.816524,0.836848,0.118151,0.657661,-0.0648413,0.445315,0.112225,-0.168868,0.345731,-0.0967548,0.186896,-0.2441,0.193732,-0.89248,-0.628291,-0.875755,-2.46633,-1.81013,-0.579777,0.588582,0.892412,-0.0560091,0.112981,-0.386376,-0.820939,-1.24886,0.87089,0.586745,0.959829,0.383343,-0.253713,-0.299333,-0.0387077,0.817839,0.0564599,1.16159,-0.672093,-0.548663,0.373789,-0.0485966,0.805088,-0.288981,0.215815,-0.512417,-0.373789,1.00536,0.475512,0.675961,0.778405,1.15709,0.346528,0.62614,0.380275,0.561605,-0.151724,0.440552,-0.341166,0.335551,0.892453,-0.340971,0.872061,0.144716,0.0172893,-0.756949,0.489175,0.497074,0.499358,-0.64364,1.52938,-0.263801,0.677203,1.89458,2.23429,2.05064,1.09464,1.28078,1.3659,-0.271144,1.14705,0.236073,0.801937,0.792244,0.731297,-0.898012,0.00668334,-0.723136,-0.501572,-0.741008,0.105331,-0.835166,-0.142932,0.740063,0.264635,0.347215,0.631442,-0.00153459,0.144219,0.973152,1.86647,3.02974,0.20431,1.59618,0.415938,0.976244,1.93642,0.23726,0.766952,0.404991,1.25184,0.0820193,-0.0529286,-0.00222269,-0.211158,0.85345,0.569384,0.319019,-0.149619,0.128591,-0.0102974,-0.762237,0.0736164,1.2137,0.907167,-0.140679,0.361177,1.42001,0.996883,0.379416,1.26035,0.94902,1.01891,1.81124,1.09025,0.804602,1.39344,1.22848,0.141224,0.897154,-0.762963,-0.37522,-0.145482,-0.226417,0.173009,-0.136792,-0.652248,0.104028,0.71026,-0.636594,-0.551398,0.940438,0.523468,-0.524021,0.600021,1.9849,1.61925,1.87444,0.806968,0.59217,1.8092,0.671872,-0.122813,-0.551863,-0.167218,0.335849,-0.622533,0.699207,-0.725147,-0.468795,0.115268,-0.191565,-0.560228,0.0244596,-0.846737,-0.289961,0.690677,0.57947,0.442135,-0.135303,-1.11314,0.241754,0.279552,1.19865,1.07543,0.25388,-0.562275,-1.07114,-0.0587464,-0.380918,-0.493111,-0.749757,-1.06527,-0.663166,-0.633877,-0.310392,-0.227414,0.331889,-0.454756,-0.208533,0.562548,-0.371624,0.450057,-0.152105,-0.0833522,0.178009,-0.0288224,-0.858952,-0.918316,-0.275431,0.788244,0.273722,0.502295,-0.931411,0.909164,-0.122931,-0.514516,0.302269,-0.670762,-0.792126,0.694184,0.585388,0.101078,-0.36784,-0.385723,-0.295999,0.181127,-0.38139,0.796686,0.867,-0.233558,0.881649,-0.0376355,0.286267,0.0725862,0.146275,-0.147986,-0.782345,-0.629566,-0.800413,0.267569,-0.0224696,0.985,0.886884,0.0740857,-0.0434437,-0.652608,-0.861118,-0.79454,-0.416619,-0.118323,0.911374,0.652211,0.38731,-0.878109,
